6479 50
a -3.569261 0.22830997 -0.81380785 -0.04054867 0.27965778 -1.0423744 1.1052041 1.3648536 -0.2998427 1.0011768 -1.4329273 -1.3730365 0.24193887 -1.0565137 -1.5711083 0.7050694 0.4229047 -0.77943504 -0.9885687 -0.24147816 0.8192133 -0.7146682 1.6845472 -1.2605025 -0.3328909 -0.14338647 -0.5167417 -2.8490157 1.2530626 1.2052795 -0.71219075 0.25653592 -0.50303614 -1.0916796 1.3942534 0.17338033 1.5276636 0.4654884 0.5073402 0.09864427 -0.5893933 1.8947866 0.50976694 -0.069804944 0.7534193 0.720368 -0.4152889 -0.6323044 0.70649964 0.63589096
and -2.8059514 0.03196042 -0.624294 0.37391156 1.0580821 -2.0676827 1.2959391 1.1455112 0.68041503 1.273279 -0.68789715 -0.6130277 1.562803 -0.8698584 -1.9332775 0.3167902 1.561366 -0.26489386 -1.7402798 -1.4189451 0.8078896 -0.6245219 1.2344215 -1.0713855 -0.92675084 -1.1204208 0.36389515 -3.369637 1.3572359 0.58971715 0.06719361 0.49976224 -1.4456159 -0.014080544 0.88951635 0.36180672 1.6982998 0.5552645 0.27365577 -0.19639961 0.3201859 1.9606023 0.16802882 -1.2462612 -1.723441 0.94577914 -0.4866564 -1.5001209 1.840415 0.26376492
black -2.6042228 1.3213805 -0.18827401 0.50456244 -0.38284767 -0.38288873 0.7980371 1.939617 0.49305183 1.4723967 -0.38418266 -1.5572157 2.0468273 -0.8440654 -1.9568582 0.3986581 1.2889445 -0.8815692 -1.9191846 -0.74122155 3.265715 -1.607749 0.6898009 -0.95069355 -0.28169212 0.7511179 -0.073660135 -1.9122144 1.5580485 -0.55074173 0.043770917 1.0996605 -2.3036263 -1.6819217 0.10885502 0.7654948 0.17083408 -0.3116934 0.3665272 0.06325138 0.030180212 1.7864445 0.53945476 2.0824718 -0.40421814 1.9250476 -1.3716544 -1.8572669 0.777744 1.3111064
is -1.5876286 -2.117866 0.44843358 0.7699735 -1.2024342 -0.09643137 -0.34774464 1.6162604 0.28042987 1.0381457 -0.7747341 -0.12559043 -0.12775177 -1.1408112 -1.4131223 -1.6308899 1.0433726 0.8208605 -2.4353426 -0.03642095 0.050508272 -1.0258439 2.395604 -2.6860912 -0.6917857 -0.12798765 0.4068332 1.5874164 -0.44814035 -1.6364231 -0.3900196 -1.4468318 -1.5817366 0.4110801 -1.288488 1.3164592 -0.46947736 1.1185824 -0.8442984 -0.8870685 0.048137736 3.4754713 0.83655894 -2.8342953 0.011588137 0.7025531 -1.0007988 0.55644584 0.029695855 -2.0436504
wearing -2.043354 -1.5040106 0.2579788 0.52239364 0.81184727 -0.48161575 2.966753 -0.023300335 2.1980927 0.7992006 1.8448741 -0.36963978 0.18462846 -0.75307155 -2.5294955 -1.5587776 0.32137948 -1.2806646 -0.43955457 -1.3260375 3.1634538 -0.31205994 0.6101924 0.68632334 1.0324401 -1.3705904 -1.1178443 -3.2257528 0.6095439 2.2881513 0.86107695 1.9164124 -0.008028056 -0.19946034 1.011828 -0.74288213 0.53268486 -1.3279258 -0.7119754 1.3162297 -0.628105 3.8969357 0.5742191 -0.44489425 -1.6792351 0.72123003 1.4381773 -2.0927312 -0.013958547 0.071443275
shirt -1.5640258 0.5563164 0.15523393 0.5064108 1.0277011 1.0692079 -0.36598226 -1.6862366 0.84066683 -0.22301699 -0.75196517 -1.2214129 0.86186635 -2.459693 -1.193493 -0.94731903 0.4574473 -1.0148988 -0.641936 -5.5539007 1.2112758 -2.4710896 -0.21683976 -2.9045355 1.0977789 1.4383808 0.53450745 -3.9366076 -1.5734006 2.0988078 -0.043657113 0.71766734 -2.8339717 0.42672092 2.9614422 0.7555451 3.92828 -0.12717713 0.81773394 -0.43785536 0.7282463 -0.65826267 1.6434304 -0.69088924 0.7673422 2.0703366 0.09441257 -1.071785 -1.3804762 -3.133998
the -0.43690646 0.5159158 0.27011454 -1.8410567 0.17822102 -1.530239 2.1741107 -0.040091895 -0.3751146 0.14219816 0.19505766 -0.028514607 -0.68033016 -0.7125168 0.824048 0.971567 0.545598 -0.5061378 -1.4381013 1.5375934 -0.096840665 -1.2158222 0.6283689 -0.812696 0.07909289 0.196928 0.9472513 -2.6164813 2.848093 1.361909 -1.8464825 2.1374207 -1.3192255 -0.117296726 1.3001579 0.5266401 0.36355796 1.8923757 1.5358301 -2.8635752 0.98610294 -1.2715878 0.79792273 -2.870927 -0.7070232 1.1646675 1.505916 1.3027264 -1.5793968 0.7917133
white -2.170854 1.3288802 0.03215452 0.81013685 -0.28988996 0.9209862 0.2452225 2.2939842 0.21271083 1.1634924 -0.15262917 -1.8499913 1.9556566 -0.59129936 -0.9167844 0.5572402 1.6641634 -0.91824645 -1.6616113 -1.3438874 2.5468848 -1.869182 0.91795826 -1.0503657 -0.8119524 0.3325344 -1.1725518 -2.5714576 2.3646731 0.016979605 -0.11452378 1.5913256 -2.1612885 -1.2417223 -0.4657001 -0.09734149 0.703008 -0.55257875 0.36683896 -1.116317 1.1003053 1.4737885 0.61699265 1.6114788 -0.7788116 1.1362271 -0.3859002 -1.10717 0.65294373 0.7147129
with -1.8779565 0.040582277 -0.06340485 0.68628097 0.37628567 -2.3123193 0.33369413 1.3124224 -1.0099182 0.18495885 0.5924307 -0.11870337 0.6033349 -0.9304009 0.7178342 -0.23844387 0.07832603 0.9133098 -0.6826976 -0.7041883 1.2705635 0.09688543 0.3100827 0.015020092 -1.0707061 1.5863656 -0.97840947 -1.4671249 0.48915055 -0.9058409 -0.106416166 1.7280667 -1.2558979 0.8307799 3.0659747 0.48404428 0.804364 2.1061058 0.10764617 -1.2063872 -0.26688686 1.1266302 1.4440023 -1.2919974 -4.2774944 2.4274633 0.31589124 0.573718 0.7218918 1.1163328
shoes -4.3467207 -0.9067769 -2.9644926 -2.487598 2.4939492 2.7625017 -0.24659437 0.55546606 -1.6637238 1.2155355 -1.4540019 0.4394801 2.8474586 -1.5163226 -0.9964904 -0.8081245 0.907701 -2.0119345 0.6965363 -6.168572 1.3221185 -3.0538633 1.8382413 -0.8250543 0.33637738 -2.9535768 0.55501086 -1.4101967 2.3999548 -0.5561393 -2.112065 0.6670396 -1.5060153 -0.61437416 2.4899008 0.18353188 0.84626836 0.5903895 0.31544998 -0.699695 -2.07884 3.8863606 0.99551815 1.0791906 -0.6928628 -1.8632005 1.1415331 -2.9895494 1.3323222 0.3648715
man 1.8635867 1.2426323 1.882548 -0.94426787 -2.9406698 -0.2590327 0.34890595 -2.7674737 -0.20889202 -1.1408366 0.7842902 -1.2299587 2.527725 -1.6462171 -1.3142617 1.0030153 0.46012804 -3.9474115 -0.9542297 -2.6129308 -0.71530503 1.3689499 3.1743894 0.38974905 -0.276411 1.2135931 -0.32699394 -3.6051812 -0.2342342 -3.5566585 0.37109262 -0.9461127 0.967005 -2.7955244 2.128984 1.8426554 2.2313159 0.09329858 3.0755403 1.5756164 -0.10523427 3.6441627 3.4251487 -0.62557566 0.67685974 1.1646072 1.5803751 -0.98324156 1.1619844 -1.1541762
of -3.6380525 -0.22397909 0.4164949 -0.6867354 1.7890648 1.0866765 -1.3052224 -0.33846128 -2.6405 -3.0528023 -0.2796121 0.44597673 -0.9537448 -0.4517307 0.6852009 -1.5502104 0.45414108 2.0013528 0.43358806 -1.138159 0.09580706 0.21655646 0.020356089 0.19745296 1.2403799 -0.08970392 0.1694693 -1.7888074 1.9882299 -0.6733264 -2.168602 1.3081573 0.8222673 -3.8722723 0.064880595 -4.1929064 3.6718266 -1.2215174 1.5511376 2.0142477 2.049289 -0.17364936 3.1702802 2.96805 -0.584614 -0.39024913 -0.88294876 -1.8504803 2.448175 1.2211912
has -0.60141736 -1.5566187 -1.1631593 1.9522337 0.79095227 -2.1607206 1.0709366 0.78857154 -0.35859513 1.3961024 -0.53284323 -0.34171477 -0.612437 -1.2924484 -0.4146942 -3.2884479 -1.3194734 -0.29991353 -2.459798 -1.0509269 1.1754434 -1.2731452 -2.5956087 -0.13553603 -0.07450755 -0.83341736 -0.9689695 0.96074545 1.7795948 -2.092647 0.4188652 -1.9720145 -1.5618808 0.9131601 0.6498795 0.68384176 0.15088563 1.2047333 -1.4609102 0.5643271 -0.8678756 2.3996985 0.72855437 -0.51394206 -1.881656 4.788708 -1.7956704 1.0987962 0.21580672 -1.700449
pants 2.4640896 0.37757397 -0.93374836 -0.9949121 -1.9717833 -3.3734329 -1.0963731 1.7092096 0.5285371 2.5900939 -2.426838 -1.6953162 -3.312791 -5.02865 -1.6558757 -0.19443643 0.69363934 -2.9044867 -0.76133156 0.5295688 2.248554 -1.5234593 3.692098 2.5234113 -0.56542724 -2.4304063 -2.0110252 -0.92346317 -1.2677684 1.3016378 -0.54074717 1.812817 -0.21794125 0.10365557 0.86946756 -1.4461169 2.0503464 -0.45846364 -0.91963005 -1.6070575 -0.48522082 2.7709332 0.33977172 2.0212612 -2.3193204 -1.2445912 -0.91394955 3.2547834 -0.5444013 -1.261701
he 0.460874 1.8929223 1.5919632 0.12563714 -0.49021125 -2.3201394 0.74814475 -1.4540299 -1.567053 1.618428 -0.21815161 -0.35618347 0.97955805 -3.034452 -3.2038915 2.2467203 -0.88045377 -3.269101 -3.2402956 -2.037339 1.01453 -0.16726936 -0.8980363 0.065515384 0.5013672 0.22006296 0.6535273 -2.2097883 -0.20832758 -2.8424659 -0.3030367 1.6826888 -0.17756101 -3.7902882 -0.27666467 4.468857 0.27288547 2.3143852 3.748461 -1.1939014 0.9921601 0.5325025 1.7182887 -2.557688 -2.412508 0.021978542 2.6898048 -2.0790627 -0.27243042 -1.4920341
pair -3.7363238 -0.9024589 -0.27874744 0.96325904 -0.110225044 1.0276883 -2.046509 -2.879148 -0.06082601 -0.6867786 1.3257428 -0.86744994 -0.28098032 0.93634564 -0.1084378 0.11538926 1.6198801 1.3850454 -0.9619403 -2.5818017 0.99599254 -2.6235151 0.36927402 -0.9802975 1.6700772 1.0315738 -0.28152254 -2.1285353 3.3021252 1.0949788 -2.8093078 2.1572454 -2.0011895 -7.5835147 2.1102028 -4.80372 3.6315155 -2.060806 1.1509966 3.2245517 -1.5762603 2.982936 2.9970555 0.25480777 0.4915067 -1.2378109 -0.89070106 -2.0967457 4.2830677 -0.35309088
dark -1.3441203 1.1767348 0.15397932 0.08655327 -0.9839537 -0.26782033 0.5434738 1.0298929 1.5740395 1.4940228 -1.9884152 0.17589407 0.7397114 -1.7642467 -1.5498748 -0.48471117 1.7053794 -1.6987281 -3.0267255 -0.760226 1.8370903 -0.32322955 0.6506587 0.01584696 0.75668234 2.2829542 0.022734333 -0.5795161 0.5367042 -0.40356413 -0.21067393 1.3537703 -1.195958 0.11086097 0.85166013 1.3456528 -1.0047439 -0.27182922 -1.3330176 -0.3372536 0.13026215 1.6284417 1.3767754 -0.7330428 0.033099737 2.9666312 0.7360809 -1.5964583 2.1783085 0.37240124
she -3.8254144 -2.010241 -1.4668506 1.7929779 -0.61351335 0.036784127 0.7502236 -0.36032793 0.7174732 1.1330844 0.52682966 -0.87773234 -2.419569 -2.1486833 -0.9709238 4.140399 3.433302 -0.8268792 -2.6428697 1.3843989 2.2061794 -1.3293103 -1.4294134 -1.7992231 -2.2747595 -1.9508892 -0.6354662 -1.3979797 -1.1213541 -2.6547904 0.18124135 2.2918983 0.5544786 0.9977839 1.3130921 0.83903086 -0.13963896 2.039763 1.0096822 -1.8614119 -0.0033576717 -1.7081443 -2.3165798 -1.1468909 0.07227813 1.8467703 1.4180135 -1.8420062 2.11643 1.9676634
woman -1.6851076 -2.252824 -0.60212445 0.23082139 -2.4754431 1.5694593 0.065951325 -1.3567874 1.3020972 -1.1787734 1.8443668 -1.9040109 -0.5199978 -1.300153 1.5369965 2.631139 4.586385 -1.9284818 -0.0736581 0.1891349 -0.3415994 1.1296268 2.4871233 -0.2786488 -2.0961995 -0.17917345 -1.2885102 -2.6692648 -0.6225746 -4.247099 0.053310215 -0.5931241 1.4046615 1.4092221 3.2090166 -1.3268999 1.6468432 -0.10771539 1.1096295 1.288818 -0.33704144 2.5387979 0.31300753 0.9586232 3.238456 2.537349 0.946167 -0.7771548 2.7528372 1.6149683
blue -2.3508363 0.86301404 -0.24571681 0.65999436 -0.4104128 1.4620029 0.076998636 1.6238768 -0.48618403 0.230572 -0.6177885 -2.1902168 -0.39701054 0.14087056 -1.2442471 -1.0338445 0.46941918 -0.15335372 -1.7790753 -1.664436 2.1224287 -0.82125485 1.2183026 -1.0802128 -0.8389657 -0.04225753 -1.6164494 -3.435743 2.0525079 0.40995696 2.4988427 1.0284398 -2.777462 -2.1680527 0.79148716 0.003938287 2.3819115 0.39158574 0.82644105 0.70288444 1.0929637 2.8218522 -0.8971396 -0.59766847 0.17409676 -0.40174192 2.1195095 -1.5759459 0.050024297 0.80791116
hair 0.93969035 -4.320532 -1.9077218 -1.8653939 1.5343397 0.081533484 0.4538414 -0.6530197 2.651943 -1.2649814 -0.13992022 -3.9806511 -3.3936114 -1.5406961 -0.30380875 -1.015857 2.032673 -3.002723 -2.3081832 -0.64539325 -1.3934191 0.6443024 -0.6343611 -0.40662405 -0.7696517 1.057584 1.4775363 1.0737813 -0.17663412 0.29699394 -1.0468979 2.8715048 0.426781 2.533785 -2.3390863 3.3266208 0.44445026 -0.098748565 1.5345188 3.8336616 0.55342203 2.4926682 -0.8512018 -1.6588849 -0.31208566 -0.2656665 -0.6956386 0.37989724 -1.4632124 0.6653759
on -1.0389129 -1.714282 0.88570845 -0.7979266 2.7063441 -0.47014996 -0.2824529 2.218182 -0.16536714 -0.93132216 -3.1359885 1.8769269 1.4490911 -0.29821476 -2.0886073 0.16442202 2.6129208 0.027688053 -3.3687732 0.64734197 1.8514863 -0.9847318 1.4872066 -2.5727475 -1.8165962 0.10181456 1.5321872 -0.57297564 -1.0595846 2.140852 0.96828747 -0.3435953 -1.1963035 -0.73823255 -0.1347397 -0.31231517 0.10172649 -2.7601569 0.1476003 -0.19340645 1.011267 -0.03557188 1.320262 0.98672605 -3.552183 -2.781591 1.3823773 -2.2134585 -1.4662094 1.2437847
short 1.0029678 -0.90383303 1.9072536 -0.35276574 -1.0734258 0.78585744 -0.89934486 -0.97176045 -1.2741559 2.3569326 0.36629725 -0.042353336 0.087181225 -1.0861996 -0.81622654 1.5135987 -0.032547385 -4.559009 -0.46220285 0.10883783 1.5588908 1.4069933 2.307865 -3.1156306 1.1024183 -1.2123398 -1.0624864 -3.0926037 -1.2837296 1.4688427 -0.9541013 -0.3376411 -5.5431814 1.9304221 1.7004087 -0.06867999 0.16030185 1.9405558 -1.9001489 -0.24346459 0.14531243 3.0256078 2.173524 -0.68463457 -0.29599863 3.1678848 1.6958658 -3.351029 0.5698186 -1.2021359
her -5.9101653 0.33796436 -1.9455528 -0.85870576 1.9359663 1.1281927 -0.81160444 1.6664703 1.0079968 1.480041 -0.19999345 -1.9000686 -2.1731215 -1.2663866 1.3911072 2.097139 1.5232857 0.38180894 -0.7199085 4.7057314 2.2573836 -0.66198117 -3.73907 1.6052464 0.7252444 -4.0267634 -0.051355846 -1.3243679 2.7197785 -1.6421437 0.77395654 -3.7277396 0.34996673 0.6280077 0.48293692 -1.0523536 -0.2645367 -0.2092316 -0.88037235 -4.8567977 -0.6539818 -4.435516 -0.6937068 0.4122593 3.0202887 2.1593752 0.31734246 1.0408471 1.1300558 -0.4875094
shorts 4.6500034 2.3847942 0.5713135 -0.70751476 -2.1762772 -2.7476387 -1.9670142 1.279353 0.79305613 1.0676514 -1.7789367 -1.5537218 -4.7953525 -4.7683506 0.3276272 -1.3401684 -0.22647598 -3.113596 -1.5438576 -2.195926 3.515271 -0.17255516 2.5037858 -0.7138872 -2.1411493 -3.1307344 -2.1125555 -1.01286 -0.37009364 3.601077 -0.018267846 1.1861318 -0.21751758 -0.17655587 -0.7764354 -2.3034387 3.1776893 0.7685688 -0.21283525 -2.576181 0.07794914 2.4347765 1.9862328 1.3500078 -2.100184 -2.3081062 1.1171429 3.6513577 0.03463834 -0.8598958
in -1.9438504 -2.24761 2.8356807 0.70277613 0.62441707 -0.5857697 -0.41453758 4.662546 2.378445 1.8400906 -2.1157517 4.414245 -0.6564342 -0.033046734 0.81777006 1.6787862 -1.0005699 4.736314 0.87600106 0.038881462 0.2980087 1.2710905 -0.15373869 1.2143723 -0.009620585 -0.3529999 -0.1693876 -2.371399 -2.2841635 -0.73892957 -0.5404707 -0.22177912 0.468405 -0.60655737 0.3749743 -0.7472693 0.7318087 0.72192496 2.6094887 -1.2039632 1.2288935 1.1131095 -0.7111271 2.3246133 -0.42816576 -1.4349779 0.43902746 -3.2554867 0.33477065 0.21094243
his -1.1239625 4.779054 1.4697247 -2.9395185 2.8950655 -0.75588936 -1.1613737 0.9608342 -0.9095655 1.0755318 -0.84769124 -1.870543 1.7384433 -2.179148 -1.1405432 0.14999548 -3.4430928 -2.1974728 -1.5056745 0.8687138 1.0721867 0.39713854 -2.3362784 3.7263594 3.119715 -2.0267267 1.4625496 -2.5913649 3.2170835 -1.7036852 0.17837304 -3.6431282 -0.22789672 -4.8446074 -2.102523 3.341453 -0.17813633 0.04624312 1.5976145 -3.3901966 -0.21396816 -2.2076185 3.160887 -1.3398706 -0.16446869 -0.37774074 0.89753836 0.25187767 -1.3601371 -2.987177
carrying 0.5557496 -2.4802525 -3.2789981 -0.5478941 -0.97811365 2.0452106 3.2865844 0.23254457 0.09590965 2.2139537 0.8919846 2.0363667 -0.700739 1.0661889 -1.3643216 0.7300072 -1.1440232 -0.19525878 -4.4408355 -1.9864088 3.6192453 -1.779495 -2.978694 0.23662788 -0.80920124 -0.6745872 -2.3740296 -1.6484171 -0.0983482 2.7883797 2.2063966 -2.4330575 -0.012194508 -2.1486006 -2.2997792 0.8919558 0.46667266 0.076711334 -2.9960604 3.302963 -2.6721919 -0.97043145 -1.397518 -0.55936325 -4.468361 1.8462825 -1.5874316 -1.6964903 2.0617692 -3.534685
bag -1.2632161 3.5441332 -1.2620485 4.001887 2.3097162 1.9822611 -0.4021729 0.49173284 -0.7999215 0.86121255 -4.6838446 -0.32707146 -0.04686444 -2.9952102 -0.41560775 0.45995224 3.7217991 2.2370212 1.1364049 -0.37991944 3.2187502 -1.2225689 3.3505933 -1.2275428 2.7118223 -5.40145 0.30650422 0.38935894 -0.262935 2.2511756 1.9723054 -0.62424386 1.3666767 -0.51373374 -4.1808496 0.36917546 0.03991573 1.7308146 3.6341627 0.16454943 -0.14695832 -0.049214777 -0.96132725 -2.606505 -2.1600153 2.4189048 -0.9937125 -2.801516 -1.3598955 -0.16687006
long -1.0093038 -0.35514542 0.872711 -1.0793194 -0.89416647 1.575597 -0.19321474 -0.6445036 -0.6879783 2.156098 -0.77826375 -0.06382041 -0.12085542 -0.9085119 -2.3707235 1.0868074 1.0209069 -3.5316398 -0.74547166 3.3740609 0.13621603 0.5491359 2.9852853 -2.0107057 0.60003144 -1.9001703 -0.3055183 -2.7001712 -0.7514111 -0.5151788 -1.3751053 0.9911024 -4.7017574 2.3876677 2.588138 -0.9713313 -0.34073943 1.5766217 -2.6772223 -0.22779761 -0.5423745 1.5389724 -0.14664266 0.68155575 -0.7412579 4.0744863 0.93758166 -2.6001422 1.283309 -0.22245668
gray -2.5345955 1.8447821 -0.5491708 0.084887035 -0.475972 0.96875685 -0.1764055 1.1025058 0.17513123 0.0067854784 -1.1610801 -1.6638943 2.0114577 -0.08093987 -1.2854313 0.4561408 -0.1828741 -0.87335163 -1.1269011 -1.2661998 1.1200789 -1.165911 0.5771056 0.47285596 1.5861768 0.95009965 -0.19226143 -2.5403428 2.1089494 -0.4365838 -0.03412296 1.1343192 -2.8618727 -2.56316 0.43698204 -0.46974367 1.9563277 -0.5505032 0.36912304 0.14085223 0.62629825 2.40871 0.22492546 2.0462608 -0.44527626 1.4115541 -0.2749625 -0.22798355 1.1639987 1.9004989
brown -2.3187394 -0.015673205 -1.4063857 0.44674194 -0.7486727 -1.0638598 0.703803 0.56928015 0.3765623 0.5172965 -2.5420527 -2.1194198 0.70429313 -1.3166667 -1.9289485 0.4216386 0.6185893 0.59897196 -1.4298456 -0.44111887 3.1845815 -0.54730105 0.7120906 -0.68939227 0.94258547 0.5150632 -0.7722579 -2.2723563 1.2360439 -0.56091905 1.0022389 0.37782896 -2.1606936 -1.5070106 0.5318739 -0.327031 0.5221072 -0.1355953 -0.46094263 1.032588 1.0372853 0.9184637 -0.076432 0.73566073 1.0178399 1.5685695 0.0018928887 -2.4405677 1.2541928 0.74428576
red -2.2147532 0.9947178 -0.7678839 0.56269526 -0.23583257 0.44788942 0.8038245 2.3342202 0.12231914 0.47264582 -0.17154028 -1.8138115 0.908438 0.23179698 -1.4971592 0.84914887 0.6247949 -0.38823557 -1.8345749 -0.1982771 1.9963849 -1.772997 0.8237831 -0.8227238 -1.1467816 0.18880595 -1.1772877 -1.3480582 1.090566 0.06501244 0.48590246 0.7073921 -2.3236136 -0.9493831 -0.75625116 0.015351166 1.0482718 0.13611521 0.9859062 -0.44529107 0.9588048 1.2251823 -0.04187792 1.5879216 -0.71289635 0.9442993 -0.5281435 -1.3944188 -0.6991626 0.9084122
jeans 2.55544 0.6345106 -2.56424 -0.6242604 -2.661084 -3.0956461 -1.8052084 2.6570747 1.5558064 0.33025104 -3.3002205 0.6659106 -1.5448287 -3.7414205 -2.8771014 -0.026995035 -0.3900484 -4.89106 1.547102 2.255077 1.6894716 -3.9284391 1.4366295 2.3118355 -1.0624692 -2.683752 -2.8702388 -1.1722116 -3.1084483 1.7145149 1.0672542 3.7498083 -0.24220994 -0.61709243 -0.89164895 -1.1252406 1.9852611 -1.3157083 -0.7937751 -1.9194435 0.4755722 2.1632702 4.08351 0.36677948 -0.5997867 -0.114798725 -2.1088908 3.505556 1.3426161 -1.3559564
jacket -1.9801201 -0.31424278 -0.8183176 -1.4990214 1.721205 0.93610203 -0.73765695 -0.8250354 -3.074996 4.7178035 -0.912827 0.73672336 -0.5277531 -2.2849612 -0.6142694 -2.695685 1.3782557 -0.81318426 -0.41712338 -2.7068188 1.4942784 -0.6165629 2.1465104 0.08365523 0.046278298 0.63251066 0.36098406 -2.652372 -0.9325295 -1.8336525 -0.14386757 1.7081555 -1.0087711 -0.1390008 0.54849166 -1.1643559 2.4218078 -2.4580643 2.6038888 2.1133783 -0.42314222 -2.2072408 -0.34556496 -1.84251 0.41355067 1.571785 -0.5859488 -0.56964344 -0.06782492 -1.6607596
shoulder 0.28978747 0.6146641 -3.473909 1.7446827 0.80348706 -2.0934994 -3.8539863 1.6260742 -0.5948773 5.1346784 -4.8146596 -1.619844 1.2304862 -0.56461567 -0.9292101 0.3139406 -0.5286588 -1.0140895 -1.1722056 1.7516434 1.6498042 -3.6779215 -2.9209101 -2.175561 0.28987518 0.831013 1.5398824 -1.1556586 -0.3973784 -1.6325576 0.6324135 -1.8391521 3.3364158 1.1590095 -4.423147 -3.6921983 3.1496704 3.92923 1.7274214 -1.2042514 -4.0927663 -0.9866752 -3.8722503 -0.5823979 -0.1202138 3.7504287 -0.73008966 -3.5404775 -0.12670758 -0.80958444
grey -1.4918761 1.3453075 -1.2618953 0.43186256 -1.2074133 0.5011708 1.0606542 0.92549795 -0.4862844 0.9441321 -0.045668136 -1.1183844 0.95021045 -0.31908402 -2.291598 -0.05442123 -0.04905383 -0.60424495 -3.3484342 -0.62665886 2.0669262 -1.8954022 1.2324275 -0.21751812 -1.164114 0.2870946 0.011544394 -2.2119398 0.32132933 -0.8971183 1.361311 2.9652607 -1.9891627 -1.0599557 -0.38156047 2.1178453 -1.4733549 -0.3810367 -0.8231707 0.43924803 0.76526827 3.1445806 0.31734657 -0.66853696 -1.3563864 1.8878372 0.061323404 -1.6023104 -1.2108628 0.080981486
wears -2.0052888 0.7727691 -1.4566605 0.94506824 2.197905 -0.77750844 -0.8506003 1.7773465 1.6404833 0.5334697 0.93375635 -3.1162646 0.8159801 -0.24660511 1.1094476 -2.1486828 -1.3287882 0.30840018 0.277976 0.7086877 0.5550878 0.45088658 0.7385436 -4.2445335 1.9098141 -0.9026856 0.3763471 -0.47728178 0.09809079 0.6354233 1.7528138 2.3184378 0.93842155 -1.1632013 2.192807 0.89032835 -0.44106674 -4.309536 -2.242956 -0.33679765 -1.3565391 3.3054602 -0.44967672 0.10378765 -5.360755 0.9490047 0.840708 -0.52760506 -0.97523934 -0.26769617
over -2.556299 0.25549462 -1.316663 -1.3856514 0.58259594 -1.3571088 -2.1720443 2.776922 1.7688076 -3.668898 -3.675901 2.0570085 1.6172565 0.6199073 -2.4180696 0.72786444 3.1371646 -0.35328332 -1.1059403 1.6601212 0.8278367 1.3894559 0.8781122 -1.1028469 -0.07216269 1.1358196 0.17959222 -0.41242203 -0.61538285 0.63198566 0.85642767 -0.977182 -1.0135294 -0.7160936 0.08250448 -1.0665922 -0.3766439 -0.49730712 0.9374199 0.69995135 -1.6249367 2.1109369 -4.3548274 1.9268739 -6.13879 -0.089013584 -0.6532011 -0.9558212 -0.70347524 1.5337076
light -1.4993994 0.97566813 0.10093995 -0.11127069 0.27509424 0.42161167 0.08575683 1.4157035 2.1472793 0.5732542 -2.2505229 0.9512259 -0.30814096 -2.3928773 -0.7047561 -0.28123888 2.3497777 -2.6137056 -2.910609 -2.0287218 1.1299129 0.15498425 0.9370152 -0.7786383 0.66040343 1.3081762 -1.9546853 -1.5774515 1.1615034 0.39516518 -0.74369466 2.0450919 0.40437633 0.2570929 0.66544634 0.83799946 -1.2787741 -0.5529912 -2.2915037 -1.124251 0.25315747 1.1830499 0.7219807 -2.0978177 -0.2984042 1.8596175 0.3229226 -1.4652696 3.5077808 -0.96107906
backpack 1.6366636 3.4430058 0.8151345 1.6791358 1.9589564 0.6631008 -1.6256738 0.9595508 0.75282186 1.7079324 -1.8306797 0.7207474 0.21860799 -2.3914523 -0.4062802 0.81889594 2.9669259 0.84390646 -2.5633843 -2.0889094 1.0166677 -2.1347876 0.7828618 -1.3017318 2.4918911 -3.8170383 0.64742637 -1.0880319 -0.8859251 -0.22914821 0.13745818 2.8493276 -0.5816115 -0.020869128 -2.4145813 0.6610716 0.31853113 1.5871639 2.1416523 0.8640485 -1.1031095 3.0169299 1.1615974 -3.0295157 -2.4297445 2.7420542 -1.6254624 -1.910507 -3.4653158 1.3526651
back 0.09742489 2.568339 -1.740371 1.0162221 2.8120263 -1.6599244 -0.19655466 0.087956764 -1.4961243 3.0385354 -0.77522403 -0.81072 -1.570663 2.6280806 -2.9556453 -1.1255577 1.0209292 -1.6122525 0.23134404 -0.93143487 -2.5361056 -2.0644448 -0.28555897 -2.1498818 1.562326 1.4322233 -2.4221752 2.823105 -0.21188805 1.7238888 0.85040313 0.6060775 0.7253646 -0.3868125 -0.8570841 -0.21192624 0.26331794 2.982155 4.0157685 -1.2160238 -1.1606132 0.687467 -0.74289334 4.1203704 1.2413332 4.7890487 0.80725884 0.38785645 2.529816 -0.7175931
also -1.0411092 0.2325007 -2.1523142 -0.77732444 1.4806337 -1.3180243 -0.50059783 -0.055968232 -1.098203 0.44553122 0.29375324 1.326905 -1.5224081 -1.1399206 -1.7849469 -1.6652251 1.4154091 -0.8327716 -3.3233063 -1.338932 1.7217436 -0.108542025 0.76428694 0.017736755 -1.3423947 -1.2907896 -1.1936895 -1.210331 1.5481043 1.3094456 1.7673451 -2.821813 -0.8938748 1.8076507 -0.97438145 1.55472 -0.6507995 0.22336717 -0.9015592 1.9832289 1.7274883 1.2433276 1.053517 -1.1760994 -0.7341137 1.7341744 -4.2135816 -2.6210067 -1.5434685 0.1608038
coloured -2.266916 -1.5899584 -1.7416103 0.5528064 -1.2900201 -0.75760216 0.5979831 -0.9280439 -1.1336204 0.6207342 -2.9562964 -1.2314404 -0.58194244 0.5061182 -3.1176693 -0.46793005 -1.1098316 0.13300379 -4.2530227 -1.3721375 2.3381 -1.0893238 1.9119132 0.9392989 1.7123432 -0.35174623 0.25995746 -1.0917809 0.6884603 -1.0161074 2.541084 0.8339834 -3.5321493 1.1095904 0.20861414 1.5184101 2.0614648 0.0140023595 -2.7300956 0.6073239 1.2097878 3.748559 -1.3622895 -1.7793097 0.04947494 1.3738213 2.9079783 -0.7451331 -0.53096604 2.7838314
right 0.31295922 3.6602714 0.00044357622 0.86570174 4.1213145 2.6465378 1.9657918 -0.9760469 -0.0300533 2.836309 -4.948461 -2.0328364 0.49958712 -0.60964686 2.2136362 1.0597863 -2.1621802 -1.0386971 0.09058609 1.1835958 -2.1324081 -4.0863667 -0.07212629 -1.6965106 1.7463167 -0.9582052 -0.4891368 3.138755 -1.6835692 1.2405134 1.7222631 -2.856518 0.363957 -0.38976154 0.21565753 2.2903757 0.6175313 2.7630706 1.562806 0.70863014 1.9718136 -3.0237863 -2.647398 0.69968665 -0.9898317 -2.188803 -4.064956 0.675199 3.7204762 1.4130824
pink -3.6771498 -0.22974862 -1.3328642 1.1153966 -1.363389 1.4355009 0.053978726 1.6300695 1.1715225 0.38262978 0.39928618 -1.5397459 -0.40450528 0.30807802 -0.28091255 1.489797 1.5074096 0.08130098 -1.9118749 -0.14691181 1.9493269 -1.3919274 0.5002456 -1.0683018 -0.45292202 -1.359316 -2.0202184 -2.0448635 1.6256735 -0.30350482 1.0733593 0.5198193 -1.9932479 -0.038043268 -0.5440363 -0.939112 1.6386162 -0.20037037 -0.35486853 -1.3766227 1.3483046 1.324512 -0.70175636 1.727748 1.1786201 0.6976213 -0.11945993 -0.9708141 0.23746854 2.3820164
this 2.6430764 -2.8769956 -0.3803986 -0.021047732 -2.1559172 -1.56443 2.9343975 -1.5408725 3.3345363 0.008636857 1.6553857 0.31338263 -0.94266605 -2.3867514 0.4926903 1.0911124 0.20047767 -2.8481302 -1.1166141 1.0661173 -1.1187508 -0.51572686 2.0715468 -0.62758666 -0.23995276 1.2144626 2.1984334 -1.2379473 2.3484464 3.1866975 -3.7593079 2.0242991 -3.5173693 0.7538832 1.315591 1.5992472 1.131651 2.2784941 3.4098172 0.12494967 -0.6608309 0.0049759233 0.30911416 -4.0663576 0.78986204 2.1391556 0.35150108 -1.0296975 -1.2772652 0.22550829
hand 1.2475421 -0.8163453 -4.439892 2.2800388 -4.557786 1.4460269 -3.611812 0.5298251 1.2082771 2.0281465 -5.3964534 -0.79316074 2.0841272 2.5992792 -3.961859 -0.5518325 -0.148666 0.83325505 -3.0397537 2.1333356 -3.3486817 -0.20153254 -1.0792106 -1.8910017 0.39566332 -2.2499897 5.053619 0.15629406 1.2939218 2.5276392 -0.95927435 -3.6697989 4.3718944 0.018408086 -3.9198802 1.3222743 2.367723 2.218309 2.2282534 -2.57801 -3.51105 -3.6964395 -0.5341738 2.8680553 -2.8581018 -2.0344105 -2.0800238 -3.9458244 -1.4664012 -0.6094113
walking 1.0597515 3.5505853 -1.6280977 -1.6180588 -4.06926 1.8693445 2.9069345 -1.2152869 0.59597486 1.5952077 1.7675836 2.5210443 -4.8648024 0.48782894 -2.125238 -0.03268259 -0.7735496 0.14247559 0.6032001 0.50870603 -1.1621448 -3.700813 -0.33616745 -0.1056718 0.9469858 0.16040488 2.5701396 -1.9182866 3.5649319 1.3677303 0.5023689 -4.5211 2.69132 -1.1754485 -2.1307952 -0.9183234 -2.8353057 -0.3728035 -0.2772001 0.5469491 -1.0972046 0.15605955 -1.4174604 -2.8777814 0.76977575 -0.07642234 -0.68330413 -2.0096943 -0.029687386 0.2693841
left 0.33710486 3.0903058 -0.07308438 1.7421651 4.383051 2.210452 1.8613113 -1.137118 0.52314353 3.0465188 -4.633377 -2.2575362 0.66100097 0.17456645 2.6330233 0.87605506 -1.9905351 -1.0597676 -0.36173475 1.0615462 -2.1296425 -4.431446 -0.05869966 -1.4221355 2.4235198 -1.0475968 -0.58018506 3.4565673 -1.4575939 1.3919454 1.4258943 -2.964703 0.9983589 -0.47760174 0.47205243 2.2585368 0.48853788 2.0608907 1.5645008 0.61150295 2.5937862 -3.0382667 -2.3332179 0.4286439 -0.9006477 -2.6493363 -4.1654887 0.3974695 3.1344888 1.4225584
glasses -0.31669432 -0.13021202 -0.026877774 0.7160838 -1.6259931 -0.298314 -0.5759581 0.7530124 0.013201294 2.8648777 -2.0819545 -0.24287984 -0.027247798 -1.6386709 -0.28978613 1.1376673 0.011146264 -2.4180925 -1.3450861 -1.0640715 1.0999715 -1.6125497 -0.10101982 -0.2755867 -1.111975 -0.22004364 -0.26929173 -1.556766 1.3465129 -0.23495111 -0.6026733 -0.54626834 -1.9976872 -1.0439318 0.04547956 3.2051787 -0.3806308 0.72916347 2.4017475 2.048798 0.33021674 1.9640713 1.7742722 2.3802269 1.2529999 1.9018877 0.48855683 0.038267836 -0.86471313 -0.8512813
dress -2.0995665 -1.1356186 -0.9544467 -1.1732618 -2.7631927 -2.375198 -0.3645031 -3.0077968 1.5484936 0.56490356 0.49789205 -1.1138774 -1.4365525 -2.2807128 -0.9382367 -1.6842215 2.4454873 0.38326263 -1.2796943 -0.4694938 3.9585636 0.61128616 0.41244483 -2.071065 0.82915926 -1.0762314 -0.0406105 -0.66277987 -2.0346022 -0.55981314 -2.1637595 0.9330708 0.73357767 2.5342343 2.516549 -1.1576545 2.1476672 -0.19607837 -1.6709337 -0.96862155 0.0034723897 -2.4687805 -0.45111915 1.25508 0.56523055 0.08990358 -2.226856 1.7135224 -1.2161242 -0.86488354
sleeved -2.517147 -1.724742 -4.55928 3.0404012 -0.9420194 -2.3863504 1.6969674 0.97158307 0.61841905 0.03906561 0.49343622 -1.2134264 -0.94193286 -2.5010738 1.998724 -3.1704328 2.5846102 -0.82233316 -3.3093286 -5.1347046 1.9514546 0.06378907 -1.8041637 1.7855963 -0.9357689 3.0170734 1.2819616 0.61554885 1.6534057 -1.5220784 -0.023390695 2.3581252 4.039734 -1.6897877 -1.43044 2.309455 -0.5633971 -2.4195695 2.6724596 1.1944087 2.2389438 4.170927 -1.5644372 -3.1277816 -0.7668649 0.0035659976 -0.70722306 2.5650122 0.119138606 1.9391341
top -1.9465497 0.038713023 -0.320143 -1.3923552 2.1314988 2.5685823 0.62347066 -1.3697293 3.672066 -2.6047964 -0.3075661 -1.5631057 -1.0922582 0.13205707 -2.9226112 -1.212426 0.98530054 1.6119436 -0.16418481 -3.336343 2.3165991 -3.4729085 -0.27165502 -1.906943 0.18737054 0.5450056 -1.190579 -1.6396018 -3.130484 -0.67236406 -2.2299497 0.2415325 -2.2781212 0.74111384 4.164088 -0.6152524 2.950777 1.0043422 -0.9095299 -2.499043 -0.67851603 -0.95331454 -0.76791096 -1.4947214 1.373085 4.3551126 -1.0572885 0.09179612 -1.8583041 -1.7585832
sneakers -3.757938 0.43518844 -2.9790192 -1.9428086 2.3240578 0.68263733 0.32354358 3.3561373 -2.519333 -2.2852142 -0.58506894 -0.21303213 1.6592507 -1.0286067 2.4438636 -1.8704989 -1.4212173 -2.1174421 -3.389004 -4.792404 0.52762485 -1.5990804 1.8950738 -1.0553197 -0.081455275 -1.6080189 3.0743735 -1.2873429 -1.2086517 1.5696306 -0.47256228 2.053002 0.14062224 -1.2808217 2.2793586 0.65172315 -1.7416433 1.3244015 1.0171092 1.2184402 -1.5633594 3.6536372 0.22733594 -0.3224772 0.40722835 0.8850108 2.105749 -3.3856697 -1.0268297 -1.5725814
green -1.8458886 0.25262386 -1.4435915 0.44615597 -1.1605941 0.01741377 1.031633 0.83360666 -0.0026001728 -0.8656198 -0.6577043 -1.5338609 0.85654277 -0.005356035 -1.0643724 1.2876537 -1.0070903 -0.62542474 -2.0209107 -1.576592 1.0099536 -1.1931709 1.0271798 -1.3281125 0.5893505 -1.0970956 -1.1152401 -1.539165 1.2956506 -0.132351 1.2456157 0.699152 -2.9362156 -0.69984597 -1.9252886 0.18981357 2.8256922 -0.7889651 0.11037954 -0.51029485 1.1130943 2.2846234 -0.17814796 1.2450943 -0.6147447 0.52939993 0.44566947 -1.013512 -1.4104298 1.9718218
to 1.3415583 -0.5184739 0.89408207 5.1537433 0.5367343 -0.63021463 -5.69251 -1.2903515 -0.33685318 -0.92045814 -1.732147 3.5496416 4.032437 2.829282 -1.7858069 0.80983204 1.3149145 1.4326011 0.30909967 3.07143 -0.2808837 0.78204787 -2.6837344 1.4917662 -0.81036717 -0.31010658 4.5423484 -1.6994202 2.0777814 0.9209222 -2.1721723 1.3112404 -0.7673586 2.4470148 -2.1944618 -1.1879852 -5.7852607 1.247692 -1.0988363 0.413929 -1.5091687 -1.8012581 -1.6336926 -0.2606656 1.48455 -5.1436815 2.4210382 2.0661862 -1.3050995 -5.1816435
sleeve -2.574112 -1.2567515 -3.9250336 1.7252153 -1.7034718 -2.7423873 1.725504 0.9835157 0.19868827 0.09409373 -0.18972634 -1.7933922 -0.22304088 -1.5257927 2.305129 -3.198204 3.1529381 0.8511952 -2.2146072 -4.773628 2.3123 0.1457094 -1.5498902 2.5285754 -1.4807819 3.5608668 1.1294723 -0.16922945 2.7547736 -1.2059089 -0.23643953 2.1663327 3.7124949 -1.8348614 -0.29825434 1.5797205 -0.14221826 -2.6850476 3.2080846 0.13244976 1.80482 3.547711 -0.76410556 -2.6959321 -0.30685505 0.16583036 -0.27386248 2.7559144 0.21107356 1.4733855
sandals -2.916356 -2.715356 -2.6361184 -1.8710517 2.3813448 0.39161453 0.23550351 0.860311 -1.5369338 -2.4223154 -2.0669074 -2.1953418 0.813887 -0.8841647 3.5827682 0.25719658 -0.36399007 -1.7392951 -0.43146318 -6.49139 2.5261285 -0.38108552 0.030123562 -2.7894447 0.5157474 -2.4776888 -0.3611243 -1.2526007 2.0831473 0.8900745 -1.0430641 -0.5417756 -0.67978674 0.48557216 1.1446369 -1.2632307 -1.3286453 2.3939712 0.76077574 -1.6032057 -1.1227293 2.6891878 -0.27600208 0.539421 2.0006163 -1.2182064 0.2968876 -3.6886427 0.70628345 -0.4884498
skirt -0.9603802 -0.13697617 -1.3945189 -0.34511608 -4.0019174 -2.7309003 -1.1820905 -0.42600214 3.0309215 0.09704369 1.2043818 -2.3434362 -4.4316106 -2.9027638 1.1305016 -1.4854496 3.382376 -1.6980572 -2.0086393 0.9552636 5.523214 0.20210254 2.03228 0.26050916 -2.1619236 -3.5124226 -1.0049715 1.3484991 -1.4836565 -0.40722188 -1.1074805 3.3676298 1.4605427 2.301143 1.5426056 -3.4226646 1.8375438 -0.52839756 -1.2407976 -0.7533809 -1.4333464 0.26577547 -2.0420394 2.1457326 -1.1734459 -1.2950253 -1.212691 3.5305572 1.352637 1.0123426
person 1.018086 0.62885946 0.14861344 2.3585696 -1.9131045 1.9347615 0.86624026 -0.1809914 0.16365264 -0.55335575 1.4681705 0.14970264 1.0117387 -1.9098754 -0.8267334 2.4741225 0.31339145 -2.9871976 -1.4167575 -0.72465825 -1.077903 -0.079458006 2.3951468 2.408865 -0.25034475 1.7089232 0.2370555 -0.30714434 -2.2822773 -4.606107 -0.7413212 -0.34629834 1.048142 0.5609982 0.730047 0.52022135 1.7096387 -0.16219386 0.3645417 0.13719048 -0.33071047 1.2713842 0.98537976 -1.3191239 1.7027057 0.77393 3.0868642 -1.2431237 1.1509465 1.3829752
yellow -1.3085338 0.71975577 -0.65905464 0.8856639 -0.7638006 0.87448305 0.8330634 2.5031617 0.5198722 -0.48143962 0.43909708 -1.5506963 0.5298056 0.17270014 -0.80122674 1.0649577 0.22532526 -0.5236132 -1.8299422 -1.5851574 1.3258495 -1.4630176 0.58756787 -1.9954612 -0.23456192 -0.74743617 -2.3827693 -1.3467573 1.868231 0.4222227 0.5223487 0.59544027 -2.023966 -1.000235 -1.8769847 0.028496154 1.9938784 -0.44288802 0.93522894 -1.2928817 1.4760777 1.5518165 0.29991218 1.325513 -0.27143598 0.5401093 -0.09646109 -0.8928715 -1.1873466 1.349849
that 0.030154957 -1.6165599 -1.4126691 -2.9277308 2.3326633 -0.27344188 -0.13896291 1.1545213 -1.0930307 -1.0472295 2.0128462 -1.5132325 1.4727998 -1.2594426 -3.0379348 0.35558856 3.072406 -1.7207166 -0.8741873 0.8019831 0.5689855 0.8351558 -1.5671444 2.3898253 0.5520787 0.83966315 -1.6237133 -1.1677333 3.8956227 2.619351 -1.4713185 1.6813024 -1.2616802 4.517555 1.0051944 -1.4215748 -2.6659472 1.6571641 0.6073349 -1.9877137 3.090907 -0.37161446 0.9467078 -0.4747126 -1.2129785 1.646099 1.4500066 0.7214517 0.1666424 0.18968177
tan -1.5075586 0.66794086 -0.9170333 0.5016035 -0.48050144 -0.008355447 1.0588126 0.6170945 0.86189985 0.09670372 -2.3023012 -1.2386409 1.0432857 -1.1836101 -1.9916682 0.93752813 0.16653654 -0.91957957 -2.8263423 -1.173486 2.8735116 -1.4707059 0.39945823 -0.5670599 0.7420276 1.0176649 -0.501945 -0.8167045 0.16113459 -0.52406585 -0.12816246 0.6081182 -1.3063184 -0.26041344 -1.2646561 1.2772391 -1.1270674 0.020030076 -1.9919864 -1.0962422 1.1548144 1.3366668 -0.84023505 -0.9912048 -1.290302 1.83845 -1.1470937 -1.7782522 0.7545931 0.0558542
purse -2.7527196 0.45697522 -1.3801796 3.456381 1.8266083 1.6627035 -1.8833587 -1.5659947 0.44512856 0.27514014 -3.01455 -0.8695805 -1.8312519 -2.678002 0.3420835 0.49291542 5.7778716 1.8222704 0.36412513 1.2759843 4.485196 -1.241959 2.3513505 -1.2886167 1.3123204 -6.3231387 -0.008765589 0.7384442 -0.24737906 -0.11502582 1.7769388 0.5712433 1.6928165 2.5185237 -2.3416984 -1.2504722 -0.14982243 2.1163595 1.5641612 -0.6228264 -0.5531793 -0.33571237 -2.7075226 -2.8973293 -0.042992815 3.3504121 -0.7396181 -2.9534864 -0.15324976 0.1726607
tennis -1.594496 0.66717154 -0.21097934 1.1714729 1.574182 -1.9704622 0.41815534 2.888097 -1.3444492 -0.18245667 1.1826996 -0.3901727 -1.3424412 -0.8943645 0.97393274 -1.6659963 0.31518334 -1.6650048 -6.2391686 -2.275922 1.7389866 -2.6376796 1.9174726 -0.64459187 0.8252292 -0.9439854 3.258595 -2.370119 -0.7520886 3.2776945 0.79726136 -0.26263648 0.5278573 -1.884806 0.34401223 1.9027665 -0.4946097 1.3123149 -0.7245526 2.40309 2.6336944 1.9617447 0.17817391 -0.4392587 0.50470906 2.9676404 1.2371856 -2.1902812 -0.4200155 -2.1964183
length -2.2227254 1.0327165 -1.6117976 1.9073814 -0.8420297 1.3586636 3.027037 -2.021479 -0.97197247 -3.072149 -0.73754686 0.033310857 0.11855369 -1.8838607 2.3033688 2.75426 3.3216715 -2.18781 2.3963184 0.4418778 4.958898 2.3161669 3.298727 -1.792642 0.6099872 -3.6386003 -0.26510113 1.703035 -0.090160035 2.421192 -0.95484376 -1.1701958 -7.203566 1.5103095 3.176231 3.1645033 -5.6213164 -0.9117151 -1.3439527 1.8411804 3.2093093 0.49982935 -0.8969371 -0.69012237 -1.9359264 2.5185008 1.703602 2.3379052 2.2954183 -0.15471463
front 1.944922 0.061083663 1.081191 3.7914174 2.9367766 2.6035073 -1.2340411 0.24405664 -3.868564 -0.4110439 -1.7006608 -5.1921515 -0.29555354 3.0930395 -1.3655707 -2.5971045 1.0221391 -0.92009985 1.495856 -2.9296904 -2.1327195 -2.214945 0.1269451 -0.07970617 -0.100247614 2.2365649 -2.544892 -0.70114475 1.847595 0.948206 1.9441603 -1.866119 0.12351735 -0.8548367 2.2848425 -0.7138567 0.91293764 -0.9275058 1.4850615 -3.9123602 -2.4188433 -0.5441765 2.7412314 3.2122371 0.6075953 1.2082348 -0.93974966 1.1044942 0.6518251 1.2856787
an -0.6618381 1.9370599 -0.16089973 -0.032509357 1.6553341 1.4517195 1.6488868 -0.3488329 -2.984085 -0.70809746 -2.1319196 1.4911219 1.2311561 -2.2202404 -1.2384448 0.3066424 -3.7401485 0.7151545 1.4838231 1.9817103 3.2812524 3.791344 1.2226689 -0.7412429 -2.8073716 0.78197205 2.6908636 -1.2404464 2.8667097 0.79128283 0.99801356 1.9746248 0.9309173 1.3342749 -0.30173868 4.270835 2.9455748 2.1833923 0.24082218 -2.4002755 -0.5530532 2.3620124 -2.231842 0.65346086 3.525211 -0.5417751 -4.856472 1.5732442 2.7175236 1.6647971
while -3.1208825 1.0853943 0.5997414 -1.5056727 1.0452238 -0.8391707 -1.5226886 1.0693612 0.99947596 0.44419634 -2.1013591 0.115538664 1.8523306 1.3055291 1.3224252 1.5166581 -0.7560207 2.9519644 -0.1603367 1.6818788 -2.5631623 0.066782415 1.9691483 -2.148384 0.8249739 -0.4691925 0.8505922 -0.55392504 -1.672922 -2.4497788 0.41267696 -0.4968171 0.8096649 -0.9618615 -1.677024 1.8586156 0.9979028 3.1700232 1.0343186 -1.4303137 -0.6833887 0.023054913 -0.85971075 -0.9461293 -0.82140356 -1.3564255 -1.4154869 2.5127652 1.2172886 0.075592026
holding 1.940222 -3.2690141 -1.243347 0.3306903 -1.9200612 3.0226357 3.0279484 0.6308779 1.0247685 2.666183 1.7815405 2.533274 -0.21573395 1.7399921 -0.037262745 0.75943965 -3.4920485 2.0762448 -2.3619983 -0.82061166 1.262942 -0.44174516 -2.882433 0.7218454 -0.20727177 -1.6559747 -1.365233 -2.570012 -0.3352529 2.4125223 1.0981895 -2.1380234 1.1040945 -1.2415991 -0.54673284 0.4831223 -0.8375337 -0.68232286 -2.593015 1.8478475 -1.5907708 -3.7609625 0.04383461 0.15543354 -3.0752485 -1.6119398 -2.3477888 -1.7892586 1.7439234 -1.8436962
s -0.8798379 -2.665028 0.68493235 2.2227848 0.5410319 0.29972303 -2.0985508 3.4382777 0.791392 0.02190588 0.13548814 -1.1123815 0.23027176 -5.0507054 1.1738684 -1.6180255 -0.50907 -0.08662982 -2.0615659 -0.8180373 -0.32142746 -1.2209606 1.407834 -0.67705995 0.9378671 -0.89911485 1.279724 1.3589875 0.61575973 -0.65713984 1.2380687 -2.852635 -2.7398853 -0.2026232 -0.647889 0.10041133 -1.5946844 -1.1075157 0.060687345 -1.784404 -1.066907 3.0005856 -0.069126405 -1.5165848 0.77054965 1.204982 -4.5639105 0.60572016 -0.35598484 -0.6447553
are 3.3003376 -1.3533739 -0.92958033 3.2927103 0.24214487 -0.30147734 -0.1116366 2.6159198 -2.268546 0.6429001 -0.3767333 2.2774427 -0.05095969 -0.0794653 -4.137488 -3.3964248 1.2967085 1.9403666 -3.2674017 -3.629163 -2.7594917 -1.7201738 0.40226457 -1.9171859 0.16160433 -0.14535172 1.6214371 0.5780753 -3.20219 -0.45215207 -1.9251766 0.53399205 -1.9881256 -1.2105751 0.052883975 -0.010041684 0.8779544 2.1049287 -1.7975633 -1.0442094 1.8027546 0.6164941 -1.6523265 -1.2999009 -3.8366873 0.4287759 -0.046649814 -1.8248965 2.941534 1.6136764
carries 0.005946831 1.0477879 -3.3784518 -2.835962 0.48016384 1.4571905 -0.103395574 -0.15677685 0.8899101 1.6660964 0.20234993 0.58346623 -1.6482618 0.72087663 2.7980108 0.95021784 -3.0036218 3.3840485 -0.4106341 -0.22562604 0.4280397 -1.166264 -2.0166502 -3.9537923 -0.5672653 0.09215986 -1.6243801 1.4386992 0.27122682 1.2987946 3.3056107 -1.3518932 1.2736839 -2.2134902 -1.1850759 2.4465818 0.96319115 -4.233583 -3.4951427 0.877357 -4.362775 -1.3654919 -1.8451297 0.8858818 -6.081428 1.119412 -1.672876 0.16313662 1.4614801 -3.9973845
down -0.94482934 0.06575349 0.75351155 -2.1424863 1.1511489 0.37628028 0.12643561 -4.837283 -0.20885077 1.1723021 0.08990234 1.0533066 4.4495173 -2.6961098 1.0214002 -4.710575 1.0430869 1.342653 -2.063311 2.0419748 -2.4623284 -0.015320616 1.22231 -0.42220116 -2.8951988 0.29880604 -2.1631818 -2.774608 -3.3808184 1.1750617 -0.83348054 0.2754847 -1.931302 -3.3529928 -1.5340816 0.5170631 -2.5031853 1.8831853 -1.3359909 -1.6890455 1.9657707 0.42891914 -2.2873092 0.63390493 -0.57571405 0.033413433 -0.23951706 0.41093177 -2.0747519 2.523948
young 0.53434294 0.46945447 -1.0009838 0.38012305 -1.9081877 1.236802 2.742615 -2.5672266 0.6673387 -0.61309725 0.33032894 -0.3908044 -1.1241575 -1.7151636 0.81139535 1.1962106 -2.0047078 -1.5015002 1.7612637 -0.22802576 -0.2717623 1.8178732 0.33671638 -0.54434735 -1.106659 2.2047791 2.4327545 -0.5719232 -0.96457744 -1.1432577 -1.3221115 3.5142958 -1.0773396 0.28702065 -1.4131558 0.9435162 -0.2976696 1.4601564 3.1638634 0.49124792 -0.78917104 1.4926934 1.0787319 -0.06403996 1.9063882 0.4216994 0.97309387 0.48923096 0.1088462 -0.33541673
at 1.3371447 0.7118788 -0.7790037 2.1382647 0.10276479 -1.0132056 -1.1800288 0.4444442 -0.23924476 -1.4142274 -1.0419241 2.3311665 2.8649526 4.2418666 2.0962346 -1.6724181 0.61933064 -0.7341125 0.009704002 -0.8521555 -1.0702468 1.440825 -1.3904887 -0.19298895 0.8434924 -1.7121767 0.9292104 -4.235154 -2.6368935 -1.978351 -0.23643288 -0.43180257 -3.9684186 -0.78024966 -0.9050079 -1.9085292 -3.9405906 -1.0068759 -2.1642406 -1.9735414 3.4075215 -4.0711064 -2.8668587 1.7498484 -2.2340844 -5.8204975 -1.8272955 1.2885919 -0.26332816 -0.5337901
up -2.9668767 -0.32314444 1.2612947 0.21644112 0.9531386 2.5522783 -1.3354946 -2.8921845 0.42852104 3.323215 -1.1459242 -0.2947893 3.3332453 -1.5153527 -1.3423029 -7.5719714 0.31606746 0.124299526 -0.8362717 2.231932 -2.7861202 0.94722193 1.1939911 2.3458061 -2.8185577 -0.6932588 -4.451364 -0.98542994 -3.1081777 2.0988784 -1.5859756 1.386215 -1.3804053 -2.6640432 0.9789576 1.9357833 -1.9093735 2.185394 -0.5931746 -1.434679 3.496341 1.0152223 -0.23346102 2.3665307 0.7936601 1.238226 0.7631103 -1.4133693 1.5867229 2.2387252
sleeves -2.326947 0.18908465 -2.6840699 -0.4960622 -0.5803675 -1.7799205 0.96969754 2.530474 0.08275493 0.60351235 0.787699 -3.415549 1.156658 -0.29997537 0.9235309 -4.0184226 3.879181 -1.8180801 -1.0783305 -3.9535484 2.4270809 -1.183966 -2.4029741 2.1777997 0.5318271 2.4602668 0.06001173 0.31060073 2.0083184 -0.55123365 -1.1144571 2.0690298 3.0275683 -0.5122201 0.94014037 1.2810588 0.021362845 -4.3855176 1.5790243 -0.7136883 3.3242059 3.7351744 -2.5337334 -0.5828735 -0.1973229 -1.0303359 -0.80876696 3.494921 0.32858464 2.1177876
lady 0.4370949 -1.5800781 -0.74975866 0.99340314 -2.0241473 1.3595649 -0.11835563 -0.91513294 0.8644174 -1.361143 2.3422256 -2.378282 -0.73230344 -1.3434414 1.9745659 2.4816782 2.8779619 -1.0963168 -0.6788805 0.22973332 -0.84800947 1.1386255 2.7911603 -1.728222 -3.4891474 -0.3492599 -1.7807103 -1.9390687 -1.2715825 -4.253689 1.2445183 0.92810494 2.2692099 2.8008854 3.6385846 1.035501 0.024669474 -1.6899095 -0.13219783 0.9568997 0.047160253 2.6429238 0.2582826 -0.005588185 2.0045178 3.0452602 0.42073357 -1.9925594 1.4310862 0.93360585
girl -0.03044669 -2.243165 -0.3781915 -0.14934185 -2.5439963 1.5727704 0.07617377 -0.4023617 1.7852261 -1.7156136 3.374177 -1.6480563 -1.1458262 0.57062984 1.3345884 1.9933538 4.209565 -0.76238847 -0.6475626 0.048909757 -0.05990211 0.8823675 1.3273906 -0.25436506 -4.0067053 -0.051074192 -1.6275306 -2.2516198 -2.1480687 -2.9529288 1.2815598 0.14479548 1.2352815 2.72314 2.7041738 -0.29088283 0.33890277 -0.80701125 0.3805509 1.21952 0.4935507 2.8942819 1.6721795 -0.14520854 3.5868201 2.690695 1.8542231 -0.2870592 2.0177271 1.5319086
purple -2.2085328 0.32793373 -0.8192131 0.45010936 -0.87505907 0.9930774 0.60230726 0.7283133 0.36988673 0.5982893 -0.1532639 -1.283864 0.57302535 -0.37777865 -0.8711606 0.8961475 0.47761536 -0.7869867 -1.7891111 0.07852119 1.2573795 -0.86680967 0.87296414 -0.877084 0.086364865 0.23551644 -0.85596 -1.4410498 1.4916178 0.15191546 0.9717034 0.8202567 -1.4010055 -0.27837026 -0.24648903 -0.10114296 1.3973763 0.07056668 -0.46613777 -0.40661758 0.47629634 1.8658242 -0.2792845 1.15309 0.6531189 0.22725576 -0.034705196 -0.9718695 0.37368187 1.291298
pack 0.32386652 4.057731 0.77799153 -0.46057093 1.8020405 0.67421204 -1.8332412 1.5381874 -0.35054353 1.1896679 -2.3424613 2.7634432 0.43417412 -6.3947353 -0.21514776 1.8665891 4.5670705 4.0206695 -2.1972969 -0.9793595 1.7840271 -1.1775917 -1.1209197 -1.2273546 3.1805232 -5.6899652 1.9475639 -2.724111 0.8173956 -1.4979005 0.10927281 1.485907 -0.35161623 -0.9466647 -2.7816248 -0.09844327 2.0750496 0.30321765 0.012141957 3.7443871 -1.4788092 2.2572517 4.026306 -3.4039578 -0.21272968 -0.9472919 0.09534058 -1.8634609 -3.4580941 2.4235501
or -2.293729 -1.38622 -3.1787722 1.4015572 0.83430076 -0.24951042 0.9579299 1.5944258 -0.12718648 -0.34355828 -2.6789167 -0.67673284 0.90130436 -0.9530785 -2.7549756 1.173039 -2.8140283 1.6640701 -1.682036 -1.731796 -1.0137783 2.0146322 1.8831728 3.213326 -0.5351962 -0.41160196 -1.0407194 -0.061249826 -0.12756296 2.1448314 -3.0005598 -1.5059105 -0.23972695 3.3227644 0.68007916 -0.32761523 1.8124466 -0.6967658 -1.9905734 -0.26377213 1.624902 0.31367007 -0.34954605 -0.60536164 -1.2381507 1.5398828 1.3199956 -1.2567263 1.6289126 -0.4190365
jean -1.3866178 -1.0151368 -2.2727625 1.8615266 -1.4950237 -0.9029191 -0.23878558 0.84420145 1.9448733 -3.056147 -1.0797366 0.24404109 0.56593686 -0.5297994 -1.5695114 1.130447 -0.118584886 -1.3962665 0.9056519 -1.8467451 1.1272491 -3.090514 -1.5992835 -1.6896584 -0.16517013 -0.9805561 -1.1439725 -2.5549119 -0.17372717 1.6196038 0.24826379 2.6952925 -0.76669544 -2.2340407 -1.1865755 -0.94000614 0.5622588 -2.2603104 -0.6871927 -1.5077827 1.4326077 1.9643253 4.67767 0.419769 1.993258 1.5833116 -1.4167668 -0.9000668 2.9620256 1.045558
it -0.46454045 -1.6495224 1.3145556 2.6821988 2.3270447 0.15121695 1.0400299 0.6930218 -3.363041 2.0222733 -0.43829358 -3.9137442 1.4293449 0.024797505 -1.020046 -0.245694 0.27456492 -0.83092463 -2.3675585 -1.3146753 1.3624166 -3.1538439 -0.74710256 1.5378077 -1.7581142 0.6356193 -2.3744915 -0.41254508 2.7185905 2.47672 -0.7118627 1.3724144 -0.5840504 1.067235 1.3165954 -1.5855291 1.3292557 -1.6646637 2.7046044 -1.8655301 -0.9144363 -0.5797547 1.1848558 -0.20981565 1.5565258 2.565744 -0.0020858974 0.6091854 -0.34235775 0.16884904
large -2.4864902 1.4704306 -1.4915757 -0.12493554 1.657142 -0.95282245 1.2546111 0.93351996 0.28511488 1.2684779 -2.2524312 0.16019325 -0.7760493 -0.85920566 -1.3997033 1.4030496 0.03109916 -0.48902616 -0.9939398 0.95283455 1.0069706 -0.23646064 0.9464805 -0.43317673 0.15373173 -0.57572216 -0.30881533 0.6939014 0.09801462 -1.141684 0.74090046 -0.8208561 0.15542218 1.2010605 -1.4065139 -0.3808073 1.7636775 0.26336822 0.32175672 -0.47087127 -1.4663194 0.17559908 -2.0128713 0.38973042 0.027725875 -0.110262655 -1.6349384 -1.4622878 0.24329366 0.303429
from 1.2634146 0.073210865 -0.8684989 -0.74632365 1.1606251 -1.9745802 -2.8164616 -0.72735125 -0.7468164 -1.8370825 0.23663978 7.4151897 -0.28842035 -0.54413307 3.545838 0.17268915 0.87120086 -1.145904 -1.520349 2.180381 -2.1311216 -0.1772581 -0.7775968 -1.1467714 1.6364058 2.1930666 0.86480385 1.0813055 1.4790982 0.521474 1.4549967 -4.6149883 0.58410823 2.1444383 -1.6975671 0.8959966 0.39826152 0.31063128 -0.19404006 0.9317397 3.2900445 -0.98603255 0.00427197 0.06778315 -1.5373033 0.10028884 2.6068656 1.292472 -3.1434674 2.460401
coat -1.3270488 -2.2617865e-05 -3.0209434 -1.985496 2.263554 0.33652207 -0.36160022 -1.2836167 -1.8657777 4.8786783 -1.1172553 0.42401448 -1.1189369 -2.705307 -0.2940971 -2.7756207 1.1995882 0.63820225 -0.098938964 -1.6934669 0.83280927 -1.3337942 2.0458071 1.2591968 0.25632527 1.1584888 1.5481821 -1.3678254 -0.7877321 -3.7158482 -1.0134234 1.387545 0.4863899 0.731287 -0.058969963 -1.1250094 1.288554 -2.3293207 1.9146922 2.8946044 0.44692382 -3.0942078 -2.3085039 -2.6771915 1.3769457 1.8312293 -1.1205894 -0.21582209 -0.36288497 -2.2823544
sweater -2.9643986 -0.26503736 -1.5184542 -0.20676501 0.47694382 1.2886513 -0.5049934 -0.62390345 -1.1665592 3.0479267 -0.4092193 -0.7240901 0.05769275 -1.5213466 0.09154967 -2.362438 1.2784804 -1.5170417 -0.3794867 -2.2888072 1.4467698 -1.1175042 1.6644334 0.26284674 -0.60458326 0.67856294 -0.20582369 -2.8372986 -1.5960822 -0.58705163 -0.100385055 1.5781068 -1.136238 0.79008436 1.4879681 -1.2031955 2.05575 -1.6405873 1.4829241 0.29922077 -0.3483609 -1.0470433 -1.5908607 -2.1982987 -0.07313686 2.4432907 -0.6120453 0.14165522 -0.17047553 -1.9642731
arm 0.5272211 -0.8371258 -1.8264134 0.717544 -1.1247929 0.8587103 -3.719065 0.2605439 0.18312022 1.2216517 -4.825884 -0.52781487 1.1413454 3.1641943 -2.8226535 -1.7085655 -0.49488166 -1.0697148 -0.6579997 3.8426573 -0.88313377 -3.8967867 -1.1870234 -0.052392945 2.0270607 0.54200935 3.0711024 -0.79253393 2.3956475 -0.51121956 -0.2932532 -2.6717026 5.435319 0.22258241 -2.537163 0.072184436 2.5059094 1.8027995 1.4872808 -1.5363814 -1.586992 -4.171472 -3.3726032 0.102073744 -2.1057894 0.9384943 -1.2540591 -2.1525257 -0.80979896 0.2324014
side 2.483107 0.93345577 0.36819157 0.26613617 0.3755026 -0.9842945 -2.6043115 1.0738369 -0.11070005 0.8037481 -1.4652236 0.56434053 1.9001635 2.8959012 -0.7185135 -1.6317152 -1.2086502 0.7842388 0.94860005 0.038541906 -0.08848027 -4.078945 0.25279438 0.43406266 0.8974467 1.4110439 0.014122213 -0.18807425 2.2998154 -0.9652862 0.09007235 -3.5646007 2.7472456 -0.292642 0.015018393 -1.7744124 1.169077 1.2324758 2.2759676 -3.2738025 -1.2950306 -0.4864221 -0.9265178 2.5807567 -0.49330828 3.2693608 0.9883824 1.7967534 -1.3147197 1.1999624
striped -1.4702317 0.81793916 -1.0694997 0.8654512 -0.758735 1.4304606 -0.17797096 0.6862806 -0.7147969 0.2183626 1.0620263 0.10610464 -1.0296638 -0.65840966 0.66739106 -0.13749549 0.2227137 -2.6175346 -1.0347644 -1.3415031 2.0432148 0.36000305 0.8943724 -1.2181209 -0.68459266 0.44058764 -0.08424647 -1.8217256 -1.1687311 1.0875345 -0.50299865 0.75980306 1.031974 -0.5943531 0.04179626 1.928142 -0.46369594 0.9011005 -1.1690917 0.011939503 0.23239942 3.479255 -0.34157518 -1.3810949 -1.8077347 1.4559144 -0.96685076 -0.64733815 0.352406 -0.08488633
looking 2.3622437 -1.3625509 -0.59137094 -3.4737403 -3.0003016 2.6869748 2.6295376 1.3165978 -0.010954831 0.95159733 2.1516004 0.67614555 -2.39868 0.22134367 -2.5798733 -0.5347326 -3.6944048 0.58855003 -0.7184129 0.10650099 1.2529076 -2.7005363 0.45835873 -0.22701877 3.0428042 0.14595854 3.2952993 -1.111351 3.3874612 1.1036744 0.8422152 -1.7426223 3.8128614 1.2220528 -2.157414 -0.286124 -2.1980565 2.7816653 2.8487875 0.22155525 1.6154069 -3.5099812 0.5307871 -0.3446903 -1.8665303 1.7317852 -0.73607147 1.1805717 0.7915388 -0.09428586
socks 1.4321289 0.83884954 -1.2290493 0.40875658 2.0402467 -0.3984664 -1.0403023 0.5593036 0.3247809 0.872737 0.054304823 -0.43631738 -1.0498991 -0.7142708 -1.2575661 0.5934903 1.8522829 0.5277931 0.9588194 -6.0492377 2.8914173 -3.02942 -0.18824986 -1.3447725 -1.4413909 -1.6946453 0.6702413 -1.5756642 -0.048712272 2.4423118 -2.405428 -0.17103256 -1.0781072 -1.1133474 -0.1643051 2.362097 0.8422979 -2.4741244 -0.7203139 -0.26952583 2.4495852 2.9113538 1.5433035 0.82138765 0.15081169 -0.9103725 1.2953764 0.06517923 0.0492473 -1.4246222
boots -3.7672043 -0.68912715 -3.4787512 -2.3295 2.833684 0.819076 1.0364747 1.1732671 -1.2424928 -1.0407099 -1.4010106 -1.3706629 1.1868169 -1.414014 -1.1773863 -1.7917306 1.2769744 0.21407124 -0.18262064 -2.9457896 2.0081174 -0.99620885 2.9831862 -0.14696756 -0.551306 -2.939934 0.16493991 0.03801036 2.1042528 -1.4644766 -3.2141597 1.0528475 -1.1665771 -0.23494528 3.5016613 -0.13231383 -3.3324096 0.56142527 0.2490174 3.1987872 -1.6773872 0.45664346 -2.5169458 1.5870496 2.46375 -0.54194176 0.2831115 -2.253637 0.8712594 -2.4693043
male 0.5509878 1.806826 1.3048389 -1.2836065 -4.181465 -1.8407878 0.8109383 -2.0311515 1.0504395 -2.0371895 1.5912788 -1.4537588 1.4049236 -2.321812 0.24943651 0.47140363 -1.1087705 -1.8148313 0.07449903 -1.9110996 0.9222266 3.3336473 0.7892908 2.5687785 -1.6366302 1.6775178 1.2475578 0.5769409 -2.4702396 -1.4829783 -0.288649 0.9034685 -1.7090136 0.94007695 1.5467087 3.1209998 1.0800661 -1.6686082 1.004275 1.1931077 -1.66048 5.879515 3.1733894 -2.4816248 2.7347925 1.6188095 2.8821573 0.2876692 1.5103338 -2.6108222
khaki -0.37264305 0.2559102 0.080617726 0.4789759 -0.99938166 0.19860205 0.30476427 -0.27968508 0.59863985 0.17396699 -1.2597021 -0.41499904 1.796498 -1.7934933 -2.3608122 0.9000546 -0.7055397 -2.1368666 -2.5098016 -2.9936483 1.3158801 -1.2965139 0.061810568 -0.7545012 1.4513069 0.9950031 -0.20588745 -1.722709 0.06789625 -0.21591625 0.069816396 1.2639897 -0.89529014 -1.0813367 -1.9241081 3.0131464 -1.0310377 -0.44202965 -1.5039942 -2.0909796 1.0806973 2.3645122 2.1077025 -1.3958933 -1.1525853 1.5456823 -0.114852525 -1.3964438 0.73356575 -0.09574778
as 1.4802768 -0.025647586 -1.6578395 0.44191152 1.9804614 -1.8216293 -1.6613672 -0.44230896 -1.4051508 0.3268505 0.64464045 -0.44606894 1.9633263 -0.9049062 0.53523993 -0.18527146 -2.3646762 3.3659854 -2.003649 -0.052201796 -2.4045022 -1.1174191 1.6310512 -2.1407583 -0.72143435 -1.0678109 1.061688 -1.5864979 2.2450666 0.8504976 2.8295074 2.6145775 -0.08893067 1.0031306 -0.137501 0.9823129 -2.5268943 -2.8757377 -2.6457117 0.791598 -0.8419765 -0.74399465 -0.6547437 0.782237 -1.108446 0.26606858 -0.7728184 -0.92599666 0.87063307 0.44253573
knee 1.4409908 -1.270705 -1.16076 -2.4979882 0.18976647 -1.6487808 -4.2110243 3.2283163 1.6865094 1.3915671 1.5337658 -2.835572 1.1511211 -1.1413941 -2.3509903 -2.3250632 -1.6757102 -0.201155 -0.7045939 -2.691485 0.89828575 -3.67792 -3.2877038 -3.4607587 -1.0718102 2.2138803 -1.309116 -3.7677205 1.3353572 -1.7560374 -3.143096 1.3500806 4.000041 2.4230354 -3.3507185 -1.9422194 3.456698 1.5003287 -2.4272528 -3.1076953 1.9815019 1.795009 -1.1099194 -2.5676196 -0.38002285 2.0205452 1.7274929 -2.8552341 -0.07040508 1.0827631
phone 1.3425226 0.6119612 -0.78782153 0.7069126 -2.0338807 2.928554 -2.527392 -1.3115592 0.6630378 2.5305672 -1.9637369 -1.9265951 -2.1578174 2.5615354 -2.0968816 -2.9699419 -1.5362937 2.0946667 -1.6464396 1.076631 -0.71848476 -3.1710224 0.15835817 -2.8899646 -2.1850207 -4.0323944 2.2356193 -0.45129955 -1.7193173 -0.6498237 1.5555972 1.0195078 2.9157996 0.29260826 -1.9872413 0.8920198 -3.553621 3.3613906 4.1474075 0.82319444 2.309288 -1.017279 2.0595906 -0.9211154 1.9341494 -0.7740884 -4.077138 -0.8773378 -0.84907013 -1.521657
one -1.6051577 2.4445522 -0.1396491 0.4982323 3.5579453 1.5925504 2.9530826 0.59850466 -1.1812776 0.9461651 -1.609263 -2.1321673 -0.4356986 0.13946931 2.067515 1.4843588 -1.9375553 -0.7942193 0.2891238 1.335709 -0.19786043 -0.8075459 0.03807128 0.35058424 1.7257277 -1.6188666 -1.2615886 2.4284334 -1.9932396 0.28864917 1.5160849 -2.830843 -0.10310072 0.5203348 -1.0123265 1.6850041 1.1862285 -0.35168427 0.11268538 -2.094884 0.09564703 -3.4984217 -0.13562867 -1.1855063 0.36642095 -1.2263705 -2.9445238 -0.50624126 1.1510149 0.410893
orange -3.8827596 -0.030493045 0.9068812 0.2715662 -2.542267 -0.91038287 0.58515817 2.7950008 0.66448385 0.11672812 -0.689111 -1.3378781 0.1765546 -0.3147788 -0.6375106 -0.16212212 1.0651917 -1.6531376 -1.8150029 -1.5016716 -0.0642398 -3.286748 0.116596065 -0.9598043 -0.05829761 -1.0570136 -3.1402192 -0.9405436 -0.072127275 0.39922252 -0.10440652 -0.9757272 -2.0093465 -0.63243824 -1.700228 0.9469865 0.38536727 -0.8543719 0.33935833 1.1883348 -0.5257172 -0.46442914 0.9616503 1.1116335 -2.5049381 0.8791959 1.4972332 -1.9754713 -0.65079 1.0542397
bright -0.3568798 1.403562 -1.5999736 0.74019825 0.66126513 -0.66586804 1.2284298 1.8942318 0.042796127 -0.029877799 1.2698418 2.1689532 0.2836739 -1.1003339 -0.18967229 0.519839 1.2819843 -2.0351925 -1.203688 -0.95955247 1.8610348 1.0443103 0.53485876 -3.1802573 -0.6204441 -0.6932537 -0.9147274 -0.32380006 0.8848249 1.1826519 -0.732254 0.9555507 1.3809452 -0.024133064 -0.14283423 0.8668419 2.4451022 -0.0644975 0.3963831 -0.6554694 -0.15647128 1.8588207 1.72389 -1.4525477 0.8535414 1.1451302 -1.1510761 -0.103863075 1.1522532 -0.53331274
hat 0.082553305 -0.8622465 -0.8428144 -0.07594672 0.3918312 -1.1755459 0.65426576 -1.448371 -0.9727907 0.20035349 -1.2584263 0.80648947 -0.03575929 -0.6201002 -1.311691 -1.134064 0.49832395 -0.71755743 -0.98490006 -0.36345607 0.5390995 -0.82984596 3.7209013 -0.8602765 1.6729432 -1.8206497 -2.2402341 0.26162076 0.117648445 -1.05085 -1.946235 1.539003 0.3007013 -0.79994416 1.3858882 -0.23318218 1.0294315 -0.90884304 0.08943375 2.7286327 -1.1286081 -0.3627309 0.13369603 -1.297949 0.3266739 0.95447105 -0.85485923 -0.66380274 -1.0748839 -1.88775
be -0.30976403 0.9312702 0.68637085 -0.21498488 -2.0105364 0.9095765 -0.44792047 -1.3417081 0.7414128 5.5259066 0.9994755 -1.1782484 2.6609435 -1.478508 -0.156148 -0.42680925 -3.2296176 4.833424 -3.4609146 -1.2714969 -1.077662 -2.314788 0.09743766 1.6698369 -2.23783 1.9030713 -1.8610276 4.3396153 0.5493757 2.4099953 -0.6303725 -2.5101416 -1.3359029 3.5877357 -0.9806705 -0.47553316 -0.40686092 1.2738453 1.4464829 1.3014748 0.34768236 0.4435647 1.6867727 -3.685493 2.331634 -0.38120404 0.9299062 0.6454769 2.287145 0.38500002
walks 1.4460155 5.1163945 -1.4873623 -1.4246279 -4.2424183 0.34744242 0.7005932 -0.5348366 -1.0901786 1.1648874 2.4238653 1.3135679 -3.7682598 -1.8403118 -0.46008787 -0.7281254 -2.2366529 3.855486 3.5271099 -0.45166314 -1.68338 -4.658615 0.4336938 -4.38527 -0.29423252 -0.26914117 3.0974169 -1.0076897 4.156403 1.3638752 2.5954332 -1.4167624 1.4298906 -0.62322265 -1.3113914 -0.052939735 -4.094064 -5.011698 -1.5809302 -0.682356 -1.8016356 0.9232884 -1.6165891 -0.87964326 -0.8935987 0.89484185 -1.0724039 -2.8597677 0.90259796 -1.0901854
t 1.5949745 -0.31060216 -0.42908084 1.6844622 0.61259705 0.5309275 -0.17398062 -0.68823516 -0.7244547 -0.14575532 0.78961056 0.30940208 -1.2708579 -1.5782633 2.2841797 0.42120138 -1.8461561 -1.4934403 -0.9813482 -3.153394 -0.21408966 1.1383988 0.8131899 -2.7456834 -2.1920905 -0.062866196 -0.07634626 -1.6772372 0.5087589 1.3907263 -0.45347318 2.3647933 0.99335146 -2.0306695 -1.2217289 1.3348161 -0.56469804 -2.5861776 2.0313673 -0.833627 0.6672323 2.3558002 0.33697364 -1.4653726 -0.100150794 2.1709404 0.62625885 -1.4146627 0.5106487 0.020277653
denim -2.3155096 0.85616714 -2.082036 1.3186753 -0.6569696 0.6946587 -0.57566875 2.4107208 1.0469276 -1.561364 -0.92012155 -0.74745435 0.41332278 -0.4713671 -0.99682814 -0.5730948 0.35934335 -1.7778181 -1.1717693 -1.4647038 1.0065944 -1.2157837 -1.1554095 -1.2363633 -1.2051376 0.20975454 -0.27433008 -1.3752841 -0.35685426 1.3635689 1.4866668 1.9176921 -1.8389696 -0.54849815 -1.3923494 1.7241273 -0.48836753 -0.7007601 -0.31686458 -0.46665034 1.3298123 2.8352928 -0.29803893 -2.2739599 -0.08094967 1.7943902 0.66413754 -0.65785486 1.617142 0.6234344
tee 0.03334535 0.33603144 0.40356618 0.1061761 -0.46011978 0.89847267 -0.3213704 -0.1512061 -0.6700274 0.11695947 0.0430129 -0.45121062 -1.0396073 -0.39761394 1.0887429 -0.1468681 -0.62945884 -1.9892011 -1.3238764 -3.051856 0.9989505 0.4340361 0.3222877 -1.4509609 -1.4745402 0.6720638 -0.64300144 -1.209993 -0.2656892 1.5796261 -0.89713836 0.206342 -0.80859786 -0.7544405 -0.5139898 0.4477803 0.600733 -0.18183966 0.55579865 -1.7541188 0.7265638 3.677559 1.2785242 -3.3941936 -0.5589859 1.2013232 2.3184738 -0.094956614 0.23125333 -0.29549256
hands 3.1532907 -1.0016747 -1.4691633 -2.2922173 -3.1110418 1.4700621 0.78323436 1.3071444 -2.0014687 1.8599304 -3.4450097 -1.3043997 0.8365634 1.6446788 -1.5422127 -2.101836 2.206936 1.6173084 -2.7233825 1.2409978 -7.07647 -0.6770906 -0.96902263 -0.09333881 2.8375826 -0.4524211 4.02389 0.6785293 -1.1433482 1.4071082 -0.98653424 0.2297283 0.53063595 -0.18847333 -1.087505 1.4057037 0.12200267 1.2759498 1.2106079 -2.7351377 1.3649452 -1.6115742 0.45234084 3.385421 -0.82021135 -3.2952807 -2.5924459 -3.5037394 -0.16121103 1.88896
button -0.7735673 -2.337467 1.5190448 -1.1537539 -4.9125247 -0.63612497 -0.8473535 2.468139 -1.8031787 0.65843546 0.6730245 -1.1026245 -2.463496 0.49995807 -3.473248 2.3732233 0.0150779635 -4.168394 -0.7626413 -2.4712567 3.0222435 0.2157114 0.23044443 -0.40089628 4.5536485 0.48192427 4.352545 -4.9910264 4.437808 -1.9850848 0.95655817 2.3228474 0.5167925 2.8334167 3.506084 -0.7278307 0.9526081 -1.2887061 2.2087183 1.2584342 0.055078093 3.5507216 1.3351576 -2.8263693 -1.1088278 -0.7703429 -1.0660009 1.6898915 1.8307928 -3.9559393
shoulders 1.7042017 2.0220184 -2.0609174 -3.2361329 2.1589704 -0.49618712 -0.25895318 2.0386739 -3.082353 4.3344884 0.2732125 -2.3810656 0.8046203 1.1263101 -0.17485504 -1.4726527 1.0556319 -1.2511204 -1.8674991 -0.5416768 -1.4190087 -3.3301258 -3.324477 -2.1204596 2.6178248 0.72316223 -0.4690445 1.5686977 -1.6516516 -0.6688398 1.7015146 0.646755 -1.3966441 1.4298644 -0.8560958 -3.414464 0.90894395 2.858949 2.3803144 -1.2990698 -0.36359486 1.2246896 -2.5416467 0.6451511 0.3196898 3.3359768 -1.8756428 1.5892173 1.4351957 1.3549654
plaid -0.6685608 0.4400358 -0.52119774 -0.17290008 0.032759435 1.5520259 -0.30889475 0.5179102 -0.5183533 0.4977472 -0.2223799 -0.50413847 0.14113131 -0.8054362 -0.6170542 -0.40008447 -0.09990527 -1.9240799 -0.3545078 -0.56170154 0.61956465 0.0557277 1.0506932 -0.569338 -0.3253311 0.48803028 -0.3631651 -2.3242388 0.49643648 0.25978732 -0.915275 1.374725 -0.46377444 -2.2267833 0.79118353 0.06731242 0.9057551 -0.3961914 0.6788581 0.75777036 0.3711829 1.9414203 1.0904179 -0.6399595 -0.13445085 1.1355461 -0.66249233 -0.9846766 1.1496327 -0.33110029
blouse -3.9470274 -0.5642873 -0.92195964 -0.83640015 -0.343326 2.2607863 -1.3961821 -2.3151095 1.9711174 -1.7294384 0.53495806 -1.5743266 -0.28877977 -0.98528874 0.52913916 -0.5730296 2.588703 0.6110514 1.27826 -2.0924673 2.017502 -0.9622553 -0.80396545 -3.120575 1.056802 0.6062869 0.2949743 -2.83487 -2.8483398 0.17396137 -0.70687854 0.35832942 -1.7238518 1.3658165 3.4406226 -0.7530585 3.5583289 0.34485385 -0.6662379 -1.7289445 -0.78003085 -2.3415153 -2.0942335 -0.40443924 1.222385 2.6069853 -0.3835998 0.746197 0.07915434 -0.55850804
collar -0.5784163 0.58501506 1.3028737 -2.8401465 -0.600055 0.050337136 -0.5296334 1.3643234 -0.9559819 0.207703 0.1997295 -2.0845711 2.2535677 0.10443407 -2.0241096 -3.0376134 0.95948964 -1.6940958 0.11812753 -0.8869987 1.8337493 -0.45199305 1.075098 -0.30422956 1.899579 0.47325242 -0.16241649 -1.1112702 -0.62290394 -0.35286492 -1.4130107 1.6215569 0.004250224 -0.24471362 2.8702714 0.71128345 1.9069777 -0.515537 -0.043550543 -0.85382897 1.4539266 2.818271 -0.68892366 0.07600641 -1.4549074 0.98603415 -0.18331431 -0.43096042 0.18874684 -1.6608906
stripes -0.12018951 3.4699779 1.3021163 -0.9846474 0.7828482 0.61518735 1.174987 1.3270658 -3.8010318 -0.85513276 1.2980181 -0.16794726 0.007571434 1.9629217 -0.5998855 -1.3887767 2.9399729 -3.0956075 1.0622792 -2.07801 2.3607433 -2.0341744 -0.15875787 -1.887131 0.5749571 -1.4858207 1.6520585 -1.291693 -0.5117167 1.0286251 -1.165554 1.2229637 -0.40815413 -0.61904687 0.36166522 0.05213138 1.5026339 -1.9808077 -0.6540819 -1.7655711 0.750947 3.349702 0.7937232 -0.96658367 -2.1587985 0.16378812 0.17271249 0.9244351 0.29181412 -1.026056
appears -1.1133312 1.5892769 0.45600286 -0.5403746 1.0232857 1.0779939 0.7083074 0.08034805 0.7624218 1.2348719 0.69047385 0.6850984 0.6104793 -3.6322498 -2.6156769 -0.20354648 -2.9921389 0.01881035 -2.5958128 0.9267214 1.4000832 -1.1182712 0.40227765 0.9787895 -0.023746029 0.5830288 -0.049360976 3.4469182 1.0578932 3.5031955 -2.774874 -0.88281304 0.10766279 2.8259003 -1.9516215 -1.0731913 -1.3316549 -0.4488582 -0.7935202 2.9980764 2.2108147 1.6141363 0.78335917 -0.5357952 1.7399468 0.021140464 0.54935503 -1.2275027 0.49762112 1.3702662
around -0.6867115 -1.8145443 -2.3354697 1.960309 2.574347 -3.4855456 -0.7158986 1.0153795 -1.2179458 -1.6106751 -2.1096294 2.8044283 2.7923403 4.5767493 -0.6712704 -0.104672976 3.554567 -0.41986844 -0.5692776 1.2760997 0.037933495 1.9372655 -0.23254047 0.30716515 2.0373154 0.9528615 -2.5574656 0.55089545 -4.164449 -1.1475291 -1.0831833 0.34055728 -2.904409 -2.0488746 1.3318219 -1.0614892 -1.0918503 -0.67322433 -0.17988935 1.0353347 1.4968617 -2.2577116 -0.6528797 4.171881 -2.6663003 -2.3008652 -2.150545 -0.07216038 -0.6653094 -0.5883436
high -1.9762324 -0.104256056 -2.0351164 1.5909718 0.6503528 -1.2470603 0.73117507 0.3063197 -0.9878795 1.2466702 1.3674732 -1.945912 -1.2505376 0.59304065 -0.40394765 1.2250274 2.3644042 1.2342527 0.673257 -0.9662557 4.556107 1.654451 2.0409234 -1.147642 -1.1520985 -3.4584882 -0.26158834 -0.78831977 1.1754851 -1.7439355 -2.775141 1.393337 -3.4691045 0.49499175 0.57163876 0.775698 -3.035341 -0.6040784 -2.8445313 1.4490778 -0.13718426 -1.8126782 -0.80338 1.9694748 -0.94781005 -1.595343 -0.18364884 0.027433503 2.7929409 1.9262881
watch 1.8387355 -0.69978327 0.52891535 2.139414 1.1629995 0.07362791 -2.2463198 -1.6077696 0.68859416 2.5380347 -3.0172982 0.14806382 0.12765224 3.1995907 0.66786784 -1.4493722 -0.7650534 -1.4701382 -2.819199 -1.194704 4.2126184 -1.0684953 -0.43684012 -0.5407041 -0.76473904 -2.0188897 -1.1667845 1.0470173 2.3648179 -1.3244405 -0.09552655 0.047526494 -1.9972712 -0.9177288 0.5339414 1.29354 1.9004853 0.5943605 1.424514 1.4092748 1.5051391 -0.47108433 2.42148 -1.2052326 -1.9444408 0.35698205 -0.03395743 -2.6293657 0.30824783 -2.208929
something 0.7335896 1.5583898 0.6803308 3.1042736 0.6673154 1.9638454 -1.5764344 1.2021886 -0.4867696 1.4862096 -1.8054696 -1.3293424 -0.00084869505 -1.1688128 -1.9428389 -2.141976 -0.442951 2.0371823 0.2282767 1.1609058 -1.2007059 -0.5881746 0.91406834 0.904587 0.39753792 -3.4977057 2.6112287 -0.3910585 0.94004416 1.6675717 -0.62999123 -1.1628815 1.0400212 1.15333 -1.5112624 2.0720136 -1.148517 2.7892444 2.3604047 -2.0042305 1.9255713 -0.96559775 -0.08355702 -1.6850536 2.7161233 -0.79665685 -2.2587626 -1.7153766 -0.7818478 0.10220364
neck 0.51410425 -0.10005049 0.5767281 -3.2422535 0.14146014 -0.46362644 -1.187874 2.6987827 -1.0854537 2.8675444 0.34384984 -2.4710908 1.5690005 1.7304649 -1.4180776 -3.1278007 1.1874328 -1.2597706 0.23812613 2.3143117 1.3469126 -1.8021793 -0.60818654 -1.2650874 1.7374364 1.4305024 -1.8111656 0.40710202 0.8625479 -2.701039 -2.8233006 0.83104235 0.9984077 0.049853396 2.9361887 -1.3403726 2.9445603 2.7257628 1.7066067 0.6500789 1.4255149 1.0776682 -1.6765047 -0.42312053 -1.8132325 0.8783647 -0.35459337 -0.850975 -0.109076396 0.9228489
collared -0.7803575 0.95596945 0.48897985 -0.8321366 -1.8459544 -0.17928872 -0.47712356 -0.956732 -0.5002421 1.9732293 -0.090401635 -0.8471614 0.6590879 -1.3336893 -1.1244948 -0.81309575 -1.6332968 -3.0205586 -1.3611771 -0.80847996 0.74799806 0.9214095 1.0295376 -0.08743919 1.0549245 0.74486595 0.26493347 -2.3971276 -0.527746 -0.9444142 -0.49802378 1.1879927 -0.2028113 -0.75133437 1.6655229 1.9466087 0.24288677 -0.20520441 0.5182758 -0.28100568 1.850454 3.7042356 -0.34560144 -2.0787764 -0.8701515 1.0247947 0.10143146 -1.117672 -0.27283463 -1.6714674
boy 3.0109868 0.62676394 2.0723753 0.21967569 -2.170241 0.6508893 0.05593652 -0.4636018 -0.023049273 -3.194316 1.432177 -0.053780403 0.9827628 0.46170047 0.3152758 0.44107428 -0.062261 -2.003564 -0.7457435 -2.608919 -0.4833279 1.2108468 2.2069356 0.20864233 -2.3002603 0.24509986 -1.028116 -2.0798652 -2.2237186 -1.080925 1.5342327 -0.2892689 0.43422312 -0.5152736 0.76865363 1.0184705 0.70965135 -0.7517317 1.9832138 1.004256 -0.22630729 3.5075972 4.2637205 -1.0147349 1.8147151 1.0226306 1.3775238 -0.6144865 0.3822612 -0.20619076
female -0.38760954 -0.29046217 -0.41098502 -0.92051727 -2.654385 -0.040546138 0.4717297 -0.871597 1.486402 -1.2637293 1.2824242 -1.9496177 -0.011359299 -1.7066493 1.893595 1.3966626 1.3522234 0.69540703 1.2143335 0.38308918 -0.06818166 2.5902588 0.30728048 1.7202522 -2.0139835 1.3951937 0.7552968 0.8910979 -1.6181841 -2.0785356 -0.1450471 0.506814 -0.35281238 4.0831056 0.9633273 0.3648369 0.01214598 -1.7622592 -0.046305213 1.3220856 -1.3762594 3.5746455 -0.32711825 -1.9926947 4.394255 2.8272395 1.7229233 0.4949513 2.7891197 -0.2517941
head 3.8700302 -1.0519211 -0.06529578 -0.35141206 2.243804 -0.9852712 0.2133392 1.1522088 -1.017168 3.3793657 -0.9453683 0.9263512 0.007955512 3.5204885 -2.638152 -0.53635573 -0.056824204 -0.39014795 -0.16014348 2.2845974 -2.1633327 -1.9797486 -0.07629407 -0.7828964 3.3673272 0.29899335 -1.0999225 0.53435904 2.8044314 -2.0361316 -0.27893826 1.9932193 1.7387443 0.19804524 0.96422917 -0.78992665 0.13642137 0.8170985 2.7680452 1.5365367 -0.002022876 -1.7023424 -1.5007793 -0.3975982 2.3701928 -0.47324026 -1.885453 0.9240357 1.6712848 3.0879436
ponytail 0.4236278 -0.27183512 -3.5310655 0.27337003 -2.7393944 3.9500403 -0.8344299 -2.102547 1.4689134 1.1029865 1.1662918 -2.5269692 -1.3264409 0.1330194 0.56111676 -0.24341871 3.8176887 -1.3379954 -1.3717697 2.5120797 -1.934104 2.283547 -1.969576 -1.1607084 -0.30851868 -1.4942334 1.3977003 1.476079 -0.07812183 0.6426202 0.5395973 1.1913449 -1.2248493 2.7631457 1.982402 0.5620065 0.89863765 0.93017465 0.7501452 0.092474036 -1.6421243 -0.19009249 0.51942277 0.4954198 1.3254741 2.2093685 -0.7076076 0.6824425 1.3702838 1.0863239
across -0.0057088546 1.6996312 0.79260087 -0.21904474 3.263539 -1.7607385 -2.6202404 1.988067 -1.1348132 -3.1819947 -3.6627977 1.3040012 2.5218673 0.9658809 1.2611582 0.9849179 3.6619258 0.5761252 -0.5644356 1.4433532 0.17880557 0.09207405 -1.5425141 -1.4290211 0.45829877 2.315956 -1.7097327 -0.37706596 -2.6295586 0.2683229 1.0385065 -2.8240252 -0.92485565 -1.4941862 -2.5657897 -2.6541708 -0.9938459 0.7501338 -1.4050242 0.27910733 -1.7862729 0.7376801 -1.2392569 2.183754 -4.3744793 -2.2401552 0.49165472 -0.7008617 -1.767021 1.7755935
leggings -1.8823311 -0.8947294 -2.2989266 0.21742885 0.3249207 -0.0043228334 -0.57989925 1.0683441 0.34101546 1.5908899 -0.10386132 -1.8348459 -1.9774156 -2.6767542 -0.69949955 2.0004504 2.8169076 -1.0828192 0.6458631 1.0547682 3.31076 -2.3023944 1.929612 0.7424552 -2.7100966 -3.077752 -2.284398 -0.971454 -1.7847564 -0.16835037 -1.3230858 1.3602308 -0.926465 2.1439242 -0.1628501 -1.1766433 0.7213789 -1.2384375 -2.0959501 -0.86120135 -0.73309666 0.75749785 -1.6204323 0.8299386 -1.0168749 1.4108092 -1.0002785 1.619685 0.68775874 0.44315824
flip -0.564034 -2.7376654 -1.8039385 0.80034506 -0.10949404 2.4629989 -0.8735969 0.83503366 -2.3643348 -2.796061 -2.367229 -2.9505687 -3.0134974 -2.0370686 -3.122618 2.0360882 -1.0369672 0.46857 -2.5431461 -4.1131234 1.2024755 1.7833809 -0.9739697 -4.204618 -9.060841e-05 -0.25766605 -1.0145651 -2.7996042 -0.032543663 2.185119 -0.93531245 -2.118188 1.6111745 -1.525174 0.72447896 0.5724108 -5.4259343 1.2336452 0.7657115 -0.63760334 -4.1644373 1.6049651 1.6253196 -1.2954631 1.2440608 0.99770385 1.5732318 1.1226305 -3.2123563 1.1654773
sleeveless -1.5578064 -1.642071 -2.0867934 1.0216879 -0.85878104 -0.47294408 -0.17738843 0.027187303 -0.21375515 0.2444466 0.8977776 -0.16787277 -1.65412 0.60578847 2.2516654 -0.057746455 2.431955 -1.0911081 0.62735087 -0.8431553 1.6189145 1.6552289 0.16397773 -1.0577277 -0.8087313 -0.26682955 -1.8006177 -1.3424498 1.6582707 -1.267853 -1.8932273 0.666707 0.88166285 0.28675303 -0.11726709 -1.0280873 -0.22654413 -1.4381016 -0.0769998 -0.06543236 0.43194878 1.3467054 -1.6639472 -0.67750436 1.12017 0.15063912 -0.013335409 0.22669587 0.8423822 2.9237256
stripe -1.370689 2.4497468 1.0061239 -1.0334572 0.5520853 1.3690184 -0.036912877 0.0036725604 -2.8990724 -1.2901391 1.1790835 0.29222578 -0.7970989 1.5457222 -0.003445053 0.17703156 1.7939135 -2.063943 1.4024224 -0.9799505 1.5039594 -2.7145183 0.6451388 -1.3869874 1.7397065 -0.5418648 1.8413333 -0.69344974 1.3502694 0.22947848 -1.2424873 1.326406 0.69284755 -1.2789961 0.2476765 -2.4591618 2.0254695 -1.8313727 0.25842044 -0.1339004 1.1527114 2.0386767 1.9090046 -0.24481276 -0.6490277 -1.522003 -0.5079913 1.3216865 1.5797505 -1.9257929
polo 0.6007804 1.6620746 0.70445555 -0.14533684 -1.2838972 -0.56714076 -1.0318882 -0.683942 -0.7558796 0.89439434 0.7564904 0.2061411 0.23918813 -0.7565922 1.0178119 -1.5767722 -1.1378924 -1.8688818 -0.6090913 -3.9427845 1.4568181 2.355503 0.83090514 -1.2788774 0.89641374 0.25746226 -0.9607592 -2.4181473 -1.1501197 0.028243672 0.6120442 0.55385137 -0.36227065 -1.742027 -0.3026214 2.3412876 1.492337 0.3065569 1.0676119 -0.98989606 1.2393534 3.2992976 0.023655914 -3.6062078 -1.6673238 0.2875234 1.004861 0.2316437 -0.0470233 -1.8371547
standing 2.4075654 0.6933239 0.20213611 -1.1828454 -3.4291105 1.1726273 3.2196655 -1.376438 -1.0200199 0.6557547 1.1611602 2.0451314 -2.202582 1.7789191 -0.40364188 -1.5861874 -0.8019729 2.1381392 0.64295346 1.0091318 -2.4124286 -1.0577596 -0.707108 0.44012398 0.6788453 -0.6324802 1.4285842 -1.8348635 1.8841462 0.7501943 -2.5505717 -1.180903 1.2847651 -0.4618335 0.5526157 0.45848006 -1.7604339 -1.034307 -1.7961255 -0.69527924 1.0089526 -1.8048242 -0.13457936 -1.0371748 1.9419506 -1.1418898 -1.065311 -1.6895247 -0.3968977 0.9216286
beige -1.0385505 1.5252855 -1.6876655 0.8189545 -1.2216742 -0.71294886 0.5245947 0.2448744 0.7249462 0.2619897 -1.4842687 -1.2835175 0.86836165 -0.85909456 -0.5526273 1.3964658 -0.57508886 0.83347404 -2.0090754 -0.79943734 1.6189382 -0.4207555 1.349795 -1.8864703 0.17108507 0.22461966 -0.64414924 -1.5386213 0.8646903 -0.84639955 0.7480781 1.412688 -0.5719262 -0.24230134 -0.5141966 1.6907423 -1.3652991 -1.0712386 -2.0142188 -0.5046472 1.1854068 0.560316 -0.85877085 0.21904701 -0.6373673 0.24769963 -0.62447095 -2.2125547 0.01331437 0.42837137
tank -1.1066779 -0.60758245 -2.060551 2.2743645 0.15274346 -1.3691216 -0.8326495 1.9675392 -1.5411099 0.44390327 0.5193916 0.031855516 -2.863961 2.3547785 2.9659314 -1.2222975 2.3069062 -3.212897 -0.20977291 -2.5242124 1.1763145 2.506296 1.7680268 -0.28440148 -0.8611004 -0.8045928 0.75915766 -2.2905405 1.3731366 -1.4233482 -1.4832247 1.1458503 -0.23090096 -1.0140532 -2.5298924 -1.7139972 0.70583427 -2.4213169 0.33439785 1.8802981 -2.193728 -0.056580212 1.946217 -0.6189166 1.097687 -1.7431501 1.1304659 0.45340738 1.8770144 4.646511
belt -0.7719224 -0.7956497 0.063539535 -1.6836323 0.68379843 -0.032691266 -1.1356198 -1.0874637 -1.2138448 2.7349522 -0.7777396 -2.0920012 0.2525918 0.6548502 -1.3797038 -1.4613941 2.8101602 0.5101974 0.07673232 -1.8972448 2.1977785 0.87550116 1.38436 -0.5488559 2.8536894 -1.622801 -0.9426142 -1.1088324 1.0434268 -1.3622315 -1.7272118 0.42595756 -0.013559869 -0.5487197 1.567446 -0.27604255 0.90891904 -0.8171857 0.7673782 1.1276933 1.3659958 1.1664988 -1.1522288 -0.28596187 -1.2776767 -0.35042948 -0.3974718 -2.0059786 0.31413344 -2.0434906
away 2.8082664 -0.93046033 -0.40403563 2.3982644 1.924517 -0.13614054 0.4907557 -3.1725197 0.14996079 0.27821362 0.54520905 0.5091002 0.30474564 0.9913531 1.2741562 0.707127 1.5840129 -0.43087766 0.8317464 0.6923284 -2.301846 -2.1381915 2.2995007 0.023986718 0.73097056 2.4133656 0.015944248 0.2875668 -0.19526328 -0.3847256 0.029890617 1.8260452 -0.89751154 -0.93050736 -2.2218416 2.175439 -1.0698636 3.0542505 -0.050110865 -1.1510456 -2.2134876 0.33878705 -2.0668695 0.7095042 2.6294608 -0.46727607 2.2825031 1.1947011 -0.7573971 -3.5494454
sweatshirt -1.0471894 1.4339576 -0.5404519 -1.3934946 2.5911973 1.5089965 -0.18849877 -0.088347115 -2.2460732 3.0483365 -0.2504346 2.8140354 -1.5639486 -0.99666804 -0.86946684 -1.4050988 0.2837938 -1.5306844 -1.3663987 -2.092383 -0.50635666 -1.9667349 1.1604933 0.3589929 -0.9302348 1.896617 1.0962692 -1.1826441 -2.6564498 -0.42125434 0.98987234 1.477624 -1.992615 -0.15640445 0.19752856 -0.5409986 1.6573596 -2.427015 3.8352814 1.7365044 -1.529161 -0.9319573 0.046604797 -2.299998 -0.35846543 4.034401 0.61243063 1.1122435 -1.1628338 -2.1825876
pulled 2.2283084 -2.3250933 -0.6562085 -0.8721021 -1.0377659 3.5891516 -0.16444936 0.37011188 0.79449093 0.6811636 -0.15982169 1.2104944 -2.552401 -3.6205325 0.16118334 1.596223 3.6607683 1.6192926 -1.3618717 4.039226 -1.334422 3.1332152 -6.223906 0.10995614 1.4010104 -2.1411145 2.8542612 -0.11230945 0.30626434 -2.1075072 -2.2887363 0.4399476 -2.6750891 3.8461602 3.7571566 -0.4627625 0.26146004 -1.1359125 -0.3264464 2.564972 -1.2267601 -0.53295046 0.81061697 -0.7620244 2.074974 1.1359266 0.799602 2.3423297 -1.3457596 2.3589647
wrist 0.30162877 -2.1459312 -1.584928 3.773748 2.2816916 -1.4076699 -4.593075 -1.1275909 0.22822586 1.9663924 -4.203086 -0.53162825 -0.8298028 3.8833764 -3.2501652 -2.3086483 -1.8630238 -1.3172113 -2.3878052 -0.3794061 2.2489414 -2.4168046 -1.1696191 0.74618673 0.3733777 -1.7393702 1.1854788 1.0434169 2.638993 -0.79652125 -3.0572965 -3.0083475 2.5326343 -0.58583695 0.41768047 -1.4996096 1.2418686 0.9374367 3.2541769 0.09523185 0.8131357 -1.6975472 0.8627794 2.2057865 -1.4552375 0.5835708 0.72370225 -2.2892573 -2.295572 -0.26622725
flops 0.45464152 1.6272916 0.25349182 -1.7434584 1.1761872 -1.7941766 2.1883628 -1.2196237 2.606677 -1.953219 -1.4753265 0.73891324 0.033633318 2.6141346 5.669079 -0.65129745 0.0019945977 -1.0945032 -3.1024256 -4.619189 2.4121432 -2.3481946 -1.2183914 -1.1727618 -1.2962989 -2.3311799 2.2055316 1.383337 0.32403654 -0.17864169 -1.2870575 1.0225741 -1.7194152 0.2609186 -4.1251082 -0.92562556 -0.019699225 4.6722245 -0.038547322 0.024951253 0.090353824 3.0730345 -1.2450534 0.008078872 0.7384972 -1.9701282 -0.35694706 -3.899427 2.5651329 -0.4876692
suit -0.25889373 -0.45845795 -0.0053579216 -1.4871459 -2.452547 -1.4375426 0.87488633 -2.3417423 -1.6520975 3.353856 -1.1510754 -0.55758965 1.0664284 -1.6569977 -1.9564135 -0.8653848 1.0226823 -0.62713456 -0.12160602 0.55881417 -0.5627271 0.307486 2.9346602 2.5821521 3.4081233 0.63112456 -0.52194625 -1.0226294 -0.59538436 -2.4848723 -2.839984 0.77626514 0.96939754 -0.44744176 1.8635037 2.0874991 0.27730563 -1.2382455 -0.77903754 2.0300984 0.46000284 0.56101763 0.051681798 0.18835892 0.21821299 -1.7151934 -1.2841045 -0.5130704 -1.5467553 -1.3731271
feet 3.687143 0.032320894 -0.4369298 3.3080924 2.1845374 -0.38778922 -1.610162 -1.1840618 -2.4827857 2.5274963 -3.1226451 -1.6760558 -2.1200125 2.5900588 -2.9817472 -2.5476184 1.598804 2.5070279 -0.5938564 -3.3975704 -0.66476107 -4.646551 -2.0456402 -0.9617257 1.2680751 -2.2524254 -0.7075696 0.06503011 2.4141135 0.5908096 -1.276445 1.1958293 0.86657834 -2.1265078 -0.117600314 -1.7771624 1.1793735 2.5958047 1.8131989 0.8485433 1.6521908 -0.055161078 0.9063007 2.182185 -0.45815647 1.5747105 -2.9474275 -1.3804216 3.6431637 2.2737136
small -1.5130122 2.0269494 -0.41526783 -0.012246199 0.66186965 -0.10515176 -0.10426537 0.89489543 -0.13001183 1.2224435 -1.070915 -1.440883 -0.46604645 0.22407286 0.40042645 2.0178154 -1.172144 0.8656392 0.4059791 0.9911794 0.78878045 0.46291828 -1.5347507 -1.9077044 -0.13890503 -0.3677116 0.64903253 0.6574321 -0.6690654 0.6051824 0.25274307 -1.6900648 0.4901459 1.2570255 -1.3200545 0.46259925 0.8680202 0.4324558 0.548103 -1.4085604 -0.6704243 -0.46909353 -0.9299163 1.2777961 0.0905582 -1.3307554 -1.4154382 -1.0891944 -0.20935939 0.7900262
strap 1.0424312 3.3051581 -0.66387945 -1.3783752 2.0933292 0.43667877 -1.160678 -0.23991835 -0.8606632 -0.18453784 -3.3773677 -2.2967787 0.6933427 0.99447435 0.7126111 0.84316117 1.4501481 -0.17815627 1.7435672 1.2498167 2.02257 -1.1294942 -2.033371 -2.2134855 1.4829135 1.3334347 1.0049487 2.3027413 0.31082052 -0.060754173 0.7293957 -3.527181 1.3279904 -0.84213525 -1.4695354 -1.2247055 1.0510101 -2.1977973 1.4546183 -0.5055345 -0.9579258 -0.66297483 -3.84196 0.7500671 -1.3018763 0.03009003 -0.24504809 0.24208723 0.16114052 -1.571236
tight -2.1596463 -1.019084 -1.6414961 -0.7315433 0.19870825 0.32212076 -0.540765 -0.25096658 0.7943087 -1.38843 1.5719585 -0.24289039 -1.235295 0.13858551 -1.128449 -2.248685 3.130621 -1.2234557 0.42857814 -0.89110345 1.2452772 -1.2245808 1.1602348 0.26417688 -0.77138835 0.17422122 -0.5451932 -1.6488678 2.8311265 -1.6860887 -1.8526319 1.6869923 -2.5151706 -0.9874977 1.350127 -1.6952903 1.837086 -1.2139447 -0.82888407 1.1581911 -0.66210794 0.27824202 -0.2589257 -0.064284705 0.36000744 1.3383322 0.075865805 -1.1132506 2.09689 1.3450341
along -0.42305118 2.741028 0.5990788 -1.0742846 0.94009554 -0.6128485 0.67476827 -0.5348548 -0.98997533 -1.5666295 0.7644001 0.6210496 2.2113578 -0.5770629 1.4035809 -0.13226748 0.09931563 3.6351442 -0.5229294 0.15529716 -0.7910579 -1.3276112 2.6046627 -2.5246754 -1.9409739 0.57234913 -0.2675765 -2.4393468 -2.1378152 1.5312896 2.2728024 2.9610918 0.18544416 -0.39624783 -2.0810285 0.14115117 -1.3044994 -2.459335 -3.3027565 -0.8236705 -0.15931879 -0.030926676 -0.3414486 1.8786132 -1.8638088 -1.9096696 0.5353184 -0.1904882 -0.50820273 0.12806009
body 2.8160226 1.9942904 -0.79794186 -0.97405195 0.9907315 -2.7165048 -0.25807908 0.028617943 -1.6966364 1.3817902 -3.3760438 -0.6326534 -0.075914994 0.5787422 0.85109675 1.0621693 -0.40749297 -0.5743923 0.97867054 0.886138 0.89700425 -2.5969968 -2.6978698 -3.1069798 2.1262982 2.7262397 0.89663917 2.1361685 0.353041 2.564541 0.3081335 -3.2270875 0.34634906 -0.7697043 0.451575 -2.5421665 1.9695994 1.8776294 2.7707253 -2.7635567 -0.5301187 -1.2048695 -5.26583 0.021467403 -0.3731982 -0.33012626 -0.5401889 -0.47687763 1.4491904 -0.08919328
they -1.1521649 1.4486593 -1.4373076 -0.88119984 0.87827474 1.1270908 0.8156495 1.8652129 -1.3163894 -0.7169139 1.7770374 0.032868087 -0.36000663 -3.3153877 -1.2538488 1.3254975 0.29181325 -1.588827 -2.121969 0.7115807 1.737141 -0.7461683 0.65053827 6.361533 0.47226956 0.26812574 3.1361141 1.6857547 0.8260098 -0.9337177 -1.7817158 1.0038009 -2.0920053 0.21512409 -2.5213714 -0.14853406 -0.17433551 -0.34313887 -1.3456331 -4.8450823 1.1042391 0.829299 2.636361 -2.4080691 1.5143684 -0.165142 4.070779 -2.052678 0.83556956 -2.4880266
slacks 1.2534477 -0.20093533 -0.48573637 -1.2720368 -1.8622605 -1.9761512 -1.5907007 -0.023375971 -0.8898872 3.2260118 -1.2540975 -1.7433245 -0.97904944 -2.4288228 -1.3270261 0.13968319 0.244655 -2.0136309 0.24978232 0.5186113 1.358861 0.28741354 2.6966324 2.0706892 1.5132481 -1.102309 -1.534286 -1.4473778 -0.9691854 0.31939065 -0.76258165 0.25243682 0.17289302 0.39039397 0.28921443 1.4162148 0.33250254 0.1495889 -1.7397883 -0.5567615 0.0933657 2.1280484 -1.2850122 0.9767743 -2.488814 -0.8622366 0.16459766 2.047746 -0.37414 -0.6824423
tie -1.716721 -1.3851457 -0.43150416 -0.7849076 -1.775472 -1.1537524 0.14415719 -1.4997419 -1.7453766 2.6776998 0.14800315 -1.5466958 1.8344376 -0.55225056 -0.17063092 -0.8410938 1.703072 -0.46001574 1.1132544 0.75147486 0.7497745 1.89128 2.546641 1.9591224 4.381879 -0.5970359 -0.18460415 -1.1188068 -0.18501043 -1.6713345 -2.593628 0.3730714 0.6326773 -1.9957056 3.7210977 0.7634156 -0.028309997 -2.278045 0.21395124 0.80696887 1.0770366 2.2209227 0.5753843 1.4342524 -0.61592895 -0.23472653 -1.3063486 -1.0604213 -0.5090827 -1.4729766
haired -0.14161421 -0.85025316 -1.2941875 -1.1232989 -0.7046263 -0.22477601 1.6203754 -2.7284334 1.4980433 -0.7481304 -0.39306307 -1.0755724 -2.331891 -0.36298868 0.64560664 0.68641394 -1.070627 -0.02034823 0.48505166 -0.24668762 -1.8941348 1.090872 1.7313125 0.59320474 -0.108804554 2.0975091 0.9089321 -0.58096033 -0.76116276 -0.48411816 -1.1041564 2.54709 -0.27441728 2.3325357 -0.41274655 1.1096977 1.5103161 1.2523819 0.4397473 2.169664 -1.3049523 2.1818674 0.4135867 -2.235108 0.73928833 -0.39310238 2.3929684 1.806168 -1.2206177 0.36494926
under -1.6068139 -0.8430979 0.26402608 0.7918955 0.019606762 -0.7972005 0.025851304 1.2045788 0.8296365 -1.1237878 -2.6002655 1.9808097 1.5331494 0.78675073 -0.5471947 0.2905262 0.23496465 -0.06821866 0.0072952826 1.7837987 0.35774127 0.7060176 1.8943881 0.96000195 0.4050253 0.3564923 -1.5001224 -0.38353783 -0.9054247 -0.23463306 -0.041112598 0.38030216 0.45921612 -0.9818911 1.7651881 -0.16646959 0.49665904 0.18144688 -0.26492772 0.29292893 -0.61007524 2.2941751 -2.325777 1.2978601 -2.7928054 -1.6879756 -1.8162463 -0.60130864 0.64044046 0.84706134
print -2.2585778 -0.98024166 0.11930309 0.268688 -1.4539962 0.5025232 1.0901053 -0.44053194 -1.5669843 -1.6689683 -0.86969244 -0.98917776 -0.4413682 -0.16512619 0.73666304 1.1852531 1.4517417 -0.04306983 -1.0834656 0.09905436 3.0723853 -0.86156654 -0.77160794 -1.867463 -0.40032032 -1.3341168 -1.7777579 -0.5086541 0.37289724 1.3917736 -0.95105684 -0.0074050734 0.5754107 0.66232747 0.75404143 -2.093814 3.0036094 -1.4011232 -1.3946601 -1.3764971 0.48665863 1.996595 -1.4688884 -0.16164568 -0.33117098 0.39248845 -0.66458267 -1.0458959 0.23459296 1.727387
some -0.1960858 -1.8400296 1.4337854 1.1450076 -0.39731032 -0.11104723 2.263652 1.0485919 -1.9535781 -0.5820185 -0.73124313 -0.9078959 -0.5582286 -0.00049992197 -2.02856 -0.89080286 -0.38822928 2.3845482 -2.3180263 0.10713509 0.18932651 -1.0658859 0.90313715 0.60787815 -2.067194 -0.88562673 -0.64873075 -0.69478124 0.31522852 2.192423 0.18225597 0.7423641 0.4804341 -0.5020378 -0.44325998 -0.4388057 0.25297868 -0.66897756 0.18689549 -1.1198686 0.028412603 0.12974218 0.37812057 -1.3590171 2.4782975 -2.0378227 -0.11223799 -2.154806 0.02771616 -1.6788641
picture 0.7406589 1.2580266 3.7070692 0.7907273 -2.9743488 2.070572 1.6651915 -2.2573617 -3.0926588 -2.086315 -0.6651633 0.5494243 -1.4389522 -0.56499845 2.6664479 -1.069689 0.15151435 -1.146054 -1.2557184 0.43181822 -1.0171902 -1.975679 -2.0665886 0.21755098 0.40411955 -0.48070624 0.7323663 -0.13587001 1.7415886 -0.097308405 -4.1480103 1.3651356 1.4895434 -1.109614 0.81186706 -5.3254538 3.673463 -3.2363105 1.0405885 0.42565072 2.2811897 3.3283103 3.163464 -0.046649974 2.0282874 -0.5256917 0.2693527 -1.0787786 -1.2032274 0.7876796
capri 0.804222 -3.079761 0.6331687 0.5599713 -1.3706247 0.7759154 -0.3657502 -0.9437127 0.7752219 0.020103188 0.90669537 0.7929945 -2.5473392 -3.1887565 -1.3255054 -0.47635022 0.6566074 -2.6670485 -3.593281 -2.6150184 2.0261693 1.0592152 -0.2144485 -1.6792631 -2.2879407 -1.5629597 -0.23473096 -2.8624375 -0.025421243 2.7301316 1.0415374 2.3104713 -0.41229257 1.1741008 -2.1312706 -0.7681958 1.2493573 0.33000234 -0.14473122 -2.0047884 -2.0659885 0.51791006 -3.1984196 0.27774134 -1.428164 2.8925455 0.29271892 -1.297624 2.6797242 1.2497503
very 1.1038945 -2.273385 -1.0771449 0.1932674 -0.952864 -2.0737298 1.3399744 -0.2154372 1.195519 -0.5772217 0.17813902 -0.8461563 -0.07139703 -0.66023237 -0.42327657 -1.1265796 2.0073338 0.62551063 0.09647653 -0.5217516 1.4327226 1.4903263 -0.24050899 0.58437544 0.013511471 0.86476284 -0.5831258 1.393037 0.38669878 -0.54171 -2.0615094 0.23463221 -1.9201679 1.3930255 -0.024284156 1.0014626 -0.24943432 -0.16900228 0.5853965 1.5405902 -0.11112594 0.14511302 0.33745018 -0.7188997 2.524508 1.0598522 1.1478107 -0.20192234 -0.40508252 -0.084490806
shopping -1.0481284 1.6664815 -1.8319751 0.18075731 -0.29163593 0.21560563 -0.37926528 1.2339526 0.20169584 0.67217314 -0.93758637 -0.23406744 -1.419852 -0.58173275 1.1917433 2.191601 -0.8022543 1.2721317 -0.9369533 0.18959267 0.4170166 -0.6434969 -1.3309716 -1.3093302 -0.2990131 -0.7096695 0.26126283 1.5240421 -1.8335251 1.4595908 1.806167 -2.0161092 2.0472755 1.7352268 -2.854399 0.67389214 2.2872612 1.4477317 -0.109863326 -1.0113258 -2.2432353 -0.5696259 -0.41141552 -0.026015906 0.13834913 -2.1322336 -2.4973516 -3.1828988 -0.16492255 -0.88019794
looks 0.33297357 0.9105229 1.8908901 -2.5534406 -2.5186172 1.4015824 -0.10167312 0.39658433 -0.014170326 1.7502373 1.764553 1.2798822 -0.45117864 -0.0719262 -2.808154 -1.1881267 -4.8022356 1.6128461 1.601099 2.5155842 0.29765162 -2.8097851 -0.8405328 -0.8151717 3.1233933 0.8612067 3.7803807 1.8005974 3.085806 1.3560085 -1.3749093 0.4315089 2.9135094 2.715183 -0.4084263 -2.1540055 -2.2095084 -0.5703132 2.488911 0.08264746 -0.09841897 -1.3614476 -0.96003205 -0.6412846 0.30573234 -0.16026933 -0.9855011 0.47954118 0.3840483 -0.33791375
book 0.54367137 1.9153835 0.044444602 0.8083556 1.2724762 -0.009150968 -0.8007902 1.3517339 -0.22134598 2.54221 -2.7530572 0.19034046 -0.3075444 -1.6983216 -0.99404764 1.5250006 0.23451374 1.1898937 -2.377289 0.6878661 -0.8490693 -2.0781252 -1.7303606 0.021910759 0.65742743 -2.268443 0.99186647 0.08754993 -0.7769524 -0.5627364 1.085777 -1.2602986 0.89059263 0.08887263 -1.8119081 0.37864366 2.0092936 1.8355597 1.0665172 0.8385541 -1.4154464 0.36170986 0.8864501 -0.823897 -0.15927185 -1.8308668 -2.000831 -2.447323 -1.5223713 -1.8010439
behind 3.6036687 -1.1308248 1.0468764 1.2860084 2.9422107 0.7485681 -1.6860068 0.26852143 -0.7581003 -0.027518377 0.21811976 2.3440678 -0.3453188 1.0265691 2.1519802 0.1796437 0.45763674 2.9822521 1.7434766 0.74850714 -2.1172702 0.5958249 -0.2891064 -0.19059114 2.3698728 1.2702148 -0.42240122 -0.013505308 -0.65371495 -0.5603833 0.24059683 -0.6439293 -0.1465419 -0.097898364 0.120283656 2.4366198 -0.23999645 1.1229465 -0.5574203 -1.1366366 -1.8538088 -1.6069993 -1.1733662 0.4056374 0.97868454 -1.138629 -0.7380729 -0.040445052 -2.1958451 0.1791375
dressed 0.70356476 0.9814549 -2.269029 -0.15631868 -2.7953718 2.2935193 3.4767022 -1.5760913 -0.4774482 0.04375884 2.8108916 -3.2204406 0.10228464 0.16882616 -1.6724726 -2.0678704 0.11044143 -1.0952874 0.7764291 1.0902168 -1.988529 2.6337225 0.6802321 1.6165156 2.3518991 -0.46390745 1.5297126 0.25335956 1.06187 1.5841439 -1.1077543 -0.43599555 0.16892299 0.5670813 -0.035066072 2.1534975 -0.27748325 -0.7961243 -1.2816417 1.2574924 -3.0686324 -0.9246062 0.017748568 -0.34670034 -0.42621803 -0.43642417 -1.0794082 -0.6531822 -0.12905735 0.86260504
camera 3.5742443 1.0389432 0.6665084 -1.8611702 0.777927 1.6152294 -0.13726152 -2.0396216 0.7146124 0.71962327 1.6600925 -0.13295187 0.017421698 -1.4170245 -0.23979141 -1.1407056 0.036324106 0.5698629 0.40104645 1.0639551 -1.8738705 -3.0153856 1.7076142 -0.24258552 0.54560596 0.7691598 0.34435594 1.2584695 0.4558688 -1.2235051 1.4148644 -0.97104466 0.95784354 0.84316456 -0.3366133 0.9488784 0.2712764 1.3074081 0.06578725 0.37503973 0.25835237 1.5351136 -0.37997597 0.421218 2.7399235 -0.0028427748 1.4662008 -0.29976127 -0.7382471 0.043759856
into -0.28503075 -2.0950553 0.5006011 -0.014148159 2.205878 -1.6949811 -3.722217 0.9979205 3.708676 1.2413425 0.44117212 4.130359 -1.0769225 1.0675812 -1.2163966 -0.7927454 0.38268706 1.680241 -0.5991095 -0.61541843 -0.78943163 4.258207 -2.4821293 0.8406452 0.5277719 1.5128391 -2.1368554 -2.2261732 -2.8593726 -2.0854251 -1.7643917 3.100703 -1.1589521 0.84711415 0.56831455 0.40994027 -2.3416042 0.2866286 0.49945658 0.6635583 2.521607 1.7043484 -2.9125838 2.5597746 1.2859758 0.12864816 0.16312295 -0.88543856 0.025056588 -0.2691605
umbrella -3.643129 0.31840423 0.36022073 1.0461613 -1.8635957 0.2610347 -2.029566 1.1458627 0.9195023 0.7244129 -2.4977455 -0.28255764 -0.13742886 -1.3187993 -0.37175012 -1.8108433 0.60852236 0.10081229 1.7781495 -0.31096083 -0.6121097 -2.2298534 1.3135424 -0.77679616 1.6472306 -2.9666686 -0.37521195 -0.18786277 -2.756932 0.90040517 1.2654747 -0.69483393 2.4324024 2.4784093 -2.9436967 0.8098127 0.5781524 0.07950269 1.4152714 -0.3153537 -1.7868851 -2.8178449 0.18958142 -1.6299073 0.3253341 -0.5602785 -1.4332426 -2.226919 -0.3934789 -0.6180347
both -0.534805 2.3679266 -0.16513166 -1.4296081 3.4144967 -0.043917343 0.7058615 1.7504102 -1.8513464 1.6903661 -0.2166409 -1.8218296 -1.3155862 1.6010759 -1.1097791 0.20419365 -0.2409287 1.2733182 -0.702351 0.87472516 -0.52830994 2.0731287 -2.069147 2.3834147 1.4739708 -0.7017412 0.6563958 -1.4261384 -0.9107582 0.55237746 0.035461985 -1.5682597 -1.2320192 -1.2834063 -1.9560834 -0.013697648 -1.1861088 0.008260591 0.07514281 -4.4264655 -1.3128903 -1.9993439 1.4847511 0.18385597 0.8696135 0.60163987 -0.5239188 0.37013245 -0.11545179 -0.8806255
vest -0.70477563 -0.7487191 0.5528691 -0.5346136 0.17757955 0.6932487 -0.29287818 -0.8335559 -1.6561613 2.1099951 -0.87522596 -2.1868029 0.91399115 -1.7016363 -0.26441354 -1.9506258 -0.3298241 -1.7672156 -0.51366705 -1.13672 1.6613692 0.021522945 2.4927804 -0.13236153 1.177726 -0.7077018 -1.6281335 -2.2102423 0.37843347 -1.3127955 -0.70240176 1.9945304 0.03375491 -0.8144094 1.5760859 -0.9908341 2.310578 -1.6005566 0.7787708 0.63819426 -0.43669733 0.21231663 -0.4663534 -2.2854655 -0.5751304 0.30325067 -1.3375007 -0.44969493 0.099797286 -1.4530687
have 1.3282479 0.08084252 -0.58078676 3.6304111 0.30965874 -0.87118316 0.85462165 1.1138616 -1.9227315 2.856213 2.159001 1.300298 1.9557246 -0.32162955 -1.9892279 -3.1726003 -2.0063567 3.1779244 -4.30574 -3.3565493 -0.8200677 -2.9789493 -1.9110458 1.018711 -1.7930408 0.4842359 -0.9385296 3.5994828 -1.1932187 0.124828964 -1.6644315 -0.63783085 -2.51358 1.6524314 1.313387 -2.9347317 0.3994015 1.0439401 -0.31213135 0.16318037 0.6744982 0.31406996 0.1746944 -2.2230318 -1.7268087 1.7630184 1.5693402 0.7451864 2.0990002 0.74507576
pony 0.50468695 -2.5751948 -3.6978066 1.4027717 -4.249316 5.3596506 -0.0067967144 -2.1551275 0.91185856 1.0975857 1.1068623 -0.44778696 -2.7461908 -0.6156082 -0.111097865 0.15797767 3.4655664 -1.0390711 -1.4240367 2.9839509 -2.9136782 3.0192776 -4.2174745 -0.40602398 0.6687284 -0.8313709 0.17133228 3.448343 -1.092492 0.14416973 0.27622223 1.7821736 -2.4777694 2.748294 3.4202764 0.65843254 1.3217226 -0.7887646 2.5582583 1.2634362 -1.1147732 0.5358406 1.1631289 1.3701113 2.0705042 1.3960491 -1.3805665 -1.4503613 0.13121954 -0.27890998
heels -2.4559634 -2.570017 -1.9838343 -2.910096 0.7169182 -0.08455474 -0.40057015 0.7523749 0.74782526 -0.26981893 0.3986009 -1.732494 -0.09870461 -0.15139286 -0.9069342 -0.46902868 2.866423 1.6588184 -0.0940713 -1.1531582 2.7440288 -1.6284933 -0.23607239 -1.083606 -1.4896905 -2.3141596 -1.078867 0.31909117 0.656295 -1.6505836 -3.8458238 0.38463253 1.1964087 2.1493895 2.6147451 0.74139935 -0.6176232 1.1458259 -0.7705589 0.14101458 -0.8793258 -0.39399096 -1.7920753 1.984766 3.0899708 0.3371763 -1.7063473 -3.5555212 0.090329185 -1.6314006
flat -2.0894597 0.96751124 -0.7570114 0.995892 0.72405684 -0.49701995 -1.0435944 0.7511309 -0.48320234 0.501313 0.23198529 -1.1213397 -1.0992631 -0.110720165 1.2363117 0.6213873 1.1566341 1.079964 -1.5345079 -0.42564338 1.8449384 -0.56546766 -0.21673648 -2.0745466 0.6098841 -1.5712283 0.8248488 -1.5455378 -0.17537032 0.73706466 0.014644987 -0.22644109 0.7614593 0.25559106 -0.6039722 0.8493301 0.6876775 -0.5923097 -1.9780815 -0.6609048 0.7696142 -0.6795104 -3.2791848 0.99722946 -0.046657823 1.5040691 0.118091404 -0.3025739 0.4886633 -0.10809117
forward 1.2801769 0.9277719 1.7040071 -1.7298604 1.3549331 -0.12487107 -2.9021208 -2.7741175 0.6375863 0.46505737 -1.001057 1.7349298 1.1583296 3.413199 2.1881988 -1.1378287 -0.576088 0.7369404 1.8495643 3.4957268 -2.0950418 -0.7851947 2.1109233 -0.09470582 1.5201321 0.33925542 1.3587503 -0.5972162 -0.09021965 -0.75188875 -1.3644704 1.8956189 0.41900098 -2.3869956 -1.5939103 3.1155357 -1.6276007 0.48876527 0.050335117 -1.2908752 -1.1771382 -0.95386714 -2.2961586 0.73766637 1.7760886 -0.96287876 -0.24486737 1.3075219 -0.81380814 -0.7112136
knees 2.7876058 0.16122308 -1.1413549 -2.137871 0.15217265 -0.43677616 -3.3813875 1.8733695 -0.50141025 1.8562182 1.2379085 -2.976875 -0.3314787 -0.46466023 -4.520096 -3.372596 -0.13776551 0.52731925 -1.09306 -3.4554517 -0.11158261 -3.713082 -2.8385391 -3.8420048 1.3267444 -1.204902 -0.97672874 0.34751883 0.012829238 0.6161968 -1.5520508 0.4152677 2.0098283 3.362762 -1.2509257 -2.2944634 -0.7446545 2.0199442 -0.5302624 -1.2801521 4.7721896 1.8697375 -2.243718 0.2921228 -1.2999629 0.5983029 -0.44711402 0.8900949 1.7768077 2.0864391
asian -0.28835228 0.3516566 1.3930684 -0.9664293 -3.8271976 -1.1307893 1.3934194 -1.0136378 1.7350937 -0.023355328 0.2274273 -1.0923069 -0.07148965 -0.8591115 0.90199536 -0.60804343 -0.8902023 0.092778474 1.6782495 0.009754769 -1.0148938 0.7054521 -0.27053452 0.7935248 -1.0590696 1.628126 0.24326871 -0.67257094 -0.23050034 0.90221584 -1.9687386 1.4405357 -2.1448107 2.4191818 -1.3094099 0.64429116 -1.0397207 0.08077636 1.4142629 2.3313603 -1.560861 -0.15811531 1.0020221 -0.8601646 1.1185141 -0.68240476 1.2217853 0.344427 0.23324156 0.29440954
tail -2.5151677 -2.81323 -0.65039104 -1.0194553 -0.67028725 3.3347516 0.2118277 0.39957386 0.87973356 0.84215146 1.111237 -0.22974014 -2.5908666 -0.84770876 0.04147748 0.8012533 3.1304018 0.092870906 -3.3333907 1.661505 -2.4949102 3.2641177 -0.6144382 0.59387636 1.2182777 -2.7496498 -1.774747 1.2144883 -0.5890323 0.16764686 -0.023892716 0.7592886 0.3979356 2.7022226 1.2348193 1.5778325 1.5958993 1.1078817 1.7310317 1.1905434 -2.8547475 2.273273 0.4634683 1.3090813 2.9169538 2.309774 -1.0448943 -0.8909566 -1.7240461 -1.8379084
waist 0.2775739 0.2730623 -0.8431355 -3.823695 0.4727602 -0.82913387 -1.6088746 2.7333708 -1.0348005 2.246115 0.88974774 -3.217784 0.3939165 1.4519556 -2.2712383 -3.562527 0.494684 0.88004214 0.48728245 2.1870844 0.7674386 -2.7513802 -2.5669165 -2.1077077 2.109143 0.5911083 -2.0730817 1.424933 0.49983668 -1.7574884 -1.7091286 -0.3668539 2.484006 0.099796094 2.4975917 -1.1059413 1.7034202 3.2589471 0.36164883 -0.8514033 2.3975868 -0.5753445 -2.2444546 1.455858 -0.24071588 0.9677367 -0.91417116 -0.8130449 1.5232458 1.04323
hoodie -0.7814655 2.377282 -1.0654233 -0.38505363 0.6437936 1.3229403 0.5022842 1.106382 -1.0610323 1.5168406 -1.1940962 0.83454096 -1.1939752 -0.82360923 -1.2831066 -1.2515124 -0.6824467 -1.2357879 -0.9352336 -2.2584004 -0.49161324 -0.65785915 0.7490283 0.6662534 -1.0482357 0.63729274 1.2062265 -1.4329756 -1.4150158 -0.4011102 -0.08472866 1.5941833 -0.85245025 0.063521154 0.29549715 0.9944839 0.863543 -1.6004885 1.8829489 1.2299538 -0.84553385 0.41117513 0.1530816 -1.9434768 -0.5990656 1.5148581 0.3989523 0.7923849 -0.65434664 -2.192912
design 0.40179276 0.42948136 2.943582 0.25873822 -0.6111428 0.57157063 1.3507998 -0.37799513 -3.0150766 -2.1986568 -1.8094571 0.6703218 -0.48715714 0.17168537 1.9929409 -0.6069348 0.96210366 -1.4485188 -2.4727771 -0.23666468 0.93150103 -1.6635095 -2.488521 -1.2658564 -1.0123335 -1.3170056 -0.21177669 -0.4046415 -0.25167733 0.8543874 -0.781915 1.4580654 0.6666437 0.33018446 0.86143667 -1.7744282 1.8373523 -2.7845654 -0.08700371 -1.7633893 0.55946976 3.288033 1.2283721 -1.2494105 -1.2703247 0.8789121 0.45180193 -1.1069207 -2.559541 -0.38534725
patterned -2.5023384 -0.39358822 -1.4561888 0.5222206 -0.7992046 0.47811753 0.38751167 0.28839093 -0.21675666 -0.42496082 0.7031175 -0.18484046 -0.55629057 -0.15444101 -0.16251834 0.7765188 0.6706227 -0.71833193 -1.4210103 -0.15790951 1.9026816 0.34273708 0.79980254 -1.3466331 -0.64413285 -0.41489887 -0.9891059 -0.84894544 -0.4035602 0.29560417 -0.42222744 -0.10752099 -0.0029184616 1.0155876 -0.12213505 -0.09589016 0.20142078 0.086567014 -1.8899176 -0.6358979 0.107109815 1.8217113 -1.0727415 -0.8910483 -0.5498702 1.0141994 -0.30702505 -0.41426525 0.21981212 0.94247997
cap 1.3337778 0.51172763 0.6231363 0.44659778 0.21190771 -0.9620018 -0.13708386 -0.9466721 -0.69769174 -0.5158522 -0.41064703 2.0748453 0.3089715 0.3409643 -0.08021237 -0.79701024 -1.0337421 -1.804312 -1.05346 0.23557629 -0.6962865 -0.6753319 3.3011603 -1.8791391 1.0820282 -2.3377268 -3.582802 1.4470587 -1.283823 0.015321142 -0.75443685 3.7419095 -1.4622625 -0.41005388 2.7583165 1.33559 0.55346596 0.17365861 1.6424676 1.7281107 -1.9128742 0.5326234 0.61838835 -1.9710869 -0.040807206 1.1390629 0.69215375 1.5279282 -2.1109717 -2.3697586
underneath -0.4992074 -0.9474304 0.54927045 1.136218 -0.89587706 -0.5092693 1.1528034 1.076418 -0.39919257 0.2681403 -1.3062491 0.11236875 1.9324466 0.07236138 -2.6697903 -1.032088 1.8831388 -1.1352775 -2.177126 1.4829009 0.4930614 -0.92824566 1.6818817 1.6980321 -0.562959 -0.61325336 -0.9239926 -0.22624008 0.4329218 0.45087638 -0.8637341 1.3738691 0.4753529 0.13615309 2.341404 -0.11306698 -0.9602425 -1.184736 -0.5457616 0.5211232 0.27779293 3.9704263 -1.1542451 0.037774656 -2.1794572 0.003014198 -1.1334676 -0.7934204 -0.19521841 -0.05115153
