6479 50
a 1.2801154 0.9003411 0.87177783 -1.001519 0.6914799 -0.36178604 -1.9314594 0.10196968 -0.7747243 1.0166168 -0.013808403 -0.18328488 0.35169956 -0.97215086 0.20242104 -0.74383485 -0.51179755 -0.58582735 -2.7273352 -0.14792854 -0.7555093 -1.151886 0.3493404 -0.84950006 -0.5118721 0.113913275 1.9501594 -0.072463386 0.24141467 -1.0725116 -0.15793979 -1.0159861 1.6940463 -1.6392708 0.70624197 0.6424725 -0.005914414 0.8035621 0.49408367 -1.913469 0.40445414 0.021406017 -2.368557 -0.46100175 -0.5671483 -1.3424277 0.42674035 -3.371516 0.10876091 1.2369915
and 1.5796713 0.6144007 0.39232218 -0.2838044 0.41741073 -0.34119216 -1.4942421 1.1951663 -1.0686477 1.792408 -0.1757056 1.280886 0.4310769 -0.12794654 -0.86197454 -0.65610796 -0.07040917 -1.0090407 -3.1862867 -0.60553485 0.2550087 -0.16900195 -0.75746536 -1.2346483 1.0910268 -0.7242679 1.0420303 -0.19313413 0.33795196 -2.1992488 -0.57866144 -0.6856973 1.4082792 -1.3988883 0.880924 2.0506036 0.03473834 2.1428585 0.33984494 -2.6402123 0.005713355 1.5271479 -1.3890599 -1.0001442 -1.0867156 -0.9215426 -0.3454176 -2.1687963 0.3805854 0.8512481
black 1.4485348 2.1744926 0.5415188 0.49388847 1.0991545 -1.0044768 -1.8802574 0.26182345 -0.42799255 3.8110948 0.64339054 1.6678813 0.3112212 -0.44410732 0.53439325 0.916148 -0.5343467 -0.009240222 -3.0251772 -1.7980133 -0.4407616 -0.31468606 -0.21950592 -1.1645361 1.1500685 -0.33018577 1.0779182 0.0877989 -0.86256224 -0.19418482 0.38048297 -0.19590518 -0.2146223 -0.7067916 -1.0411536 0.63210094 0.10418694 1.050146 -0.37114665 -0.58499676 -2.242016 0.123326175 -2.0944376 -0.2157417 -1.4714351 -1.9663465 -0.66187245 -2.848842 -0.2797806 2.0730283
is 2.231881 0.5886797 -0.8786586 -0.9902534 -1.4763167 -1.0027168 0.3419608 0.9613871 -1.6810948 0.710234 0.88494974 0.4495976 2.6825616 1.8326695 -0.50691044 0.44962546 -1.2833756 0.7315799 -1.4820652 -1.6800759 -0.016562225 2.4917204 1.0671674 1.0355697 -0.12908903 -2.095209 1.2146677 0.7555718 1.7027718 -1.4522531 -0.0101570375 0.58268225 1.3444725 -0.6532199 0.9364392 2.0972803 -2.610294 0.9109767 0.15226658 1.0774977 0.3013397 0.7070667 -0.6272801 1.0138041 1.5085667 -0.9680859 1.9778141 -1.3540531 -1.337033 0.8113781
wearing 0.050581407 -0.27154508 0.19202146 -0.57056344 1.04136 0.41181913 -2.089623 3.2135754 0.39736342 0.66893923 0.4063859 -0.010979244 -0.5390282 1.305612 0.6968915 1.8468647 -1.9444793 0.7829294 -1.33487 -2.2595022 0.41948038 -0.57789373 -0.23279464 0.4360294 2.5550277 2.796995 0.44750082 1.3752398 -0.43558326 -3.953756 -0.33994675 -0.06350222 1.4723581 -0.29119533 -0.5871336 0.767917 0.31134075 1.8326912 -0.17848493 -2.636372 0.33669424 1.1112901 -1.6649102 -0.8920077 0.28145778 -2.9580574 -0.9122528 -1.6183203 1.9385281 0.99286044
shirt -1.6264712 1.0348749 -2.0430114 -3.3588605 -0.33822778 -1.9989337 -3.9777405 1.0446715 2.7775886 0.45638713 0.33701134 3.0998464 -0.44472623 -1.4983801 -1.5655925 -1.8307463 -0.56929827 0.49690017 -3.875222 -2.6048033 1.861446 0.067296274 -3.670898 -0.9117235 -1.6433067 0.024309592 1.6104331 0.2192905 1.0120075 -0.44937548 0.19807899 0.7605892 -0.30308196 -1.3834617 2.2448363 0.79321885 1.6559021 1.0057384 0.3562404 -0.13324255 2.370931 1.9006275 -0.015858525 0.79285187 0.2894024 -2.386321 -0.49326766 -2.390967 1.002359 1.3101536
the -0.086688615 -2.9890387 0.0047732857 -0.45195386 -0.058391202 -1.6053334 1.4639356 -0.6834098 2.280379 1.3669503 -1.1503117 -1.6884744 -0.5445728 -0.033837017 1.0737702 0.6505037 -1.5350941 0.24406701 -2.0423293 0.98509765 -0.79423535 0.21408862 -1.0775955 -0.6799622 -0.22576687 -0.63561094 2.0049274 -4.2285385 -0.8061691 -0.7099192 -0.221006 -0.3933507 -0.7909463 -4.3237624 1.2474276 -0.2828298 0.4462102 0.62611365 0.0032216748 -0.27500695 0.18861559 1.6219536 -1.1815708 -1.2695212 -0.4968236 -0.7113047 0.27582473 -0.54374975 0.33012882 1.2169906
white 0.5533411 0.98516595 0.23112184 -0.5867825 0.8964956 -0.10447944 -1.6560003 -0.48686025 -0.01729845 4.3077445 -1.0061159 1.293594 0.008135456 -0.4062509 -0.35905108 0.77423316 0.18170756 0.7602994 -2.6803036 -1.1490794 1.0218887 -0.12017959 0.60069376 -0.13686077 1.0413275 -0.12549907 1.4820741 0.6587735 -0.1329435 0.26747134 0.20014292 -0.7221852 0.55819994 -0.7260247 -0.70801276 -0.20986655 0.15979855 1.1292566 -0.89801544 -0.7342417 -1.118498 0.5664914 -3.0277426 -0.4347782 -0.33859438 -1.9394164 -1.0202917 -3.3443317 -0.5169085 2.5344863
with 1.1545596 -1.0869725 0.38853917 -0.7732908 -1.905084 0.13026062 -0.78066325 -0.5581505 0.086502075 3.4979136 -2.3203185 -0.5572895 0.78848225 -0.7100365 -0.53113985 -0.91473943 -2.1472685 -0.011330603 -2.0086927 -1.7716266 1.3576751 0.6134272 -0.41347054 -0.69042957 0.84343326 -0.43508774 1.0144233 -0.410592 -0.29096934 -2.6001093 0.67240405 -0.9928691 -1.5699553 -1.0297198 -1.0636804 1.4512527 -0.42274293 2.0494218 1.5088776 -2.7884724 -0.14182027 1.2074013 -1.1506308 0.33778554 -0.6041171 0.6572027 1.1183873 -0.89963037 -0.14831685 -0.88576096
shoes -0.8973067 1.2821416 2.4295444 -1.2182791 2.6375508 2.8425877 -2.335169 1.009824 0.07636982 -0.5004456 0.7884999 0.5489028 0.8728153 -1.8886447 -2.785565 0.024670232 -0.87953866 1.1661361 -3.359937 -0.9866216 2.3298194 0.41982758 -3.3034747 -2.3814266 0.54250354 -1.7054647 -2.652097 0.7446933 0.8925191 -2.666653 -0.58603746 -2.1966636 1.8715192 -0.23728223 1.8055127 1.2384408 1.1063393 4.320353 -1.3582122 -0.7094198 -0.23635066 -1.1912225 -4.268783 -0.92788976 0.39159608 -3.72681 0.7847799 -3.3593264 -1.4199964 2.300225
man 0.71150285 4.273561 0.12289829 -2.7093456 0.30637223 -0.23420803 -1.6980131 -0.4806022 1.5243726 1.7187233 0.782493 0.57855403 -2.7597985 -0.20249827 -2.0762463 2.2799323 -0.0260914 -1.346783 -1.4348278 -0.9357584 -0.8918148 0.53010315 -0.0734659 3.9205563 -2.89309 -2.8809571 -2.3336601 -1.2749138 -1.0525975 -2.5712779 3.4524255 -0.24401817 0.8909904 -1.7948191 -1.0731778 -0.11257145 1.35788 0.27242908 0.51058817 -4.0546193 1.4766346 0.19580998 1.9647506 -0.9007337 -1.2903477 -4.278796 0.2094987 -1.5528069 0.318335 0.49031147
of -3.2308748 2.6915658 0.887255 0.3170628 1.76731 1.2797985 -0.5492117 -3.061209 -2.9261997 -0.0015190772 -1.5786705 -0.36521158 -2.4144006 -2.0286 2.4779022 -0.6015051 1.4957321 1.9950944 -1.0783557 1.4817547 1.6192203 -0.4242047 -2.678605 0.23322067 0.30728415 -0.22249332 1.0777802 2.8560836 0.026196428 -0.609869 2.4351459 -1.6082754 0.29651067 -0.5801008 -1.9665887 2.7078533 0.46375504 0.7319633 0.5760177 -1.7566354 0.62055606 1.1991745 -3.8054948 2.5010276 -0.77735484 -3.2460887 1.6484407 -0.4952275 1.8509032 -0.13972078
has 0.5958654 1.1426451 0.11054085 -1.8007463 -2.509868 0.39219996 -0.4788765 0.42922318 0.5449951 1.9467616 -0.57647526 -0.019842155 2.3686361 2.5767992 -0.58746165 -0.67174006 -3.3374436 -0.54702836 0.064125866 -2.1241736 0.10893566 -0.31721798 -0.2775707 -1.2805157 1.4331564 -1.4783528 2.0212095 3.2070248 -0.73096645 -2.8964229 -2.1424575 1.9496753 -2.4306517 0.18518507 0.21037954 1.6029582 -1.8861119 2.3999686 3.2387068 0.66541076 -0.655357 -0.8596806 0.47038937 0.0023866242 -1.2296815 -1.0023034 1.7026036 -0.46114826 -0.7735071 0.4280701
pants 0.22645779 1.5230911 1.5387453 -0.9650893 0.69666535 0.16702208 1.0415556 0.78123057 -0.18121186 -1.5740474 -0.4235793 -1.067764 1.5152018 0.0716016 -4.919974 -0.16357763 -0.7903729 2.1364963 -1.7462282 -2.1941173 -1.7186239 0.7403366 5.5588408 -2.5165145 0.15057245 -0.45414364 2.578547 0.671638 -0.3058588 -2.995584 -1.2761955 0.65903574 -0.6138899 -2.6523643 -2.3480337 -0.913748 2.5276377 -3.687034 2.1118047 -3.4998064 1.8428644 1.1048886 -1.0249059 -0.67715627 1.783311 -1.3338116 -1.7758627 -1.5768195 -1.3085622 1.2765126
he -1.3409816 3.21488 1.9697624 -2.2419002 0.79158354 -2.3276217 -0.75507987 1.1827668 2.2149875 1.0531249 -0.2634351 -0.006514359 -0.4679333 -0.5428563 -2.8792791 0.970893 0.23590511 -4.0644546 -0.967647 -0.9218283 -0.5101237 1.3624856 0.33954558 2.3036625 -1.0431736 -2.2444913 2.1866925 -4.9917727 -0.06931283 -3.5692873 1.8723347 -2.4366963 -2.276221 -2.2092338 0.35055834 1.0919337 -1.4099838 1.4191022 -1.4683255 -2.1190665 -1.4660138 1.3498722 0.8839764 -0.26034316 -1.505214 -3.5749125 -2.8243866 -1.1768111 0.90370375 0.31369278
pair -4.9419355 0.82868344 0.35860348 -2.6585438 3.782264 1.4478563 -0.75267226 -1.3386285 -3.517701 0.04520768 0.9821379 0.24497706 -1.9097674 -0.39921016 0.61187196 -0.42274597 0.80437326 1.9826031 -5.190072 3.457413 1.46763 -0.9107108 -3.8974378 1.7578017 1.8681111 -0.023930242 1.9304361 4.565737 -0.5234467 0.8208056 1.8367647 0.13352183 2.1925542 -1.6302893 -1.1513345 -0.5010023 2.056129 1.9689673 -0.46944624 -3.886811 -0.42643324 2.9159687 -2.2348526 1.0987501 -1.6074291 -5.0266476 2.1863077 -1.9468174 -2.154607 -0.36070848
dark 1.426911 2.268181 -0.40141967 0.12973943 -1.1705025 -0.31817204 -1.7011467 1.8642331 -0.24573645 2.7356327 0.265451 -0.56010807 0.661885 1.543285 -0.2325078 -0.009104781 -2.7890315 -0.98957336 -2.0763097 -1.1192366 0.22404468 -0.49669608 0.97065246 -0.61804503 0.6442688 -0.8177456 -0.013162183 -1.1561131 -0.09960645 0.15132497 0.40001234 0.080815874 -1.1763642 -0.58265805 -1.3421873 1.6332144 0.69440067 1.0860728 -1.0410314 0.35672954 -0.8551503 1.2072458 -0.75268364 -0.15080498 -0.09587849 -2.7167032 0.27663532 -2.1386547 1.1166197 1.5066379
she 1.7580352 -1.084403 1.7141483 -0.33068255 0.17629471 -0.29367718 0.21870442 0.6419403 1.0235945 1.0579404 -1.1249263 -1.0554276 0.83644223 -1.8744668 0.43174937 0.17727035 1.7315909 -4.373935 -3.0731661 -2.6954415 0.9990132 0.4089019 2.7347286 -3.1616235 -0.529288 1.1060282 0.96900314 -0.74832684 0.2350521 0.693777 -2.102916 0.3532271 2.2236788 -4.022083 -0.53832436 2.0150976 -2.4004905 2.3428736 -3.7557657 1.2089492 -0.34420136 1.3568501 -0.43251914 -0.6037801 -2.7324867 -1.3726549 -0.6465297 -0.17079595 -0.1993315 -2.9080942
woman 3.0285525 1.0669086 0.051202495 -1.914025 0.46537474 1.9366122 -1.1292439 -0.8209241 -0.2009977 1.8458521 -0.36908418 -0.79244745 -2.1906013 -1.0370983 1.2636 2.0475733 0.76812774 -1.117259 -2.7692788 -2.4292216 0.0840479 -0.73913264 2.1620526 -0.35189176 -2.5351553 -0.25004435 -3.280427 1.4272108 -0.7122551 0.6434964 0.876486 2.2150195 4.791541 -2.4812465 -2.4886653 1.1181517 0.7396722 0.6767407 -1.5691956 -1.5696999 2.9193547 -0.18878452 1.2454544 -0.9988421 -2.5343976 -2.3140378 2.8941565 -0.5998385 -0.8668065 -2.3176699
blue 0.52944595 0.52986336 -0.42638856 -2.355918 1.3348814 0.4627344 -1.5694008 0.2766932 -1.240229 3.2270253 0.0018031115 0.16917989 0.34309247 0.16084716 -0.755195 0.6380913 0.6570495 0.9181226 -3.063251 -0.3119688 2.878582 0.6665865 -0.6406399 0.6556626 -0.113367185 0.7413856 2.006283 -0.27390462 -1.9525441 -0.75639296 0.12592673 -1.9451116 2.0548134 -0.9528464 0.5338174 1.566385 -1.0337195 -0.07644547 0.77754825 -0.6585681 0.8765588 0.08232134 -2.4224782 -1.9014872 -0.6696507 -2.5146399 -2.4597723 -3.0188587 0.14616834 1.054301
hair -2.4161136 -2.2360325 1.3231118 -3.8068993 1.5610178 -3.57332 -1.4463131 5.254153 -0.7638324 -0.75895447 -1.0102425 -1.6365125 1.0080932 1.8282913 -1.4661509 2.1256158 -0.54804546 -0.27074713 -1.8614974 -1.9387969 -0.12975311 0.36396658 2.821359 -0.64252883 0.28744859 -2.031215 0.17972106 -1.0103185 -2.978034 1.9781626 -2.5389864 3.1906781 3.2121537 0.97676325 2.2744234 0.19981918 0.740243 -0.13217203 -1.5079641 -1.3018086 -1.242131 -0.4448403 2.6233153 0.22284888 0.014857559 -0.86237687 2.7238681 0.69581395 0.71068525 1.0196443
on 0.91386294 -0.7633535 -0.8642329 1.7873831 -0.12906307 -1.0431442 -0.35518676 0.79545885 -2.8383977 -1.7724712 0.5614806 1.2766554 -0.044297177 -0.0049831024 0.6146181 -0.28835127 1.7927275 0.98770666 0.46317524 -2.4734168 0.92458725 3.4634588 -0.075677045 -0.5721292 1.1808746 -1.7461288 1.4687693 -0.7670102 -0.26339987 -0.57264614 0.071250886 1.2471367 0.51528203 1.492585 0.2400375 1.5206035 1.6415224 0.8795604 -2.2220588 -1.7676336 -2.0065932 2.3274508 -4.615505 -0.4112039 -0.7698 -0.06766496 -1.5537091 -2.3747199 1.9271961 2.7412713
short 3.0349138 1.4944664 -0.9754807 0.6540067 -1.1106851 -1.0185965 1.0693488 -0.76462024 0.55841875 -0.26806143 -0.3938325 0.26152143 0.37695944 2.1166215 -1.3355012 0.3298065 -2.1727931 1.0083288 -3.132536 -3.1589134 0.48197433 0.45600083 0.91773456 -1.9618193 -2.1367612 0.18986942 -0.05028914 -1.8847703 0.3857037 -1.835999 2.2550194 -0.26101482 0.90703017 0.6548379 0.6113717 -2.795492 -0.6956188 5.0487976 2.2609913 0.088055946 2.2946131 1.590447 1.2632667 0.20671612 -0.55569106 -4.658555 -1.265552 -3.7330692 1.2488171 1.5548452
her -1.2189109 -0.13219683 -1.7253617 2.541335 0.8221992 2.2162087 1.7936176 -5.274636 1.7029456 -0.3508359 -1.1556728 0.8262453 -0.4773923 0.8472143 0.9476553 -0.76647985 -0.78705746 -4.570674 -1.2468721 0.14765073 -1.102131 -2.1545203 2.687883 -3.6918807 0.29341176 3.0650003 1.9455135 -0.53896147 1.0665025 1.781163 -4.905945 0.5430789 2.3485346 -2.9211001 0.6508017 3.1002212 -0.054001596 0.95102644 -0.011034092 3.7991097 -0.6433731 -1.5675232 -3.500421 -2.7023962 -1.9169914 0.2607316 0.95899755 0.9182364 -1.63597 -0.48611644
shorts -0.4690784 1.4390739 0.2283043 -2.7454998 -0.53663445 -0.42753282 2.62471 0.72085166 0.3500703 -0.5473883 -1.4717252 -1.2368145 0.6352184 -0.31939146 -5.506473 0.21265885 0.1732204 2.2840075 1.7127151 -0.7968767 0.76386744 1.212424 3.0139053 -4.514608 0.5778478 -0.38774973 2.957583 0.2184466 1.463215 -2.0384185 0.13632564 1.176914 0.7093767 -3.399436 -1.9321692 -1.8403448 2.5807714 -4.02922 3.860101 -3.5815098 1.7455537 2.6648984 -0.45043963 -0.32347733 2.4850018 -3.163432 -3.852593 -1.1973982 -1.2771809 1.7246659
in -0.5546526 0.40519172 -0.565403 2.077507 1.3162687 1.9670705 -0.43802515 -0.19091892 -1.636866 0.1082761 0.95508647 0.8357724 -0.774446 -1.8088156 2.5703747 0.6440884 -0.36215276 -0.98890334 0.46376482 1.4736912 0.7989724 4.4868026 1.3709397 -1.7102755 -1.1813178 2.7077456 1.2907678 -0.20985626 0.32802206 -2.1865463 -1.3795191 -3.0553079 -0.6801864 2.721581 -1.2372619 1.3902229 -1.3410176 -0.2778858 -2.5675862 -2.028303 3.2657416 2.7386708 -0.46292743 2.1572218 -2.034454 1.8048593 1.2732815 -0.86005557 -1.5881621 1.3435794
his -4.8410473 3.588156 -1.117905 1.4576653 1.4968135 -0.46349606 0.8212072 -4.543482 2.9076788 -0.29034185 -0.23954816 2.342011 -1.2917199 1.5884647 -2.841985 -0.05592369 -1.8982327 -4.423579 0.8658792 2.2456715 -2.415078 -0.951443 -0.32772693 2.2384481 0.49424693 -0.7630011 3.3438144 -4.831914 0.61238915 -2.3245087 -0.8743312 -2.7355626 -1.5382227 -0.2835378 1.5565445 2.71972 0.49140698 0.15002288 1.4671171 0.4602017 -2.1516032 -2.0642827 -1.8423344 -2.4542315 0.25238967 -1.6893018 -1.3230683 -0.9324032 -0.3658243 3.1554987
carrying -0.31487945 -1.3509941 -2.3742845 -1.3515937 1.8127805 1.5971091 -0.45335823 2.659205 0.08316453 0.13042264 1.1470755 3.0912297 4.430974 1.5400915 0.57654536 -0.19157659 0.20237681 -1.7157676 1.1819823 -0.27191007 -0.09387193 0.18586177 0.91694826 -0.4277465 0.960467 0.3575029 1.7033045 6.3521266 0.3427086 -0.9238906 -3.4698865 -0.8072883 -3.4077773 -0.3621184 -0.74241716 1.0953809 -0.27025768 5.175609 1.6300335 -0.2777312 -1.7144978 -0.88829696 0.7651751 -1.3028218 -0.4825623 -3.3004909 -3.1800537 -0.44098532 3.3081942 0.94591826
bag -0.07810966 1.5895473 -1.551656 2.9633026 1.6792983 1.3159211 0.3877783 3.7351027 1.9279894 2.4545333 0.96415246 2.0601306 1.0953563 -1.9505703 -3.6736598 -2.7635033 5.021246 -0.63112354 0.028690021 0.06420041 -0.94554347 0.8324615 0.4059538 -1.3606305 2.7742133 0.6262761 5.438634 -2.281354 -2.7772396 -1.3951077 -0.2097828 1.1008991 3.5827742 -0.51785195 0.47652987 1.2519505 -1.6037722 2.1996741 -0.11898686 1.2793857 1.4129629 -1.5561079 -2.1227484 4.532354 2.7772205 -0.47405565 1.2754514 -2.4128096 1.4760102 0.7333253
long 4.2301 0.9332331 -0.04783066 2.9378273 -0.9046819 0.035347965 0.66947377 -1.1801302 0.9658548 -0.6875941 -0.5928674 0.09165872 1.5419676 1.7050829 -0.29139817 -0.13911286 -2.7639692 1.3779813 -4.9740777 -2.7244055 -0.21949662 -0.41859332 2.3140984 -1.7815429 -1.8477501 -0.501206 -0.014712159 -0.84980655 -0.9701313 -0.7797704 0.56544137 -0.2638591 1.5218884 -1.1060365 -0.3716859 -1.9164779 -0.30348742 4.3620596 0.2558091 0.8169118 1.7165889 1.6395291 -0.12809585 -0.13447125 -1.5951002 -3.2047737 -0.35381922 -2.0532594 2.1874535 0.5642052
gray -0.59216994 2.142702 -0.39765316 -0.43713915 2.1555018 0.6510789 -1.3906394 -0.53848016 -1.2885188 3.1089916 -0.87175477 1.599383 -0.6626421 -0.39135057 0.1805794 0.13108021 -1.718806 0.93118006 -3.8888452 -0.116806634 -0.03533015 -1.2494758 -0.6144637 -0.12030573 0.3504819 -0.7041396 0.3041982 -0.3514881 -1.8343781 -0.1037098 1.181552 -1.0133739 0.012466262 0.3707629 -0.6593978 0.3520855 0.6660289 0.24108164 -0.21465711 -0.85860145 -0.7526057 0.08452209 -2.7001395 -0.24347933 -0.13301109 -2.5603776 -1.7214023 -2.5434165 -0.7496221 0.7953774
brown 1.9679345 3.2033126 -0.06596964 0.069728285 0.78904265 -0.44983333 -0.7146927 1.3201853 -1.2626667 1.6496053 0.55472463 0.51806235 0.5901476 0.42009065 1.2200868 0.5135773 0.33455566 -0.97727156 -3.7200801 -0.26014626 0.005189843 -0.33997485 -0.58779055 -0.583145 0.35808042 1.04677 1.3899267 -0.14016522 -1.7543969 0.24561907 -1.1963757 -0.100502 -0.301698 -0.23870789 -0.53084785 1.1806434 0.476907 0.4704596 0.5148018 -0.53433424 0.07181338 0.46627465 -2.52545 -0.63026124 -0.6279909 -2.4965744 -0.23187202 -2.147466 -0.5839264 0.49660096
red 1.5743229 0.25874242 0.34718624 -0.6822266 1.0348346 -0.07227109 -1.665225 -0.62830526 -0.7849321 3.2667623 -0.6693584 1.7322462 0.44379663 -0.27103028 0.32012886 0.49784306 0.28281438 0.38871604 -2.046069 -1.0959582 -0.15010163 0.7637531 0.43084753 -0.4949464 0.5917139 0.15506823 1.7760675 0.4046154 -1.1617345 0.36223608 -0.41935432 -0.6357998 0.7647937 -0.57818484 -0.29068008 -0.06295428 -0.5119889 0.70238036 -0.29878455 -0.30560473 -1.3922064 -0.21512283 -2.443095 -0.5147457 -0.39678144 -1.6497533 -1.2590503 -2.3103101 -0.29612947 1.9598477
jeans -0.9264268 1.5061275 1.0322101 1.5928819 -2.3399634 0.76929104 0.28681788 0.47082224 0.88769245 -1.1641171 -0.0013827382 -0.43907288 -0.8983759 -0.33758888 -3.7591822 -2.234775 -1.1756445 0.6644317 -2.1383746 -1.5097635 -3.578591 1.1314836 6.8274903 -3.5575738 0.74173677 0.0875934 0.7207474 2.8002985 -1.5057917 -1.1806377 -0.14968787 1.0960532 -2.571268 -3.2265806 0.815708 -0.6128418 1.0280275 -4.6633177 1.2447067 -5.196704 -0.6927374 2.3750653 -0.6798035 -0.0076360535 3.4580092 -4.395331 -1.9371445 -1.1576087 -0.68865925 2.3844378
jacket 0.8141699 1.8374467 -1.5635798 0.35847142 4.9263077 0.2516907 -2.4413416 0.7554926 1.8284833 -0.6856007 -0.5882138 -0.0032111122 -1.6175805 1.35939 -4.508038 -1.5114936 0.10759303 0.4127175 -2.8174474 -1.2339225 2.3520162 0.6164546 -1.810307 -0.16453128 -0.74200296 -0.6296776 2.1481 1.9434795 0.2160092 -0.9662376 -0.4805024 -0.98778516 -1.074049 -2.0329995 0.91411006 1.2864888 0.4283466 -0.8786326 -0.3669575 0.3898756 0.058272943 0.9193828 0.2557947 0.18786559 -1.5546662 -0.7154916 3.10677 -2.3490164 1.82653 -0.09914649
shoulder 0.46999133 4.4533496 -1.4848304 -0.5389638 3.0241518 0.15537372 1.3327695 2.0821748 2.0711493 0.552135 -1.6960427 1.8427191 2.1664553 1.0177202 -3.6655293 -3.8302546 1.0014694 -2.8910294 1.8959316 2.055367 -3.9531636 1.0096259 -1.032308 -5.529906 -4.5606127 0.71297324 2.7183435 2.119214 -3.9829888 0.5808667 -2.3423457 0.3525104 0.9774803 0.15544741 -1.2047707 1.1463022 -4.3708696 1.8667786 -0.22303307 1.4185122 -3.3513017 2.982903 -2.231722 -0.61493367 -0.10513577 2.2078633 0.94983083 -2.0732265 -1.2511263 -1.4797417
grey 1.9653773 0.10112355 0.37903443 -0.39905265 -0.09751242 -1.8697892 -1.4595958 2.281068 -0.03663775 3.3474934 0.17720506 0.97160304 1.5237176 0.4521569 -1.3265924 0.53420997 -0.66509706 -0.3477182 -3.117341 -2.7294166 0.07300824 1.4946437 0.6838546 1.5465202 1.3686311 -0.335402 0.5922 -0.006894799 -2.1381798 -0.67647 0.6461869 -1.1406806 -0.92687434 -1.6344639 -0.2347233 0.41812128 -1.3984797 0.6027222 -0.49634913 0.11501004 -1.1430086 -0.19797198 -2.2083106 -0.915037 -0.73966795 -3.085216 -0.88414824 -1.9977959 0.7894222 2.562103
wears -1.7512228 -0.9978447 -0.62527895 1.9178686 -0.090199016 -2.3981557 -1.7935307 1.8710096 -0.13665314 0.93672 0.24847631 2.9214687 3.0853531 -0.6359499 -1.0027436 -0.79173106 -2.9389799 0.7391517 0.24808913 -1.7253301 1.809774 0.39229324 0.82189393 1.5355513 3.2372103 1.5762243 -1.8201338 0.035502452 -0.81000316 -2.43995 1.2259386 1.2119048 1.8353846 0.38945806 0.0157821 -0.32125825 0.29354256 0.3118226 3.8271527 -1.7114097 -1.1063045 1.6898746 -5.20087 -0.34939697 -1.9374682 0.5754234 0.76481575 -1.6194834 0.029994043 -1.8060184
over 0.91084516 -0.45136744 -3.10224 0.31826878 -0.6351966 1.9222747 -0.67729986 0.7290499 -2.8458056 -1.0549127 0.6605645 1.7621078 3.5949636 -1.1188592 0.935509 -2.1302984 1.4951284 1.0968082 -0.77155215 -2.5760422 -0.36754766 -0.9006768 1.7549422 -1.361748 0.9067058 -3.0535603 -0.9983342 -1.4889812 -4.211012 -1.2758789 -2.049996 -2.147292 1.4648125 2.6288648 -0.9466682 1.3803324 1.6598911 0.9702615 -1.5432388 -3.164784 -2.8794627 2.269365 -2.886746 1.4872516 -1.0619622 1.8317789 -1.2747539 -1.2376758 0.12639661 -0.22119348
light 0.6486068 1.2192205 -0.9705216 0.15652752 -1.5011133 -0.2801384 -2.0229335 1.9511348 0.10438397 2.0023794 -0.9479643 -1.5217615 2.1654413 0.8257064 -1.4792206 -0.8064975 -1.772161 -1.5752003 -1.1686289 0.33031693 1.6451787 -1.6330522 2.5196114 -0.28954965 0.578226 -0.25286976 -0.5464488 -0.33889365 1.6780765 0.23393245 -0.19667454 -0.30600014 -0.010288363 -0.95001566 -0.5645152 2.191773 1.7259822 1.8496134 -1.4639452 -0.04663318 -0.22437489 2.38763 -0.85581106 0.32432818 1.0568728 -3.2499046 0.42317253 -2.3129327 1.1086332 1.7201992
backpack -0.34835815 -0.21273008 -0.54049706 -0.25072065 1.2596473 -0.03819214 0.64895946 2.2905087 1.6895728 2.2900615 -1.3669482 2.9298224 0.8148093 -1.7705258 -5.7883773 -2.4133215 1.662638 0.67947316 0.38348815 -0.1323802 -1.056917 1.1810673 0.31571767 -1.2229403 3.1307776 -1.3410825 2.4969988 -3.521038 -2.5617144 -1.6749448 1.0255679 1.4395176 0.567875 0.9933546 -0.83317137 0.5223718 -3.508309 1.5521706 -2.005938 1.1359873 1.4401128 2.5517826 -0.23786114 1.4977982 0.97802275 -2.8273818 1.9377203 -0.95870984 1.2941992 2.525894
back -0.45177552 3.0155718 2.0781536 0.15944597 1.4996115 3.3963668 -4.492398 1.7318437 1.2932806 2.3411245 -1.0102936 -2.447078 2.1572535 1.1177061 -0.065447584 -3.5145714 -0.07639795 1.2934927 -0.29259592 -0.15200068 -3.2382784 0.32726076 -1.2359123 -2.7089674 -2.6438093 -0.7669278 1.9890019 -0.7060649 -0.76191163 0.49789178 2.1181238 1.1369492 2.5884237 0.5300186 0.67239887 -0.15204483 0.27436662 0.48791465 2.6699734 2.0313897 -2.3785338 0.5262967 0.7790868 2.4833848 -1.7697722 0.9791472 -2.1236167 2.6873279 -1.1162295 1.2873449
also 2.8128402 -1.4434903 0.120443955 -0.014733936 -0.85985255 -1.458001 -1.9477648 0.48868755 -1.3778312 0.9256603 -0.51016855 0.64389694 0.09932632 2.9484067 -1.662352 -0.7612669 3.1593676 -1.1344959 -0.4315584 -1.6709099 -0.6691404 0.16588786 -1.3032316 -1.3382303 2.0793421 -1.0317258 0.9490818 1.1160904 -1.1194541 -1.1003393 -3.1702573 0.02123237 -0.28142944 0.3149237 -0.3864599 2.5567293 0.010127266 1.2170385 2.265687 -0.14783502 -0.48324484 -0.5690581 0.6124886 0.54162616 -0.23870537 -2.7075765 1.4029169 -1.6558678 2.1431837 4.2667093
coloured 3.1145186 0.5484699 0.2373415 -2.3567226 0.650157 -0.2963849 0.68073046 3.5079367 -2.6300976 0.4563604 -1.6788597 -0.02966358 0.21889995 2.8802683 -0.16093035 -0.97823155 -2.494329 -1.1583984 -4.6641793 -2.0386448 1.5032426 2.1093507 -0.09409382 0.4297972 -0.23513766 0.42385218 0.18450402 -1.060052 -3.9579992 -1.9091195 -1.1325936 0.36026603 -1.1777859 -0.24435443 -0.45662016 1.902096 -1.5091542 0.1993055 0.53024197 1.480624 1.3753498 -1.8198562 -3.1775124 -0.43233934 0.23032932 -1.9373988 -2.412418 -1.5568475 0.3575136 0.9768585
right 0.92441934 -0.8894223 4.787422 1.9385958 1.3457905 1.3824612 -0.16045018 0.24222009 0.0034686637 0.58792967 2.2054276 3.69901 2.2108276 -0.17776181 -2.238922 -0.34236532 0.7797391 -2.5464525 1.3085552 5.3880515 -1.3984312 -1.5146194 0.1245019 -3.0679767 -0.44919983 -3.5665557 3.6460881 0.5129707 -0.63456833 2.3245037 1.0559639 1.6763399 -0.3666684 1.7606424 3.6785655 1.3532884 2.6067712 -0.7292698 1.0355699 3.8859391 1.1367816 -1.8996272 -0.67878747 2.793498 -0.75219446 2.0312042 -2.9183316 -1.9787943 0.1882361 -2.6361866
pink 1.7269949 -0.65536153 -0.034520224 -1.0701916 0.99416405 0.52667797 -1.132011 -0.56186414 -1.3079553 2.864162 -1.0152967 1.3704566 -0.8463496 -0.7887609 1.1985695 0.92129487 0.9818475 -0.16231678 -3.16496 -1.3492934 0.9495603 0.42677003 1.238527 -1.3249489 0.057062257 1.9808526 0.6277813 1.0933627 -0.76340556 1.0807042 -1.5709357 -0.1442047 2.0122883 -0.7836667 -0.44700918 0.6553117 -0.66007674 0.66066915 -0.14807902 0.68664855 0.024264237 -0.15971978 -3.237582 -0.450825 -0.5311823 -1.9699926 -1.2466593 -1.8943303 -1.5459797 0.7042106
this 0.08134438 -3.1356275 0.052828245 -1.556894 0.21319593 -2.1244924 0.1276413 1.4588352 1.6203637 1.397542 1.8239199 -2.5184424 -0.75082225 1.3843812 1.6446487 1.5912822 -3.2463508 0.354015 -2.3140059 0.07866927 -2.2837844 0.0726023 -1.4631255 -1.258423 -1.0733684 -1.7106237 1.5553234 -5.1428857 -0.48696882 -0.8012238 -1.7661299 2.2324204 0.36731753 -2.9289615 -0.5447614 -3.2139578 -1.0899825 1.6133496 -0.68009263 -1.721354 1.202125 2.0169525 4.59874 0.017267797 0.6920419 -2.7107022 0.84824413 -2.45449 0.324592 -0.5156305
hand -3.0318916 3.4811459 0.6831394 0.31509387 1.7108642 -0.39831686 2.5859888 2.0398722 -1.6669073 0.5282014 3.4101467 4.4895377 0.25547284 -0.5578203 0.43017396 -4.8697042 4.020213 -1.7274996 3.2550774 0.41080493 -2.5495062 1.931104 0.20415428 -1.3255044 -5.3836875 -4.725088 1.3551031 -0.5018077 0.25829503 3.135728 -6.1993747 -2.3865461 1.5244431 0.5631588 -0.99105185 -4.1142845 -3.2617464 2.3259184 0.64551675 0.1695351 -2.4571395 0.86033505 -3.5403905 -0.9405056 2.8424819 3.4133506 -0.07582381 0.4422996 3.0563035 -0.31048954
walking 0.73524654 0.05828733 0.26898685 -1.4147005 -0.21447323 3.0703738 2.345908 2.1633604 2.5671577 -0.83331215 1.4978069 0.6892362 0.6592864 2.2623644 2.4957306 -0.43791288 0.9366791 0.011194307 2.9818242 3.8325753 -3.906311 -1.2017382 -1.6437788 2.3044512 1.1034337 0.042019866 -0.8099414 -0.05687888 0.035837915 0.7679344 -4.0632005 -1.9365096 1.0482137 -4.2161555 -1.1979816 -1.4773208 -1.6195502 -1.7359769 0.35768026 3.0927918 -1.0094675 -0.34283194 -0.022754254 1.240958 -0.7657727 -2.827849 -0.5760076 -2.2652957 3.4885542 2.5552282
left 0.33691478 -1.0123509 5.6432905 1.6083564 1.0787922 1.1735848 -0.21620753 0.12954955 -0.4223221 0.786289 2.330942 3.3740726 1.5355015 -0.12438025 -2.0456543 -0.55379605 0.87973917 -2.9856248 1.7895378 5.134351 -1.1835394 -1.2009538 0.20878018 -2.6932507 -0.34498668 -3.2989657 3.7008295 0.28290254 -0.359167 2.3085558 1.3763251 1.8828776 -0.772891 1.9942098 3.4359298 1.0402389 2.911342 -0.3647108 0.7413978 4.447979 1.504859 -1.5415208 -1.1012989 2.6252298 0.08961511 2.6517692 -3.1175964 -2.2480876 0.24066772 -2.894648
glasses -0.9976698 3.0548353 0.7665811 -0.64138025 1.1295325 0.39040482 -1.5068192 -0.3024621 -0.48789865 2.9010327 1.5704086 -0.39446834 0.50814545 -1.1433556 -1.05966 1.500263 -0.54156053 -1.4289488 -1.273904 -2.3420959 -1.0521154 0.96357477 0.971612 -1.6090773 -0.75443983 -1.831931 1.3706932 -0.7676614 -1.3831269 -0.16717368 -0.45274362 -0.30229855 -0.67995095 -0.28352064 0.8412827 -1.0260148 -0.44016674 0.46693766 0.7390773 0.53302056 0.8087784 -0.31856936 1.5227835 -0.4214848 -1.4096625 -1.824199 -0.353732 -1.566448 0.062130127 3.1851597
dress 1.9850233 0.07657341 0.39597568 -1.8752891 -0.1990499 -3.0667267 0.42335296 0.60833627 2.0738244 -1.79607 0.5548151 0.44522342 -1.4133192 -0.10532474 -0.10233944 0.8021806 1.0911185 0.51994145 -3.1000602 -3.2361176 0.52391547 -1.8058767 1.2151067 -3.2305222 -0.5546653 1.2415196 0.7033532 1.6400167 1.1389667 -0.13860856 -2.4199505 1.4655161 -1.2170026 -2.446802 -2.1901574 0.6914162 3.5043335 -1.042704 0.90230554 0.21757428 0.40978038 2.4666314 -0.8579424 1.6270193 0.6588726 -0.5783558 2.7786667 1.3150057 -0.774419 -1.7349272
sleeved -1.5182645 -0.6468459 -0.54118437 -4.706811 1.6343012 -1.6748234 -2.5964327 6.168515 -2.6504464 5.1356025 -1.4345257 -2.3881557 -1.0315288 0.40115213 -1.0297683 1.0149658 -0.17906849 -2.7715678 1.9557098 -2.1840882 1.1770664 -1.7262099 -0.09821595 0.88469803 3.910772 -2.1422126 -0.6150446 1.3063802 -1.0778118 -2.3453379 -2.2054431 -0.3527212 -0.7880155 -2.797576 0.111777574 2.9473288 0.17308095 -3.2810729 -0.8460035 -0.59344095 -1.6383544 -0.35939112 -0.78842735 0.035978764 -0.7456385 -0.8536396 3.2368314 -0.07148511 -3.4588602 -0.9167382
top 0.3593463 -1.6359478 0.43724534 -4.389992 -2.4412794 0.7118664 -2.8142846 -0.6785163 3.8601482 -1.8683354 0.52638036 3.3296418 0.47518998 0.19771233 0.4184773 -4.1296954 -1.4678428 0.92456126 -4.363455 -2.5141053 1.8736145 -1.1513684 -2.1131492 -1.3120556 -0.42922047 1.5664942 0.4566809 0.8017133 -0.53453726 0.5621328 0.28631496 2.3184044 0.85504746 -0.9588737 1.0322562 1.5801775 0.37285995 1.3640462 -0.8427573 2.659623 1.2326499 3.6693785 0.6356223 -0.93009967 1.3643872 -1.2279546 0.5771717 -1.8798641 -0.6081161 0.07240009
sneakers -0.36179417 -1.1731266 0.87623686 -1.0668185 0.58975816 -0.99501276 -2.9477239 1.938925 -1.1227038 0.5339484 1.7602535 0.010223275 3.1413417 -2.580595 -1.9080027 -2.7696056 -2.4122307 0.08889232 1.1723434 -1.5087767 2.2516553 1.9007908 -4.5514545 -1.9773519 -0.48127407 -0.5271446 -0.48480472 -0.6239742 -1.6179311 -2.8525295 1.8242043 -3.2532375 2.106397 -0.27994937 1.0941753 0.67977977 1.4909388 1.0899023 -1.1839607 0.18560489 0.25372905 -2.7301974 -2.2361538 -2.670357 -0.47549912 -5.3967566 2.59202 -1.393812 0.0007276984 1.8041822
green 2.1635876 0.66381997 0.09016147 -1.9889101 1.3764033 -0.48308626 -0.949047 0.6595086 -1.5446035 2.262155 -1.3611838 2.4578085 -0.48466587 -1.2123947 0.90970975 0.34878924 -0.68540365 0.24399254 -2.0399091 -0.8580402 0.035828315 1.1407275 0.18013492 0.12314318 -0.28954577 0.34553626 1.073867 -0.56241167 -1.5435803 -0.7290527 0.051747777 0.33919245 0.15143266 0.1902636 -0.3074591 -0.81760305 -0.9204167 0.6631372 0.8497466 -0.4754276 0.13934049 -0.987525 -3.39571 0.41815612 -0.02653076 -2.4420633 -2.4994485 -2.294367 -1.2848043 1.6572372
to -0.36748207 0.10359511 -3.7556098 3.3682153 -1.0785885 -0.22846748 8.5984125 0.378656 -2.0147977 -1.4864312 4.670219 -3.746418 -1.4159187 -0.11493395 -1.3241992 -3.0911505 0.32856843 -0.519166 0.33446008 -3.7530918 0.2706228 -1.6531187 -3.1529381 1.7259747 -2.1153445 1.5628499 1.115903 0.09297593 1.8410194 1.252398 1.0971924 -2.3115196 -0.36909813 3.4236958 0.8041077 -1.9372882 -2.7620347 -0.92158294 -4.5173335 -0.4831773 -3.4130821 1.3359905 0.23843837 -0.8262241 1.6064388 3.2207246 -0.5306296 1.8913536 -1.2253449 0.7246151
sleeve -1.46521 0.23367372 -1.1426246 -4.9558544 1.7052245 -0.96942097 -2.191912 5.1693134 -2.1443138 5.5966306 -0.85672283 -2.4729805 -1.2580801 0.5714796 0.17841771 0.45673415 -0.062333133 -2.1303754 0.91852266 -1.3900068 1.3947246 -1.4334 -0.7193952 0.8490145 3.2715511 -1.8010005 -0.60674584 0.8434857 -0.73796827 -1.7474043 -1.7106488 -0.6809702 -1.2036607 -3.3556323 -0.22820558 2.5297425 0.77716124 -3.0858195 -0.042456757 -1.4275135 -0.8129007 -0.570412 -2.2882333 -0.9418481 -0.623765 0.23656662 4.1573777 -0.10122835 -3.294772 -0.2277851
sandals -0.09704297 0.5822392 0.21799308 -2.4782534 1.6470994 -0.04332041 -1.2160518 0.3101119 -0.25503215 -0.67682874 -0.40312272 -1.0461907 2.8678975 -2.3327026 0.015194626 0.25742254 1.1445239 -1.423724 -0.1354098 -0.28981933 3.4571402 -0.021096187 -4.210297 -3.7566376 -1.4476464 0.94268644 -1.7494472 -0.1538709 0.6117052 -1.6358526 -1.3683497 -0.18922505 2.8186984 1.4435947 3.0217242 0.45655903 1.983526 3.2743392 -0.08878973 -0.2296635 1.7336062 -2.2461221 -4.3530326 -0.75316954 1.1881703 -4.3671103 2.099232 -2.2822673 -2.9926796 2.1273558
skirt 2.3165665 -0.44428945 1.0937483 -1.6052523 1.1887349 -0.54507476 2.4016137 0.5741891 -0.093956254 -0.5134409 -0.566696 -0.9719382 0.525779 -0.67246974 -0.8282688 1.560925 0.4267332 0.839036 -1.5027287 -3.4843369 1.6577779 -0.5542503 4.5468616 -5.858861 1.9118094 0.76972497 1.1212641 2.5896 -0.2334498 -0.7394232 -2.1496377 2.4337707 1.3957815 -4.6685524 -4.8897314 -0.20618866 3.208349 -3.7448897 0.2062962 -2.1097057 0.03799512 2.2893822 -1.1449652 0.24841762 2.127562 -1.6325669 0.9901889 1.9275156 -1.7102255 -2.4286225
person 1.462709 2.139229 -0.77082765 -1.0588909 -0.5365315 0.44833532 -1.435864 -0.00021311549 0.4461503 0.89090425 -1.2626487 -0.5117029 -3.5437853 -0.91768074 -2.4500535 0.7682967 -1.4891157 -0.9758789 0.3396641 -1.245204 -1.6747139 1.1318389 1.2266788 2.6035311 -1.7761871 -0.95347154 -2.2362087 -0.4919319 -0.26151726 -0.1514249 0.36620057 -0.41600764 0.8569682 -1.736399 -1.5542763 0.4605864 0.3670295 0.95495605 -4.09415 -0.31156626 1.3097687 -1.5815394 2.6973658 -0.5778611 -0.6418555 -1.6936586 -0.95031023 -1.4362886 -0.7995519 -2.8347707
yellow 1.2260058 0.18315423 0.11006478 -1.8569659 1.0022944 -0.4465727 -1.495131 -0.68754315 -0.74184936 3.02659 -1.8991473 2.0735612 -0.6536465 -1.0399553 0.7194673 0.4495887 0.9438647 0.97049236 -0.8308768 -0.42140853 0.35179403 1.2294831 0.43173733 -0.13416497 0.092522524 0.86333096 1.3682975 -0.3255634 -0.9310184 -0.14713155 -0.3739371 0.12002898 0.8933131 -0.23527537 0.17232652 -0.51959544 -0.5137776 1.1896532 0.70426446 -0.26235074 -0.95026416 0.27107596 -2.497982 -0.073696785 0.047244094 -2.3901002 -2.1114054 -2.4101312 -1.3286271 1.7599205
that -0.9387409 -1.4870335 -0.8507121 0.75903815 -1.3350464 -1.0785742 0.0807084 -1.1697583 -0.5952914 2.7631187 -3.4368534 -3.9309726 0.3431838 1.3439792 -1.0155702 -0.50632185 0.3134712 1.1088941 -3.304527 -2.8347692 -2.0195954 -2.861486 -0.7256782 -1.9698156 -0.039949726 0.3659699 -1.1261512 -2.065625 1.7547762 -0.56095105 -2.4167347 -1.1418593 1.0729059 1.4627113 2.1544638 1.8341558 2.1567361 2.8305497 -0.9486898 -1.2734368 0.2929337 1.6357831 -0.5267738 -4.6326513 0.14289118 -0.9203708 -1.8651742 2.629459 1.19967 0.12162088
tan 2.1456807 1.4690571 -0.2882091 -0.04881041 -0.3001697 -1.7914698 -0.48726025 2.285133 -0.41774052 1.956789 -0.6682552 1.491072 1.9402188 0.9356395 -0.11609202 -0.19409646 -0.91875976 -1.826897 -2.066117 -0.5866407 -0.30208468 -0.38198656 0.8606101 0.061061792 1.1193382 -0.109279804 0.53695786 -0.24240844 -0.8788525 -0.45057425 -0.45927176 0.13912779 -1.0016893 0.0014784778 -0.5437373 0.8904395 0.4695939 1.8929881 -0.54457337 0.80189955 -1.3567013 0.48524868 -1.573247 0.35994527 0.5149085 -2.4485493 -1.2964596 -2.2149441 -0.958711 1.5009356
purse 1.840991 0.618617 -1.2380553 2.6416476 0.77947766 0.7578786 1.3930893 2.693291 2.1362267 1.2440426 0.40006107 0.05413527 1.0319812 -0.76330745 -2.2908006 -2.0121562 5.0384145 -1.7055457 -1.4246987 -1.7657778 1.0331935 -0.018528536 1.2922256 -3.2742026 2.097991 1.7392042 3.6973102 -0.53904486 -3.1671274 -0.6367601 -1.9770976 2.893788 4.8172975 -2.1867368 -0.9623412 2.3100045 -2.4592857 2.6732404 -1.936726 3.0222046 1.9307845 0.1267288 -1.6408074 3.2238886 2.4939547 -0.6068938 2.648048 -0.3265792 0.28900537 -1.1185973
tennis -0.68793344 -0.4978689 0.49849838 -0.9702903 -0.3590054 -2.6725318 -0.49063328 2.7937887 -2.9245555 2.3894987 1.3061148 2.0310235 1.16438 0.12840581 -1.4067787 -3.0252607 -0.8882884 -0.5823346 0.97638416 -1.6271551 0.029719759 1.6474388 -2.7118595 -0.79171896 0.25427145 1.1995413 3.2957594 -0.2308068 -1.043518 -2.3188567 1.5939218 -1.1723739 1.64514 -0.39955464 -1.2283125 2.0679286 1.8612874 -0.51717323 -0.16352335 1.9573094 0.18158296 -0.2674549 1.395049 -2.5428114 -2.0707667 -4.8687973 0.062066197 -1.5657058 0.9330403 2.662876
length 3.2884626 -0.5903536 -1.7885745 3.9030182 -1.9242743 0.8387757 3.0359132 -0.24029209 -1.8910136 2.228166 2.0557694 -0.13942166 2.880307 -1.2905308 1.48185 1.8521273 0.5071335 -0.29450312 -4.01121 -5.150588 2.9645896 -3.3143091 1.0405746 -1.7464224 6.815184 -0.41600767 -0.49859577 -2.8495102 -1.7699709 -0.2162804 1.0093979 -0.40158322 -0.14985104 -1.6687386 4.4628367 -1.5414418 3.4344382 3.2616622 1.3761364 1.440673 3.7048068 -2.7727916 2.3661551 0.98607755 0.05989124 -3.4747956 -0.9817873 -0.73872364 -0.4502178 -1.4696255
front -2.0722291 3.394281 2.0687394 -1.074007 -1.6537882 2.4230154 -3.2659578 -1.3278171 1.6680859 3.2607982 -1.7553039 -0.54285663 -3.8286252 -0.21043664 -1.211638 -5.109353 0.34563655 2.583134 1.1438555 1.1308662 2.3495152 -0.88687843 -0.7855848 1.0708404 -2.2515433 -0.33047032 1.7782505 1.7114825 0.083368935 1.4527309 0.4417134 2.5426018 2.3024452 0.8191508 2.55152 -1.7541964 2.1011667 1.6794437 2.6314979 -0.45165887 -2.2723079 -1.9105115 -2.722394 0.5823167 -0.49048164 2.4938195 -1.6659105 -0.792904 -2.4006877 0.45655608
an 1.1951241 1.8152406 2.0533645 2.7397559 0.8794952 -5.4132657 0.41998172 -2.2129834 -1.8388706 2.4040492 -0.5555217 1.5766382 2.0399985 0.5300595 -0.054488398 -0.2974447 -1.1229221 0.12806214 1.3665252 2.4108224 1.567436 -5.382674 -0.09863194 -1.602336 -2.2104907 -0.3477897 -0.77997434 -0.9336622 -1.1033698 -0.045831624 -1.1704292 -0.6095624 -0.60106665 -3.5737886 1.3403604 1.1392283 -2.4778886 -0.20365003 -3.2666767 -3.17814 2.9991286 -4.4704695 0.2352809 2.8673518 2.5183752 2.3156352 -1.0645306 -1.0822036 0.046103273 2.9107544
while 0.79713887 -1.1843323 0.41524774 1.3012913 0.8769048 0.08040305 1.3394424 -0.9355587 -0.79627 -0.18470064 0.28884017 2.8682177 2.5563037 -1.786396 0.050303884 0.11458821 -0.7018625 -1.9395303 -1.0564371 2.1153753 -0.60377973 1.6674807 0.7966687 0.22307728 -2.3260934 -2.0048666 0.6896781 -1.2790214 0.8819323 0.856321 2.246731 -1.6840189 1.64264 -0.68284583 0.7699938 3.6930487 -1.2585752 -0.7655665 0.37914953 -0.68997014 -0.062495057 0.3305967 -0.4985298 1.7930003 0.7454399 3.2487187 1.6540457 0.18596154 -1.4118806 -0.57372576
holding -1.1250597 -2.5230737 -0.10222347 0.8309289 1.5828223 1.4456528 0.76224416 0.99485505 0.97012 -0.016874112 1.5642532 3.3900185 1.7307892 0.22738396 1.6204545 0.17630365 -0.05692213 -1.9927759 2.1804178 1.8448262 1.1108241 0.782153 0.31902093 1.429938 -0.08139122 1.7336859 1.4954668 5.7457604 3.060636 -0.21256481 -4.836585 -1.6468629 -3.778079 1.7917469 -0.54748255 -1.5642649 -0.30292603 2.9813378 1.0597758 -0.482638 0.39571774 -0.60306746 0.7482226 -1.1293248 -0.8865224 -1.1587849 -2.4181533 1.0446621 2.8243093 0.6390585
s 0.034815237 0.28369895 -1.6516376 0.7516508 -0.727023 -0.9762035 -0.36888415 -1.7892362 -2.1102872 0.5526698 0.38690925 0.8610558 2.1566777 0.17998672 -1.898644 -0.38582572 -2.292822 0.36350963 -0.02050026 -1.0144291 -0.18407148 0.19501871 -0.26861063 -0.5407127 0.91980296 -2.4067175 0.7156445 0.46805975 1.166463 -2.8242302 -3.4539921 3.2954905 1.9629868 2.1194415 0.40047562 2.286776 -2.8301125 -2.0162327 1.1578567 1.5207965 1.128611 -1.5328531 0.0003654231 0.8746012 0.35437748 -1.9759033 0.586124 -1.6716045 -3.2586021 0.5005507
are 1.0246372 -0.9027909 1.932753 0.41370207 -2.2223005 -0.9611284 0.14015774 6.3251286 -0.5508856 1.2428967 -1.1761731 0.78928834 0.643471 1.5233423 -0.17137255 -4.554495 1.0476965 3.267515 -0.75495285 0.79295367 1.5113924 3.890504 0.12793164 0.088163465 0.8929658 -4.4827757 1.1042545 1.2238504 2.6885724 -1.5684662 0.11224664 -0.82821625 -1.6781323 1.5334542 0.08191176 1.5200104 -0.73457015 1.2596114 -1.5772166 -0.25808537 -1.3321466 1.4220589 1.4251106 1.9334313 -1.498518 -1.2070711 -1.1333711 -1.6129299 -1.8889036 -1.5240256
carries -1.8191268 -1.6075163 -3.1912358 0.13467567 1.5921575 0.96981406 -1.3365388 -0.19925812 1.3821512 -1.5294561 1.6961397 4.962963 7.996044 -0.57140946 -0.9264912 -1.2743787 -0.9741438 -1.1699624 1.6297685 1.9858769 0.7382654 0.7339387 1.0984368 0.5008266 2.9807322 0.4713649 -1.1825712 4.4133162 0.98599684 2.1984847 -1.2700859 0.1231982 -2.4106066 -1.598283 -0.8539204 0.0015147661 0.021104615 1.9312397 5.6186047 -0.019493196 -0.88066167 -1.0606861 -2.2123919 0.9761766 -2.357599 1.4103143 -0.8220783 0.13140781 1.3902375 -0.39132988
down 3.0853734 -3.7214649 -0.01828255 3.692727 -0.17750151 -1.5896765 -1.9024425 1.6424918 2.536785 -2.768525 -0.00031781776 0.6037032 -1.5537897 -0.6393292 0.22929978 2.5728076 -0.53611743 1.0542567 0.027638666 -0.17885101 1.1578746 -2.8062057 -0.35892463 1.4518716 0.08920885 -5.974216 2.2199242 1.0609093 -1.2885063 0.8831607 3.14494 -2.4755814 0.29232308 1.5873835 -1.7250681 1.4279672 -1.9416882 0.025134359 0.76175964 0.9319141 2.3500054 3.20688 -2.569225 -2.5208426 -0.054068465 0.09288241 -1.326931 0.8477268 -3.3230307 2.0243542
young -0.29391956 1.1013881 0.8695865 -0.67479837 0.6028039 -1.1556497 -1.007377 1.2480963 0.28863642 0.40840012 0.14963646 -0.65918124 -0.82807046 -1.0158876 -0.45349118 2.6763146 -2.535961 -0.09241671 0.891681 -0.4994857 0.19022252 -0.94597054 -1.6707526 0.6916659 -1.1779393 0.353438 -0.48099518 -1.8483316 -1.5811012 2.190129 0.34639233 -0.67518365 0.2876634 -3.7252967 1.5525098 -1.5305947 -2.567505 -1.2097852 -0.4979473 -1.959518 1.7018405 0.10796275 3.0587213 0.5476252 0.055965334 -1.3807986 0.0075572194 1.0291429 0.056196764 -0.9178832
at 2.1865826 -1.9576714 -0.9224574 2.4132001 1.3779963 1.4252349 4.879571 0.58462375 -2.1084857 -1.9847902 0.5189834 2.8086557 -1.8439062 -1.428181 0.9197404 -2.963798 -0.11015137 0.08995171 1.86228 -1.421328 6.0408955 -1.2739147 0.018820824 2.0229192 -0.75628746 -0.58518666 0.44047505 -0.85170555 0.9595966 0.23501827 0.36863714 -2.4759474 -2.4632027 3.8285592 1.8198391 -1.5316314 2.4044912 -1.3595467 -0.50261706 0.52308303 -3.020305 2.5719986 -0.30889615 0.26908153 -1.3348551 1.9336987 -2.3028905 2.1877291 -3.3475692 1.5315502
up 0.5020738 0.312977 1.7647175 5.486693 -0.9465552 0.12888777 -4.762517 2.0546741 2.3451898 -0.04982514 1.0003735 -2.3431559 -2.6297774 0.9460686 0.78740627 1.2108753 -1.4653635 0.42805967 -3.2466195 -1.2130355 1.9517814 -1.6278296 2.4643679 0.107233845 -0.5019719 -5.5544524 3.216373 2.7521968 0.366179 0.5830565 2.1123626 -4.632703 1.335035 2.806665 -0.11239791 1.2264649 -1.829041 0.55661446 1.4635808 2.0838647 3.8090427 2.0088568 -1.8103869 -2.4355643 0.67413527 -0.10777631 -0.6352308 1.095252 -2.3317208 1.3495716
sleeves -1.9904523 0.67630476 -0.011560482 -4.75173 2.5028234 -1.4903681 -2.2595727 3.3982632 -0.658228 5.361215 -1.3769037 -1.9439391 -0.68246925 1.2875103 0.55987346 0.10727361 0.10275196 0.19255516 -0.49265516 -2.516696 1.0213116 -2.9722595 1.5537572 -0.92894346 3.577372 -1.7379032 -1.7181095 1.1135249 -0.16680628 -2.3406482 -0.26943272 -1.6869622 -0.6151145 -1.1573019 1.4139956 2.608125 3.155711 -3.6197867 -1.7631861 -0.45423147 -1.6946176 -0.4663888 -3.849837 -1.6348233 -0.17294042 1.3666016 2.7570455 -0.47463757 -2.474903 0.66054595
lady 3.2210448 0.07284869 0.34000358 -1.2386639 -1.557813 -1.010949 -2.1906242 -0.11227409 1.0172303 2.6525674 0.19110791 -0.6904294 -0.50363344 -1.7717757 -0.5441922 1.2136381 1.394837 -1.9626524 -1.4076364 -2.6486454 0.9750741 1.3003149 2.5085227 1.2986817 -1.37879 0.19368447 -4.7852764 1.2192117 -0.8409206 0.9816014 0.27451935 3.1993186 3.4622157 -1.9090427 -2.0805538 -0.46671483 0.3750625 1.0030661 -0.73131126 -0.89898854 3.4687984 -0.28894323 1.575076 -1.0419365 -3.0568535 -1.8721786 2.9651709 -0.691927 -0.3951094 -2.0554652
girl 3.2365782 -0.5303572 0.014357911 -2.2003455 -1.3690488 1.188237 -1.4403188 -0.19795197 0.24310447 2.9804044 -0.12058184 -0.94568217 -1.4143944 -0.46695292 1.9030547 1.452228 0.9624426 -1.3030849 -1.3037068 -3.1372976 1.2181116 1.1224296 2.5792155 -0.10614034 -1.7372009 0.2474809 -4.1362805 1.9018537 0.44121033 1.6749051 1.464451 2.5586905 4.2377334 -1.8041877 -1.502599 0.38438666 -0.2814531 0.17510568 -1.5186425 -1.3640759 3.078107 -0.082543515 2.5912223 -1.6976545 -2.2074215 -2.3407521 2.1177983 0.34809813 -0.14574581 -1.0422095
purple 1.1122894 0.07842046 -0.19586286 -0.81825715 0.8476974 -0.037599713 -1.0229094 0.08898774 -1.0581243 2.3282619 0.027546931 0.59574527 -0.14806356 0.083435364 0.0064472817 0.89252555 -0.07733395 0.26644987 -2.4413347 -0.7491979 -0.29822668 -0.32580596 0.5703502 -0.36495727 -0.45251673 0.6184104 0.5133761 0.19484593 -0.8352484 0.5529439 -0.43295643 -0.2065708 1.0457898 -0.33411792 -0.88330406 0.4575099 -0.023841824 0.75654054 -0.032081086 0.0128496345 -0.45348534 -0.49943647 -2.222884 -0.12018581 -0.10851711 -1.6331184 -1.2339436 -2.3269212 -0.4283122 0.6799255
pack -0.8891726 0.48750767 -1.2657986 -1.7671922 1.7280539 0.031220479 3.3831823 1.0172005 0.24820803 -0.8869091 -0.21594667 3.0985284 -1.08473 -3.2272801 -5.7143393 -1.0623085 2.216823 1.389738 -0.34929025 0.4742231 -1.6236253 -0.24203075 0.2641137 -1.0564821 4.854576 0.4079391 2.2066598 -4.038328 -0.13951354 0.06866082 1.1897554 2.0191386 -0.9220694 1.4986457 -2.5265281 3.2996671 -5.1111345 0.8592185 -2.8220353 -1.4080424 2.7486284 0.72601354 -3.6244948 0.16085094 -0.7631728 -4.1024117 3.725764 -2.2444055 3.2929409 3.9477918
or 1.7874172 1.819713 0.64112145 -0.58033353 -0.6934438 -0.9770082 -1.8495878 2.15531 -3.8670568 -1.4704633 -1.3870565 -0.19737615 0.14260304 1.5038806 2.018074 -4.134819 -1.4315794 -1.4961514 -1.2519807 -0.49305704 -0.6202897 0.6544781 -0.71197194 -1.2432457 1.2654723 0.030361451 0.04656268 0.72157145 0.9601144 -0.22302178 -0.94901425 -1.6233771 -1.6259172 -0.22546864 -0.15859944 0.6804512 0.24793343 2.8294907 -0.84042585 -2.2877002 3.3869991 -1.0879459 -1.4190985 -1.9640437 3.2688947 0.8737299 -1.0330533 -1.9310478 1.6754887 -2.6382492
jean -1.3727633 1.2967639 0.23852432 0.37802893 -2.0053654 -0.17929545 -0.97799283 1.0804904 -0.6581532 1.4458668 -0.58432287 0.93085176 -2.579713 -2.0065262 2.648135 -1.1638026 -0.26211542 -1.7207704 -2.8769433 0.16871358 -1.4178436 0.47588053 0.24985768 -1.2716242 1.3768528 1.4992887 -1.7086153 2.8002357 0.13780314 1.1727097 0.6495678 1.6199261 -0.09285343 -1.6178457 1.9151182 -0.6260273 -0.43535972 -0.066556334 -0.011675732 -2.9428396 -0.37834874 1.9229228 -2.7611513 0.75292766 0.80676436 -5.482668 -0.54929024 -1.7268709 -1.4882201 2.6653438
it 0.52894986 0.7277309 0.3149824 -1.5534927 1.3490311 -1.0849231 -3.7264104 -2.4072464 1.2057637 4.2883396 -1.8588386 -3.5965922 -2.1561868 1.4266244 -0.6121258 -2.4912963 -0.78818595 0.28687254 -0.9604846 -0.17915128 0.1516985 0.3502167 -1.2449026 -1.3495026 0.43296847 0.44623297 4.240781 2.602807 0.38268775 -1.4643954 0.07551846 2.9951115 0.78763974 -0.5572147 1.3744586 -0.94691515 0.5601625 1.3283179 -0.9954619 0.059563395 -0.97002083 -0.8981733 -2.4805722 -2.2370455 0.3919289 0.30959585 -1.4192774 -0.8667117 -0.5376049 1.6453773
large 2.8386948 1.0182159 0.7630908 0.4905489 1.5458801 0.11442687 -1.1720155 -0.30721283 -0.9216509 -1.0933838 -0.42855597 1.3539222 1.5008535 0.39911664 -0.79075515 -0.1835467 0.6602568 -1.2864914 0.2468722 0.34114912 -1.5853622 0.18496975 0.7444706 -2.0291355 0.39261702 0.38902476 1.3809876 -0.5761888 -1.5408324 0.12300225 -1.9048125 0.08883234 0.23133624 -0.9233432 -0.112455666 1.4259273 -0.6605577 0.8901134 -1.4787174 -0.075692855 -1.0134156 -0.4506871 -1.2473102 1.4548976 0.20205791 0.5985508 -0.22918944 -1.8569676 0.08740507 0.024702502
from -2.2233696 -4.5328345 -3.2152464 0.670663 -2.6901305 0.40358412 2.971652 -1.0879529 -0.52467936 -2.096766 -0.95763534 -2.0990207 -1.0351939 0.2578284 -1.3562108 2.3974211 2.506784 0.72505593 3.1389818 -2.0048 -2.9943058 2.8809335 -0.8771263 -0.025020944 -0.5519118 -1.6188937 -2.683559 -2.5319412 -1.9071153 0.93009365 -1.258112 -0.30533195 -1.5859174 2.4444425 -2.0530198 3.2392244 1.1840454 -0.41571435 2.0535436 2.7740216 -0.7869735 0.37187997 0.44589797 2.6311073 -3.714588 1.840502 -0.44838387 -1.6150069 0.8447039 0.5787929
coat 1.5778598 1.7556846 -1.3037064 1.5472848 5.000002 -0.067367576 -1.3558893 1.9973644 2.1810508 -1.345575 -0.5181466 -0.07177585 -0.45313838 2.0904777 -5.031292 -1.4047747 0.05697609 0.04540346 -2.535938 -0.69748944 1.1360962 0.14640538 -2.647208 -0.040815957 0.05830195 -0.65290284 1.9082822 1.8098311 -0.9198278 0.21971543 -2.3882506 -0.43465495 -1.7036693 -2.6599436 0.08458029 2.0771463 0.8794213 -1.7417746 -1.1544665 1.6794186 -0.02662465 0.08313272 1.5422959 -0.3198086 -2.1803422 0.8122526 5.325126 -1.7368424 0.7294055 -1.2771729
sweater 1.264208 -0.08440968 -2.030175 -0.6720247 2.6679046 -0.2567414 -2.8492491 0.9970463 1.7864869 0.3002998 -0.1247093 0.15282443 -0.45100448 0.85736805 -2.7215092 -1.8224062 -0.99271137 -0.3834425 -2.848581 -2.2894988 1.9759201 -0.4046747 -0.69068635 -1.1015714 -0.6756574 -0.75654465 1.441496 2.3157146 0.039655883 -0.9806245 -0.251258 -0.59834033 0.19247961 -2.8061607 1.2365439 0.82983 0.76186794 -0.15420856 -0.34131917 0.5283693 0.37380496 1.3297094 -0.07404627 -0.573251 -0.3823108 -0.3609202 2.1644998 -2.3110545 1.225304 -0.96566063
arm -2.8841069 2.4512923 0.38931626 0.8547998 1.5268271 -0.57704043 3.4384072 0.6852814 1.5555834 -0.03128111 1.5164925 1.7751104 -0.25651595 0.4131133 0.3562004 -4.435065 2.3674526 -1.4999238 1.4816151 2.014721 -3.1774113 0.577661 0.43034196 -1.5290064 -5.4250474 -2.506559 0.47312778 1.7670971 -2.8665032 0.71574986 -3.6579752 -1.1616154 0.8032721 -0.43139905 -0.4137182 0.54267436 -1.253878 1.0342834 -0.7620093 2.6344264 -4.046274 1.9072073 -2.4380996 -0.96998715 1.5084556 4.2671456 0.07953421 -2.3461344 2.899248 -1.4849446
side -2.7381659 1.9802023 -0.164264 -0.63175905 -1.170226 3.0175278 0.993028 -1.4591852 3.3057852 1.9894717 -1.3987385 -0.25046262 -0.18740627 0.40754738 -0.2592264 -2.770241 0.7508772 0.48128724 1.1899335 1.3560897 -3.5393796 0.8741669 -1.6915463 0.18240139 -2.3983936 -1.4661982 -1.2329581 0.7483682 -3.2244136 -0.6775434 -1.3428749 -0.53890723 -0.0026825808 0.5722212 0.11963102 -0.5270943 0.71879995 -0.52728266 0.85180974 0.96182126 -1.2807262 1.3281416 -1.924716 -0.50443816 0.19561842 4.7243443 -0.48498604 -0.7879468 -2.4699228 0.95240843
striped 0.50516856 -1.5508062 0.111192316 -1.5465322 -0.0644891 -1.2356095 -0.69884354 2.0637393 -0.6718762 1.8638282 0.92267466 0.26822025 1.603409 0.10767384 -1.1726466 -0.34143236 -0.75554997 -0.71053284 0.29013342 -1.28811 0.10467001 -1.049447 1.073759 -0.6073921 0.45543307 0.27969956 -1.0215902 0.8881083 -0.03363324 -2.2182593 1.713638 -2.0117416 1.7028521 -1.576039 -0.24586599 0.069862485 -0.40598926 1.010663 0.6531252 0.8280747 -0.17802967 0.8835057 0.7128526 0.8084884 0.36483964 -2.3231559 -0.2296386 -3.0344875 -0.45845917 0.13064602
looking -1.8957671 -1.665313 2.8111658 -0.02601518 1.2775333 0.9790225 3.25456 -0.22411391 3.1357226 2.356439 -1.688652 1.961947 2.9620578 2.2845898 1.6355428 0.3474345 -0.3184193 0.008682222 1.0272526 2.4743502 -3.065289 0.49800175 -4.0572147 2.4764688 -2.1318586 0.3615857 -1.289626 0.7158379 1.2553968 -1.5094398 -5.139343 0.15743092 -0.0071525993 -1.9585814 1.2772878 -0.15809317 -0.3746185 -1.9795756 0.35809922 1.9195647 -1.0672057 0.64540863 1.4570389 -0.8499372 1.9773211 -0.4201785 -1.5563865 1.2160747 4.019043 0.36672166
socks -2.0506394 2.1571956 1.0468365 -2.00683 0.5175265 -0.79489756 0.091252334 2.1685486 -0.62196714 0.34349814 -0.12617171 1.6371331 -0.5193504 -0.7301258 -1.7887043 -1.4074873 1.5124937 0.8545762 -0.9012409 -1.8602631 1.0952312 1.1846507 -2.1231027 -1.7473304 4.741622 0.96313846 -1.3207259 0.5717744 1.8431953 -0.528954 1.4210434 -0.47166798 0.5330394 -1.4183677 1.3273029 -0.4858959 1.3758265 0.19243544 0.76145136 -0.008205682 1.2721561 1.0096112 0.92611563 -0.6862696 -0.40153766 -2.220811 -1.3786545 -2.0036213 -2.505534 3.987813
boots 2.3097265 2.2149556 2.3941984 1.2080172 2.6092656 0.7373523 -1.0138584 0.29653144 -0.6832619 -2.3916135 1.9708952 -1.5506899 3.497804 -2.260444 -0.2566679 -0.8287452 0.22740945 1.3301622 -2.6479375 -1.613295 3.1198869 -1.400642 -3.5119765 -0.7569466 0.97917813 -0.13890451 -0.280567 0.47919726 -0.9283789 -1.0401847 -2.3613648 -1.5899731 1.318922 0.52020955 0.8013041 1.1794945 2.68761 1.7045734 -2.1535563 0.5090769 0.7201366 -2.1767697 -1.0588665 -3.211883 0.14495367 -3.4328458 4.6025567 -1.2888011 -1.1570058 0.8774264
male 0.96411586 3.8534598 -2.017479 -4.488075 -1.9740616 -1.9887589 -1.6448095 -0.3386406 1.0212941 0.5387235 2.1504815 -0.1338566 -1.068717 1.9363698 -0.3283792 1.994274 -4.191345 -1.5256243 -0.26096404 -3.2595615 0.4647237 0.5737822 0.050905593 1.5715117 1.3281909 -1.6211003 -2.7311168 -2.3861296 -0.7340326 -1.0869757 3.7618458 -0.9996987 -0.14893809 -2.4698062 -1.2610757 -0.9698367 -1.0574114 -0.72066534 -1.1078937 -4.2803016 2.8992155 -2.6040854 3.2277577 0.1753174 1.3553663 -1.8214355 1.4909447 0.75458586 0.29191142 0.11582687
khaki 0.10473227 1.4862794 -0.08371527 -0.6971344 -1.2337409 -1.975658 -0.32160196 2.883031 0.6009579 1.7426193 -1.0340846 1.444235 0.0070985546 0.2934442 -1.2715646 0.22366607 -1.6203587 -2.262984 -1.5081468 -0.65326566 -0.5657503 -0.11763472 0.78616685 1.5694219 0.54783016 -1.074756 -0.8153087 -0.7452587 0.6541603 -1.1735283 0.7863784 0.03260366 -1.3929282 0.29919705 0.14432156 0.03776978 0.08125005 1.6332358 -0.61597234 -0.16402353 -1.059826 0.3512298 -1.0931188 1.6565707 0.8314189 -3.9144778 -2.207979 -2.5496504 -0.6970353 3.089487
as 0.6184806 -1.700597 0.08414618 4.233856 -1.0096055 -2.7015655 0.013890113 0.5827673 0.5557961 0.1341356 0.645376 -0.545308 2.1396606 -0.945687 -2.9037864 -1.3110559 0.32445967 -0.36386454 -1.3290867 0.7125379 1.2143974 0.57020265 -3.030791 1.6976976 1.4247894 -0.5825 -2.1837268 2.5168474 0.45015427 2.0177202 -0.90409476 0.3328454 -0.26221883 0.88242173 -1.6200048 0.27914327 -0.37225 -0.17832306 2.3488326 -1.7370186 0.18870454 -1.709712 -1.432428 -0.5089961 -2.900794 2.1146328 -0.8623891 0.505711 1.0155146 2.3653734
knee -1.2545294 2.3728373 -0.07642872 -4.8250237 -0.44436485 -5.56953 0.8645276 2.7760878 3.7518759 0.98267955 -6.257317 1.3331838 0.89415795 2.0333605 -1.0516372 -0.83496296 -0.96223724 0.604978 -0.9113413 0.8602285 -1.0728085 2.697737 -1.7444491 -2.7345939 -2.4822228 1.7108611 -3.08972 2.45695 1.3843824 -0.23408614 -1.0152458 -1.8201833 2.459666 0.2605116 -2.02829 2.1127558 -2.7544353 0.77024966 -0.166168 0.28840926 -2.5354693 4.5403647 -2.8916469 -2.6009247 0.6357043 -0.12070441 0.27775747 -3.0293243 -2.0244954 0.69203
phone -0.1756849 0.30421895 3.494114 2.3298943 -0.528994 -1.2752547 1.2353736 1.7861938 1.2603903 2.8105407 2.9655612 1.5235561 -0.043942418 0.75386924 -3.156212 -0.7934668 2.865043 -2.2936218 1.247097 1.8647717 0.16336401 1.4004447 -0.78792965 -0.07128061 -3.4455082 -2.1913102 0.93227875 2.9723623 -1.72364 0.22328366 -3.058844 1.1617154 2.9959333 0.40716553 2.1530914 -1.0504951 -3.0277727 -3.9682283 0.060782004 3.388402 -0.75063694 2.3765967 -0.48966837 3.0713663 2.5084789 -2.4604485 -0.1288797 5.0517106 0.3132194 1.9583555
one 1.3059334 -1.0669246 2.0102363 1.226905 0.60095 -0.11554378 -2.136301 -2.3784187 0.8174987 -0.13634957 1.1234555 2.8152964 -0.78268003 0.5241072 -0.6373592 -0.28378275 -0.045391444 -2.9704525 2.1052623 2.8499968 -0.38945228 -0.12038722 1.7454767 -1.615488 0.7613789 0.8900479 2.4442294 -0.52774936 -0.07950442 0.73877543 -0.5622872 0.46846217 -0.6332202 -0.40892786 3.130775 1.8170831 1.9339823 1.2960706 0.75443846 2.8800857 -0.0502959 -3.2879782 -1.0242815 1.7717633 1.1886313 1.3407993 -1.3706318 -0.3028338 0.17878723 -2.1534712
orange 2.2713885 1.1076746 -0.6317534 -2.5901778 0.4210882 1.3093975 -1.1559796 0.37098184 -0.28556067 1.5298544 -0.30388364 1.1565809 -0.5193984 -3.2446918 1.2277164 0.47804254 -0.9775067 -1.1511148 -1.9679286 -1.1068169 -0.5503478 3.0094817 1.481457 -0.57598424 1.6341298 -0.6176713 2.6356978 0.35084492 -0.18174347 -0.5496787 -0.8313129 -1.2560948 1.5500894 1.6701592 -0.20816961 0.24368273 0.49013802 1.1652455 2.0674372 1.0200211 -2.824186 0.77351624 -1.3589201 -0.8506472 -0.35853136 -2.2731254 -1.2020844 -2.4737582 0.48026243 0.72309506
bright 0.79484963 -0.10152515 -0.62152344 -1.0622668 0.6179364 -1.3673537 -1.6367885 -0.020292148 -1.4515749 1.8711407 0.41193095 0.80683374 0.15134792 -1.1186826 -1.202891 -1.1834621 -0.093168855 0.38936752 1.2660304 0.10074379 -0.4790795 -0.9044944 0.7240061 -1.6049917 0.5700901 0.38732997 -1.2361195 -0.5664541 1.3555437 -1.8054461 0.48125577 1.5284723 0.15629606 -2.2639537 0.43184763 1.0286334 -1.0454329 1.9579625 0.35593686 -1.7690146 -0.44625357 1.800489 0.6843887 0.6123855 0.6634692 -2.811069 0.13572372 -1.504426 -0.5408842 0.44513538
hat 1.4655652 0.6713754 1.1319137 -0.23478028 2.1828766 -0.34421483 -1.3113953 0.14511488 0.10628674 -2.3153563 1.2837067 -2.0009832 0.8078805 -1.374076 -1.8491553 -1.3036351 0.99878037 0.79947126 -2.2536447 -0.18252464 -0.7207561 0.26970628 0.012671794 2.1552734 0.170736 -0.60164243 1.2025676 0.86297214 -0.3148366 -2.5341268 -0.6958137 2.1060665 -0.9025303 -0.4106879 -0.42020234 -0.17866224 1.1819925 0.7575031 0.6410602 0.79081523 1.251346 1.8348682 0.008969604 0.40532863 0.8682061 -1.9434338 1.1718392 -1.0985409 1.0040814 -0.48521614
be 1.314635 -0.35512027 0.7475942 -1.2422124 -0.51294684 -0.26426023 -1.7122195 -0.11295385 0.5231176 2.2184556 -0.11801925 -2.7942398 2.1318262 4.6930776 -1.6152115 2.2221541 -1.2094173 -2.6337674 -0.40019885 1.8113949 -3.7370107 3.0441258 -2.3404489 -0.48311287 3.0776665 -2.2455795 1.9335922 2.428897 3.759483 2.8456807 0.1883366 -2.2278004 0.1059953 1.2543222 0.057668045 -0.78325844 -3.6875653 -0.37300473 -1.4761171 0.9816158 3.1001656 -0.58993614 1.0630146 -0.42029682 4.067933 0.87199396 -0.083784185 1.4490262 0.23454648 -1.556918
walks 1.2493057 0.91314447 -1.1143842 0.52153975 -1.0854667 0.33098218 1.437048 1.7800335 4.304759 0.37577596 2.8478837 0.5599082 3.7407568 -0.32890987 0.020685172 -2.1723523 0.15859337 1.5137343 1.453719 3.861685 -1.6592169 -0.82517594 -3.2523694 2.5271654 4.3908887 0.78546363 -3.5857005 1.0060561 1.6962413 1.4102838 -3.3533907 -0.8912271 1.6006526 -4.401622 -1.8329773 -2.8381674 -3.3932648 -4.111826 4.0209613 2.3864667 -1.5035987 -0.75167024 -3.0871603 2.2814183 -3.9250705 -1.1287462 -1.1528313 -1.4050165 2.54405 2.7415037
t -1.0540752 -0.33912212 -1.3163158 -0.40132973 0.46948966 -2.70958 -1.8002077 1.7764717 0.1784291 1.4154015 -0.58924013 -1.589995 -0.29910567 -0.3141257 -2.1318283 -0.45464903 0.19190653 -1.5259426 2.407516 0.6484929 1.986714 0.75304765 -1.2252936 0.4027936 1.5389422 -0.37734565 -1.0353789 -0.17788666 -0.030961104 -0.50707024 0.77748805 -0.027188495 1.6606125 -1.7628487 0.1514145 -2.664954 -1.2145191 0.5643899 1.9897071 -1.2407875 0.5354765 0.7051936 0.6521424 0.25104553 -2.7133234 -2.4922445 -0.5672977 -2.2821445 -1.0153879 1.4953429
denim 0.092906915 -0.016427837 -1.4936373 -0.8685689 -1.3528283 -1.0256219 -1.889935 2.537253 -0.71387035 3.2919085 -0.26755205 0.47518304 0.97484285 -0.111917436 0.6781919 -1.306765 -1.1035544 -1.9617486 -1.7243961 -0.89514023 1.2148737 0.3073972 0.8928039 -1.2674352 1.8789113 -0.30507174 -0.7914703 0.29066733 -1.554544 0.28129175 0.850528 -1.1732229 0.8501103 -0.53714323 2.1846755 1.2170604 -1.9125903 0.08776768 -0.00560786 -0.16306984 -0.42574757 0.18622288 -1.0512934 -0.32282257 0.5362867 -2.8051074 -1.4703679 -2.4988458 -0.51893574 1.1564838
tee -0.09767606 -0.43983373 -2.1815867 -3.0824592 -1.0558995 -1.2103126 -0.6334335 1.1898324 -0.10519967 1.201725 -1.3906353 -1.2194209 -0.7768275 1.6218522 -1.3569453 0.10256298 -1.1913933 -0.7723289 1.1811154 -0.3836771 1.6629606 0.9062979 -0.6416303 -0.47898307 0.7216265 -0.6816558 0.21882448 -0.87911546 0.22960784 -1.0776242 2.1080017 -0.876148 1.5777818 -1.8704579 1.1419691 -0.9067044 -0.2190356 1.1464056 0.9813722 -0.5903344 0.81605357 0.5503394 -0.15727043 0.6826916 0.14246711 -2.7178 -0.37522203 -2.0113792 -0.6997002 1.4381679
hands -0.54554075 0.86651105 3.8632421 1.2784033 2.2385585 -1.8307887 0.37918374 2.3970988 -2.371908 0.21762188 1.0312116 2.4953496 -0.95412856 -0.12672386 0.65153825 -3.1174233 1.6541395 3.9175384 1.3273915 3.0662646 -1.847105 2.2543194 1.8800263 -0.4496594 -4.502584 -5.7551584 -0.6511013 -2.5148396 2.6758757 2.6759357 -3.4585938 -1.5957826 -0.5183448 1.7329264 0.68417597 -1.1931837 -0.47377688 0.080685176 -0.1166995 1.2440381 0.51307744 0.13448855 -2.3109841 -1.4480884 -1.1171142 1.6640422 -0.7159102 4.2118664 2.1438847 2.1713321
button -0.48961353 1.4057249 -1.3332125 -4.7486014 1.8604697 -0.5557762 4.6594853 -0.3509893 -0.81227535 3.4476573 0.8384896 -0.65136653 0.35827857 3.3540568 -2.4626622 0.11162321 -2.4638033 -0.9655112 -4.4985194 -1.1973442 -0.13276525 -1.0992815 -0.44758725 1.2243426 -3.0797567 2.0327837 -2.304434 -1.0442414 2.370288 -6.0186005 -2.7445781 -0.35510972 0.54199266 -2.266509 2.1148674 -1.0227748 3.0830777 -2.1295493 -0.69601154 -3.0077486 -2.0764287 -0.011895882 -0.6645289 2.7933903 -1.9394498 -3.2460144 1.3572818 -1.4001789 4.3529773 0.5604276
shoulders 1.4631048 0.25265467 1.0719844 -0.26563972 3.1422327 0.82805467 -1.7229768 1.3169107 2.5720613 3.0571778 -4.498387 0.4048409 2.4522629 1.904065 -1.1724683 -2.7551267 -0.33603016 2.205466 0.22638038 0.53756183 -3.890067 -0.7914241 0.19724068 -6.146415 -3.2320309 -2.4428377 0.047741733 1.1782703 -0.020805873 -0.13034822 1.7579875 1.1957248 -0.87249887 1.599974 1.757105 2.3266284 -0.9609134 -0.19809769 1.2034943 2.2528346 -1.530196 -0.32477927 -1.45287 0.0047592125 -1.9332266 0.03538331 -0.7330285 2.4122841 -0.8340684 -0.28783306
plaid -0.54799205 0.8087191 -0.024125652 -0.36134234 0.7715776 -0.088677436 -1.4101807 -0.118909396 -0.09013855 1.085081 0.7315685 -0.12830094 -0.29347065 0.38162336 -0.98425883 -0.23962465 -0.78029037 0.16115478 -1.4052482 0.024407545 0.6340511 -0.9702747 -0.002225222 0.23665679 -0.24709876 -0.62308645 0.141262 0.6388434 -0.37236297 -0.9569435 1.2379774 -1.0319567 1.0997683 -0.7479737 0.18131548 -0.9138188 0.15253727 0.8334839 0.17117663 -1.3810402 -0.35943717 0.7888803 -0.1400781 0.46909449 -0.66360664 -3.0102034 0.42503232 -2.408015 0.17876902 0.9321581
blouse 0.32056546 -1.5876216 -2.5816534 -2.5154698 0.0016647999 -0.29527548 -1.3628868 -0.59133255 3.2037115 -1.2278883 0.16956179 3.0419092 -0.7265017 -1.1996181 1.2288734 -1.7491429 -0.66112536 0.21095674 -5.043218 -2.6958363 2.571532 -2.6354902 -1.383255 -2.9942603 -1.5433775 1.1862296 -0.77476656 1.2580717 -0.18062834 0.971638 -0.3407616 0.6948245 2.1166706 -1.8883204 0.7089403 1.4648358 1.3485929 0.5408253 0.12816788 1.4145497 1.2162641 1.8436074 -0.7398604 1.612136 -0.39071363 -0.14618966 1.2013282 -0.18959054 -0.8708194 -1.8595421
collar -0.25629613 1.5191456 0.35046217 -2.027103 0.39727166 -2.2610555 -1.0712996 -0.15587734 1.7416661 1.5204713 1.1894006 1.0499159 -0.39798835 2.068767 -1.2961981 -1.1111103 -1.3136232 3.275643 -2.7110896 -0.7035276 0.5583071 -1.0520577 1.2166401 -0.22346416 -0.5799593 -0.8337324 -0.89605063 -0.47525495 -0.7750015 -3.9741373 1.278308 -2.1823928 0.7909616 0.3875269 -0.38576767 0.71718997 2.3077357 0.41704762 -0.12855649 -0.029437862 -0.9475603 1.616576 -1.494286 -0.40684646 -0.005944727 -0.9187854 0.5538157 -0.9790776 -0.6184274 0.8609165
stripes -0.100569755 -0.111364 -0.05799069 -3.6785135 0.33034107 -0.5869555 0.29311943 -0.26910177 0.61105675 0.9104467 1.161408 1.0189348 -0.89651686 -0.35521418 -1.6165749 -2.8091724 -0.9246288 3.4672139 -0.36294302 -1.0443541 0.6775138 -1.3504092 0.52961975 -1.2216251 2.9547076 0.66866016 -1.2196422 0.2132211 0.6155605 -3.770441 3.6543057 -1.5213716 1.6799971 -2.4052134 2.598351 0.31617498 1.9160393 0.55365425 -0.57262206 0.8028337 -2.470906 0.53672945 -1.0234461 0.6042552 -0.57745725 -0.7498726 -2.0654767 -1.565225 0.037298944 1.280442
appears 0.15563771 0.85781246 0.015879938 0.1081748 -1.768671 -1.991787 -1.5823965 0.6373006 -0.23148146 -0.91160667 -0.82685953 -1.9607435 0.8213931 2.9244406 -0.71501976 1.8979937 -1.2939291 -0.96224934 0.060053177 -1.0652744 -4.717899 -0.075822115 -3.4089081 -1.0180086 3.5222256 -0.7088415 1.1830316 1.7974284 1.7776879 1.9225357 -1.18194 -0.9973179 -0.08250098 1.3836155 0.16277882 -0.54952973 0.9804414 -0.8934349 -2.0158706 2.6426528 2.7816985 -1.1336387 -1.2942331 0.18362537 1.624378 -1.0524865 -1.2551298 -1.9148862 2.6361942 1.1158437
around 1.133689 -0.894917 0.95564216 1.5248986 0.16109557 2.559763 -0.4560646 -0.30923054 -4.146131 -1.94024 2.069491 -0.029462898 -0.19360073 -0.55629414 1.6232332 -2.7634637 3.9606824 1.823684 -1.2835814 -3.4838428 1.4342866 0.3149328 2.7859538 1.19497 -0.54933417 -0.71001834 1.4778715 -0.53890914 -1.1271731 1.1018934 1.5855776 -1.715916 -3.966331 4.1172743 1.880079 1.2960217 2.9279704 2.315496 0.000862914 -1.4043975 -3.32295 3.2748663 -0.7946938 1.0032054 -1.310223 2.1279166 0.36309877 1.7253617 -2.2206054 0.12641309
high 3.0149968 1.019524 2.760454 2.795981 2.2239475 -0.23798677 2.743152 0.13819547 -1.7306019 0.9837264 -1.4492036 -0.42382997 1.537557 -2.4521253 1.1194478 0.66681826 1.6331654 -0.45287535 -4.1616874 -2.981846 4.604377 -1.0510675 0.5692067 -1.6965804 4.9235973 1.2684709 -0.4755487 0.77308005 1.3795487 0.97459966 -1.1413369 -0.5194889 -0.22222063 -1.2842883 0.8060697 0.18224496 1.7122643 1.4666781 0.9575339 -0.7125728 -0.45474938 -0.928168 0.6002329 0.059805274 0.045043904 -0.47649303 0.7238763 -0.20037577 -0.38342905 0.32376772
watch -3.232821 1.789572 0.8843833 -1.0499924 1.093945 -0.74622047 1.508574 -0.5906692 -1.1380236 2.9032128 2.1411853 -0.7833247 0.23483609 1.4017881 -3.349871 0.70605695 2.0240507 -2.8863788 -1.6630363 -1.5637504 2.4396713 3.740881 -0.8105828 0.281077 -0.27000973 -0.8292421 1.2533361 1.6237242 -0.98087996 -1.6140131 -0.47101253 2.3970022 -1.564464 1.4340955 0.8468722 -0.03198829 0.5758167 2.9220452 1.0612427 1.5727592 -1.5405473 1.9324142 -0.040113058 0.20935898 1.8341856 -0.7892976 -0.99168557 -2.2793808 0.6277866 0.4924389
something -0.47504205 0.6920279 1.5602695 2.7916486 -0.6151851 -2.332455 1.4940647 0.8250426 1.324319 1.1789576 1.8556278 0.23524669 -2.9697158 1.2549772 -1.8214294 -2.6713989 1.493261 -0.576417 0.45761976 1.718927 -0.54300535 0.08511654 -1.2996995 -0.47886378 -0.66364515 -1.140367 2.7787957 -1.5293695 1.0883417 -0.62813264 -3.187893 -0.08843126 2.9460483 1.7099317 0.8879402 0.5854816 -3.0287619 -1.5216998 -0.9653945 3.2820575 1.2010609 -1.1544248 -0.18918204 1.2536618 2.684604 0.6029191 1.0402938 -0.19322896 -0.04471591 1.2931997
neck -0.4879172 0.9152647 3.0300546 -1.4147235 1.0079851 -1.0960797 -0.42045662 -2.297077 2.36458 2.6919003 -0.5977012 -0.7148003 1.0010654 2.435925 -0.7107444 -0.46909335 -0.12673518 3.5608182 -2.4105556 1.7094094 -1.1735601 -0.7123864 1.0933651 -2.0743966 -2.3629193 -0.50080967 -0.27147013 1.0710934 -1.2192119 -2.084724 0.57383585 -1.003836 -0.93197304 1.9529669 -0.49823713 1.9765806 0.4909716 0.180163 0.41694272 1.1072092 -1.4547234 3.6533175 -1.3522229 -1.5463189 -0.36712915 0.61824733 1.6990539 -2.1942062 0.14325915 -2.4397244
collared 0.5258443 0.533937 -0.20703301 -1.2989638 -0.16764764 -2.112705 -1.1465844 1.5558096 0.95335877 1.287483 1.304645 0.11968546 -0.28493553 2.7528179 -2.2328088 0.85403794 -2.1686134 -1.1396179 -1.8901433 -0.8723748 -0.21061957 -0.5274813 0.7296852 1.4468658 -1.1047055 -1.214924 -0.7428149 -1.0173298 -0.94927675 -3.2808535 0.95689064 -2.4702272 0.3002077 -0.8574544 -0.21998763 -0.69087064 0.3046606 -0.063593544 1.7650899 -0.52517396 0.2750808 0.86586064 0.03103626 0.6537195 -0.94246686 -2.7620997 0.3011085 -2.111825 -0.10464219 0.7470413
boy 1.1006072 1.0304985 -0.3892752 -3.0534992 -1.526924 0.11706566 -1.7046363 -0.83166754 0.6288275 2.0523994 0.5920048 0.37406918 -2.3035846 -0.85589254 -0.7179621 0.49558243 -0.08235709 -1.0915779 1.4402554 -0.8526628 1.0927681 2.0815156 0.67654836 2.6653595 -1.2271527 -1.11037 -2.8106456 0.0094461115 -0.46631214 -0.9005387 3.404179 1.2185107 1.617346 -0.8724668 -0.097895354 -0.8627268 -0.04813051 -0.9946438 0.17125991 -3.3127308 1.754575 -0.30003494 2.9060285 -0.252042 0.6644645 -3.3085487 -0.5273032 -0.5225398 0.573641 1.1484433
female 2.548023 2.3496327 -2.1200466 -2.4364812 -1.0966234 -0.42612222 -0.60094243 0.025062159 0.39350876 0.60009396 0.51709914 -1.4078219 0.004016453 1.5273999 0.9063444 1.2784775 -2.9446652 -0.43176517 -0.6840843 -2.1119223 0.37249362 -0.4037977 0.75448686 -1.2422737 0.8199498 0.54997295 -3.678467 -0.26275107 -0.9907611 2.4137638 1.0396566 0.94704485 2.5371182 -1.8806076 -1.4889932 0.04826883 -1.7910172 -0.70082366 -2.0857284 -1.5765711 3.541258 -2.6767542 2.7237868 -0.44447112 -0.0791816 0.66259605 2.5676749 1.3179221 -0.057303376 -1.6357894
head 0.19903113 0.26670763 3.9142144 1.18335 4.4011526 1.7086223 1.1643486 -0.074226655 0.5459274 1.6524224 -0.9678881 -3.3554826 0.9958084 1.6618562 0.8655439 -2.2928596 0.964685 0.6163644 -1.5594441 3.0535352 -3.8418605 -0.028085442 -0.3137975 0.57391864 -2.9328794 -1.152137 -0.3747662 0.040990703 0.89337444 -0.4602344 -0.53146917 2.763843 -1.7103726 2.1333096 1.6582059 -0.07517085 0.06589313 -1.6788355 -1.4040958 1.0330111 -1.3405211 1.4878253 0.5061719 -0.30446687 -1.5422195 2.5764847 -0.026123598 -0.35197487 1.8133042 -0.4284905
ponytail 0.56447184 -1.4447515 0.39646617 -0.59091115 0.42308164 1.2591646 -0.510721 0.18784472 -0.3526449 1.6468288 0.7913005 0.63962495 -0.8365352 2.1980228 -0.090163484 -1.1112301 -0.5492541 1.1216226 -1.0106509 -2.9709027 1.2052375 -2.253747 2.0096705 -2.5463495 -1.4839889 -2.1159074 -1.3555133 -1.5458418 0.12197583 4.1742644 -0.7934485 3.228979 2.3593163 -1.3821248 -0.88675714 -1.9031264 -2.9122257 1.3624557 1.2950441 1.0472811 0.87890375 -0.651602 -0.024851892 -0.6482765 -0.8903365 -1.2830547 1.4904425 3.2146738 2.356799 -3.2407005
across 0.5969756 -0.112983 -2.6992435 -0.18664569 -1.7902992 1.200016 1.4307536 -0.015875654 -1.8956541 -2.1680288 -1.2544236 2.6145241 0.87227654 -1.819149 -0.76673925 -0.6798873 2.5658476 1.6686493 3.2043576 -0.3264941 -0.38513252 -0.6976035 1.0933098 -2.1674068 0.67193013 -1.7720784 0.58929735 -1.0672462 -3.7085865 2.798403 2.372484 -2.0217073 -1.8759469 4.081829 0.8957039 2.2563846 1.4185232 2.2452264 -0.55656844 -1.940808 -2.6991465 1.6175789 -3.2527308 1.6669763 -0.502873 1.8389691 -1.6405182 -0.33691803 -1.7643149 0.18220957
leggings 2.432535 -0.33527225 0.37557712 0.41741243 1.5408977 0.22296922 0.23751359 -0.28632003 0.10121689 -0.7457053 -2.7536561 0.41258523 1.6594133 -0.8857906 -1.8078506 -0.77311635 0.70365 0.2618932 -2.9941702 -4.0806947 -0.36550486 0.049918562 3.9736347 -3.5580893 2.3539786 1.5375237 0.6539492 2.8822951 -0.57113343 -0.1358962 -1.3064656 1.297908 1.5109779 -3.3030367 -0.87466145 -0.07863509 0.60562146 0.21484448 -0.7194101 -0.2788487 1.2240032 0.14232954 -0.7516409 -1.0114601 0.57840896 -0.5403746 -0.4789043 -1.7310978 -1.4553642 0.16771522
flip -1.5422609 1.591 0.19033453 -1.6920707 -1.3519243 -4.1191406 0.9460269 2.8662562 -2.0127494 1.0909458 -3.0572164 -0.8895057 4.23827 -3.0571003 1.6643897 -0.7675075 2.3024545 -0.61020607 3.4173596 -1.8592795 -0.60080856 1.8592407 -1.8771553 1.7600597 -0.99449795 1.4090621 0.927721 -1.712154 -0.5947774 -0.13001604 -1.3070179 -0.87373996 2.9862676 -1.8817132 -1.6320829 -0.34271473 1.9322726 3.48586 1.8998643 3.876495 1.0198473 1.2303041 -1.7885791 -2.603735 3.7508435 -6.223187 0.19625413 0.29224783 0.25154567 0.64181936
sleeveless 1.6715412 -0.81690955 -0.14190574 -1.3467295 2.567363 0.087402984 0.40422672 0.54285204 -1.5063478 1.4396024 -2.262203 -2.5534775 -0.5814819 -0.24566843 1.5194067 0.6879558 1.6703278 -0.6366876 -0.28944156 -1.3229467 1.5882733 -1.2017965 0.6909589 -1.0990511 1.0846077 0.95306194 -2.6002576 0.83610356 0.07615938 -0.26223734 -0.61636066 0.28341702 1.3501356 -1.4590722 -0.16293672 0.20001628 -0.5082885 -0.41596782 0.8635087 0.4517788 0.48450395 1.1744889 -0.27035397 -0.13437907 -0.23965135 -0.89393187 1.8362812 -1.5043337 -1.5439501 -1.210306
stripe -1.6942233 0.11599888 0.03323356 -2.4761276 1.6347383 1.1403964 2.0338562 -1.7632213 -1.4646302 0.1876026 0.9349207 0.12958367 -1.2474031 0.16017212 -1.3575103 -1.3060793 -0.061139088 2.8063605 -0.49298745 0.7094809 -0.1920738 -1.0640138 -1.5525385 0.25110888 1.5494249 1.4432116 -1.393764 0.85708135 0.8342817 -2.470496 3.2582145 -0.7046232 1.7044622 -2.955386 1.1859194 0.32394677 2.13222 -0.5153734 -0.9139495 0.22005355 -2.3663697 0.7877547 -1.7165608 2.3152652 -0.68628865 -2.0021846 -1.1690212 -0.7071784 0.55750406 0.42305145
polo -0.2368161 0.16931784 -2.2613573 -2.8146174 0.60812145 -1.8695871 -0.24634603 2.2153275 1.071915 0.7749345 -0.28201577 0.80554575 -0.70880204 1.642697 -2.2379427 0.08671824 -0.31579983 -1.4827695 0.9431047 -0.8333806 2.4490256 0.064749636 0.13921878 1.173212 -0.28049928 -1.3001753 -0.25926846 -1.7602094 0.375299 -3.3321319 2.6663835 -3.2089539 -0.16056538 -1.0676745 0.3969844 -0.23791982 -0.33840126 -0.1179496 2.2446954 -1.803994 0.86631376 1.1753042 0.37186706 1.2655507 1.0888785 -2.1030695 -0.314834 -2.5419846 -0.4179541 0.43246394
standing 0.3483984 -0.94078153 1.6196585 0.10516671 0.24822576 -0.82601863 2.0169473 1.0354378 1.9926682 -0.6320527 1.6493763 -0.9517546 -2.2409434 1.27851 3.5540588 -0.25515205 0.82830495 2.0338702 1.667624 4.0768023 -0.5493843 -0.65340155 -0.13420837 2.6073406 0.19232583 0.35434386 -1.1024635 0.25660616 1.9001482 0.95918196 -2.8304462 -1.4289607 -1.2131548 -1.5354482 -0.46264982 -1.2916428 -0.93238074 -0.96390665 0.57194835 2.4374993 1.0725684 0.26214743 0.39579722 -0.5361612 -0.7464199 -0.77741104 0.5574739 0.64091 2.2475133 1.5596776
beige 1.9997319 0.8235372 0.08395991 0.42653936 -0.32620457 -2.309861 -0.8733528 1.5270213 0.12534651 1.7049606 0.26504076 0.7138605 1.9492321 -0.9825702 -0.72225094 0.48253492 0.34833035 -1.838833 -2.0279527 -0.24611251 0.4586488 0.15150212 0.21870048 0.9413516 1.1710535 1.1905994 -0.52284217 -0.51262134 -0.8127956 1.0601996 -0.97645104 -0.13975012 -0.8406193 -0.27355593 -0.6260492 -0.012345084 0.4740299 0.5632708 0.6360823 0.43635464 -0.34561157 0.2893919 -2.5900202 0.088363685 -0.77216786 -1.0951955 -1.0435644 -1.7513028 -0.8626632 1.352963
tank 0.93034893 0.5104054 0.12142283 0.5374298 5.87338 1.423187 0.7629209 0.77758455 -4.487235 1.7867342 -4.148454 -2.7900703 -1.6182362 -1.9867337 2.1760378 0.053972535 1.002057 -0.009065575 1.2764497 -0.36662686 3.134146 1.275023 -0.06284207 -1.2130848 1.5499414 0.06726523 -2.1401665 0.62279046 1.4611615 0.25876418 0.8940007 0.9427101 0.7635603 -2.7431443 0.6329366 1.1015506 0.541337 -1.6643163 0.76096445 -1.3408967 -1.0776823 0.59176654 0.7566692 -0.37134805 0.5810145 -2.6505115 1.3865557 -2.0297236 0.86349136 0.24421276
belt -0.7559117 2.2792706 0.6336318 -0.9870576 3.1201205 -0.58641917 0.13760772 0.26245785 0.8708596 -0.4807876 0.4157247 0.69134784 1.0565814 2.1868694 -2.0498004 -0.60106593 2.4468608 1.1572993 -3.1439571 -0.4353303 1.9149153 -0.9330537 0.1101556 0.81548816 0.30171943 0.21799624 -0.085491896 0.40141654 0.33808696 -2.2460217 -0.058052257 -0.6354776 0.6838631 0.6596187 0.17912275 0.8280316 1.3326085 2.139105 0.73104966 0.466976 0.8771901 1.8241218 -1.5274938 0.3247123 -0.06959127 -0.6899459 2.5289917 -0.46328947 0.4828784 0.10112435
away 0.5970034 -0.6108478 -0.5709079 0.6125503 1.0412257 0.1642557 0.7369942 3.2720146 0.7375134 -1.0137538 2.507859 -3.1142004 0.08055585 -1.3781804 -0.7264099 0.025855724 -0.9334526 1.4862233 0.29297343 -0.00040263633 -1.8592789 0.13905679 -0.95470047 1.653463 -3.3862333 0.801333 0.95754504 -0.795914 -1.250643 2.6070042 3.8771791 0.96127445 -0.42232078 -1.7753763 0.8139703 0.88769805 -0.85593843 1.7170173 0.35862446 1.1144886 -0.18996024 -0.5862134 2.508047 -0.81035924 0.13400377 1.5437868 -1.3176438 0.6914013 -4.017045 0.05969011
sweatshirt -0.002698504 -0.104517244 -3.0526433 0.26759538 2.81362 1.3703614 -3.6686003 0.6586641 1.8814548 -0.36864242 -0.44415107 0.16150133 -0.32654256 0.69968873 -3.8616242 -2.7065372 -1.9989064 0.3613541 -0.38026983 -2.3423545 0.91752726 2.4351468 -1.8213627 -1.128638 -0.33167496 -1.797052 1.955913 0.26823726 -0.30225182 -0.47678718 1.5932041 -0.44244877 -1.2704874 -3.0505242 1.5287644 1.2462754 -0.5206804 -1.1084582 -1.2705774 0.22434463 -0.892529 0.7262326 2.1366863 0.8097615 -2.799572 -1.0858043 1.2386473 -1.9876748 2.8436224 0.24087937
pulled -0.6019166 -1.5351772 -0.56690985 -1.4764082 -0.2193842 0.602322 4.0297804 -0.9136327 0.09452518 -0.80936825 -0.736151 -1.2101517 -1.2283778 2.1319401 0.60969234 -0.6965576 -1.1338398 1.8794763 -0.1000006 -3.0441916 0.49688894 -2.9419832 2.7148926 -2.4588017 0.5340686 0.0662486 -0.54628265 -3.1313765 0.885279 3.5776699 -2.196381 4.1937933 -1.1609639 1.9778862 0.1571788 -0.54405606 -3.956521 -0.59685457 -3.3036454 0.32991037 2.6987205 -0.17641817 -0.2292955 -1.4892815 -4.783873 -1.5170448 4.645313 0.6860927 3.4875517 -2.7070906
wrist -4.44063 4.5603266 3.903395 0.68481624 0.6174318 0.17409332 1.7682762 -0.16704558 -1.6456293 0.12528022 0.8062024 -1.7524371 -1.3827112 1.6135445 -0.3276972 -3.7684262 3.177821 -3.08026 1.8710216 -1.488837 -1.2842286 2.2120197 -2.5545485 -2.0427244 -1.634792 -1.7758831 1.2111493 2.6876655 -1.4320011 -0.5481104 -1.3149999 1.5215117 -1.4162112 0.4781184 -0.7480968 -0.021018682 -0.46895018 2.726964 1.3308867 2.0151594 -1.8549378 3.3724363 -1.992831 -1.8843699 1.754628 2.2589319 1.5941029 -2.721141 0.8224887 0.9199578
flops 1.168276 -1.8792413 -0.15853614 -4.6967506 1.4969985 2.3569665 0.68641895 0.6260678 1.3703033 -1.8741882 1.9500057 -0.9054031 1.543259 0.5739048 0.34583235 1.1714649 1.2442553 -4.3654337 0.6510593 0.918673 3.1360114 -1.0024204 -1.9797345 -2.9908655 -0.5234494 0.9481727 0.37319905 -0.45302936 3.1457164 0.93876463 1.46972 1.0919006 0.041601975 3.404619 4.5148697 1.3278158 -1.440807 -1.0824467 0.051942427 -1.4382886 1.2426986 -2.4255466 -2.3619368 0.85331583 -0.8975353 -1.9500078 1.1646681 -2.4888556 -2.6245086 4.5269847
suit 0.74687976 2.5633864 2.7590275 -0.663964 2.9184227 -1.5914627 -0.9739974 0.9651596 0.009715836 -1.3092269 1.8718873 -0.6887736 -1.1561109 0.39807236 -1.9259115 1.1952622 -0.28611895 0.8050623 -3.2099323 -0.900446 -1.6722527 -1.0430249 1.9099991 3.265913 -0.3168325 -1.1071146 -0.78227365 -0.0915589 0.56824696 -2.075452 -0.7149353 -2.7025173 -2.7710478 -0.099256754 -1.1290487 -0.14662746 1.923293 -0.6154959 0.058747534 0.8365879 1.8898888 0.57546127 0.4112468 0.51987374 0.18965977 0.082556434 2.1256688 0.3197923 1.3349371 -0.39275151
feet -2.167481 3.5502594 5.4707847 -1.2271832 1.443554 1.7482846 1.5206623 2.828929 -0.6426397 3.7219288 -0.49945536 -1.2152708 -0.2956822 -0.30136234 -0.29331717 -4.572971 4.090262 1.7512497 -1.6993233 3.6795027 -0.0051983483 0.05282969 -2.5330307 -2.3201857 0.16033499 -1.9589372 2.1394901 4.2622313 0.8726244 -0.123865336 -0.005969251 2.315664 -0.5750022 1.6425713 -0.24002348 -0.1473343 -0.9737244 1.8059884 1.5660727 1.4892853 0.5979617 2.9884288 -0.18009359 1.0265452 -1.5448557 0.3311264 -1.4173374 0.73085165 -1.2462949 1.9400465
small 0.59407735 0.453775 1.1307971 0.31725964 0.71686876 -0.96210295 -0.44792345 -1.2555852 -0.3282872 -0.007900663 0.14138387 2.6150792 1.0623122 0.06606274 -0.2472957 0.06265412 0.6920381 -1.6799798 1.566205 1.2099632 -0.6496596 0.17459375 0.85627174 -2.6712646 -0.06995135 1.8041711 -0.041938446 -0.69160366 0.16114324 2.1775246 -0.92936486 -0.59088343 0.990096 0.36046666 0.5769602 -0.43228716 -0.9808052 0.62328553 0.17939712 -0.059781965 -0.29856512 -0.45300043 -1.5549284 1.0153211 0.1061411 1.5445795 -0.581226 -0.3415925 -0.37658778 -0.2244546
strap -1.4765344 2.5233283 -2.4947944 -0.5444361 1.8541687 0.21201073 0.5046051 -1.0128509 1.6528531 -0.5232088 0.87764734 2.132441 2.4066658 1.3106576 -0.6833587 -1.8984834 3.10889 0.40682912 2.072386 1.2400298 -1.8114794 -1.0657399 0.17216639 -2.1117108 1.0315614 0.080256924 -0.12587924 0.04543913 -2.7216241 1.740887 0.78330463 0.4713142 0.64309216 -0.3033318 2.4926076 0.3239183 2.2362354 -0.5031896 0.094844356 1.2379658 -2.2062056 -0.35063425 -2.0529978 1.2815378 -0.68282896 3.1053174 -0.48081598 -1.2831172 -0.9715745 -2.1575692
tight 0.353946 -0.16777873 0.7383801 -1.1416111 1.3382579 0.31030458 -0.55270517 -0.09755316 -0.7989589 0.26456717 -0.5609384 -0.39541456 -1.3560704 0.31406832 1.2558036 0.28135005 0.1644175 2.0938869 -4.091277 -0.63623965 1.9972085 -1.1363003 -1.0934495 -0.95168054 1.559881 -0.37322426 -1.201518 1.5488857 -0.84334004 1.1425886 -0.61999017 0.034860983 0.8895107 -1.9137558 -0.56568414 2.3773606 0.5821137 0.4320159 0.09235473 -0.92501426 -1.4855782 0.7455743 0.28395465 -1.206116 -0.46258843 -1.969678 0.94221586 -3.3965383 -0.073872596 -1.0051508
along 2.7720296 -2.2840135 -1.0071943 2.0964737 -0.68588686 -2.7396262 -0.2767448 1.4958806 0.9237116 -1.3793448 0.27160966 1.9002783 0.85020596 -3.549781 -0.8412251 0.14642608 0.57716405 1.6188271 0.59978175 0.4213392 1.5678244 1.5429208 -0.96702737 2.14698 1.6995627 0.5004598 -0.5057636 1.4661019 0.56980366 2.573968 3.158415 -1.9431446 0.024586452 -0.88099194 -1.072165 1.2093121 0.74715436 -0.717071 0.70638883 -1.516555 -0.3867677 -0.005875662 -2.7439585 0.50359184 -0.9985299 1.4496902 -1.6238052 0.65354294 -0.10753686 2.691397
body 0.20596479 0.6364286 -1.4782397 -0.0961219 1.5409961 0.6415427 0.085975565 -0.6116606 1.732764 0.40444425 -0.5398336 0.20777044 1.6021317 1.9630586 0.19782588 -2.2684 2.1473167 0.979743 1.2142645 4.8799133 -2.8700964 1.7291987 -1.450279 -5.3978987 -2.4349215 0.21388759 0.6665264 -0.7734327 -2.3691328 0.69473886 0.41313037 0.8496144 -0.60441214 0.40863368 2.53225 1.0504186 2.423908 0.124356866 1.3219206 0.017102906 -0.99799883 0.7270491 -0.29124892 1.9121028 -0.7409832 2.6521876 -2.4865913 -1.0630049 -1.421581 -2.0430393
they -1.3513553 2.1964645 -2.7243977 0.13696875 -1.145494 -0.45376864 0.7880442 -0.79548347 -1.5077319 -0.0057256795 -0.029677935 -1.8852041 -1.4577234 1.3521893 -2.9834523 -1.0887893 -3.7737782 -0.7623198 -1.2525553 -0.41424686 -2.9128022 1.5736673 0.4880171 0.57922614 1.7763454 1.4855185 0.5062898 -3.05425 3.019779 0.36559844 -2.3792205 -1.9262221 0.9322972 -3.183031 -1.0946845 1.4431394 1.0732908 2.6125202 -3.9458663 1.1390498 0.6998818 -3.3617811 -0.38283402 -3.7900848 -0.25422373 -2.2577827 -1.4601849 -0.5080604 -2.0554564 2.1104362
slacks 0.44854018 1.1814244 1.5558553 -0.10965844 1.8048401 -0.78641266 1.2984236 1.5260905 0.23366737 -1.1748874 -0.92899656 -0.055076346 2.1511393 1.0588305 -2.9338653 0.27412495 -0.75355756 0.43524283 -1.9960922 -2.3126369 -1.2191764 -0.8903068 4.299526 -0.084368214 -0.29275826 -0.98138756 0.6060096 -0.24750493 -0.014195355 -2.6427758 -0.18564607 -1.2943773 -0.928681 -0.50427604 -1.8570493 -0.9670579 2.2017345 -1.3775839 2.439134 -1.1858892 1.4703081 0.39134985 -0.43200538 -0.20329052 1.0011877 0.30657378 -1.2631527 -1.2639831 -0.5845245 0.98747045
tie -0.38217133 2.0776277 1.7873076 0.2927967 3.0166478 -0.537065 -0.95612454 -0.7945508 -0.2500194 -0.21776359 3.0190897 0.060928408 -1.0890226 2.1899078 -0.49866444 0.35185033 0.496858 1.1676598 -3.3182554 -1.3717716 -0.266519 -1.6387678 2.0319126 2.5905278 0.3272661 -0.4631894 -0.94912153 -0.69029206 -0.12186495 -3.5201201 0.6900636 -2.0178177 -1.1609889 -0.1833163 -0.5978265 -0.89898425 1.7595212 0.8945693 1.2263073 -0.3406483 1.1676054 1.0906471 -1.69737 0.7734207 -0.75596744 -0.34915754 3.7682037 -0.09993502 -0.21631758 -0.3786248
haired 0.35507202 -2.0845625 0.88956475 -3.1645362 0.3771849 -0.42091286 0.16906156 2.567779 -0.34817106 -1.9307973 -1.133015 -1.8977768 -0.08755213 -0.3386057 -0.89642096 1.903909 -2.8607848 0.4233978 -1.0094647 -0.69905096 -0.383454 0.79505616 0.04766085 1.5637848 -0.46976417 0.21528749 -0.9160087 -1.7602848 -2.4065952 1.637707 0.71714765 0.121820316 1.3586584 -2.0333185 0.7231198 -0.8783459 -0.70686984 -0.7293857 -0.3150411 -1.535961 2.2829552 -0.54944134 2.082208 0.9865286 1.511907 0.48813963 1.4352366 0.14554168 1.4301587 -0.8016435
under 0.9900653 -0.42614582 0.24757993 0.87134665 0.4734262 1.3098655 -0.4731327 -0.14956811 -2.9237936 -0.0337204 1.9550128 -0.06290562 1.9377632 -1.5737935 0.74140364 -0.24662709 -0.021440223 0.09682991 -0.5460132 0.07168886 -0.07960007 -0.2840809 2.5061312 0.4893433 0.04768046 -1.6844871 -0.46297547 0.602731 -2.37662 -2.4822063 -0.5674232 -1.4035074 -0.5175261 1.2744433 -0.73784506 0.50255954 1.037887 0.59148824 -0.99312496 -2.343209 0.40879038 1.2706999 -1.9354075 1.3329606 0.5545154 1.7349215 -0.68737674 -0.69404966 -0.52011395 -1.0810612
print 1.3389311 -0.40012723 -0.8953894 -3.342859 0.78951824 -1.5616966 -0.2865005 -0.61090416 -0.22130115 -0.17171714 -0.9074042 -0.66120595 -0.22696963 -1.2327019 2.3069112 0.13984683 0.8787557 0.18686692 -0.9168016 -0.28726804 0.70139706 -0.62440884 1.458835 -2.6558974 0.7333295 1.2133414 0.09341103 2.581422 -0.32380673 -1.4584938 0.42720863 0.9879081 1.2541293 -1.0357542 -0.60944283 0.031583562 0.91760725 2.3508687 -0.10198182 0.06120442 1.119169 0.26357803 -3.3193924 2.0304558 -0.11362189 -0.27032268 -0.21025391 -0.8204233 -0.35579437 -0.7156904
some 1.3218988 0.38047037 1.1772646 -1.3434643 -0.43401393 -1.5821472 -0.63263094 -0.02041654 -0.5658751 -0.7511179 1.7264553 -1.5218182 -0.36099023 0.5323057 1.1748035 -0.976405 1.0982603 0.7882537 0.48027274 1.573247 0.77104896 2.0302835 0.24382602 1.0506757 -0.095740005 1.0537287 3.075245 1.6890539 1.4483136 0.025688097 -0.7062867 -0.25373966 0.8437301 -1.3486295 0.12646182 0.004610007 -0.636539 0.24456163 -2.3998225 -0.5837692 1.1343423 -1.2182531 -2.0603004 -0.6647806 1.3426666 -0.8643259 -0.7263426 -0.47240353 0.6743343 1.6939697
picture -1.9422656 1.7451808 -0.3568114 -3.8525836 0.53878427 -2.6604342 0.5128808 -3.0166848 -2.2932937 0.20787019 -0.29890317 -3.4650264 -5.451106 -2.4972486 -0.03494832 1.2994856 0.24060117 3.545148 1.3426566 2.6803052 -1.2100338 0.9183648 -0.63064516 0.25752792 1.0913607 -1.5533277 -0.787028 3.2418358 -0.64073706 -0.38633654 1.5187892 0.5381245 0.51440406 -2.3456898 0.54074204 -1.7292553 0.64741975 -0.1043071 -1.2064382 1.7955011 2.8059678 1.8188628 -2.2925112 1.0632234 -2.253917 -2.994636 0.11119809 2.024942 2.1064768 0.4446756
capri 0.269919 -1.7254813 -1.4247297 -1.8607584 0.96841615 -2.1671786 -0.28805432 3.2969546 1.3540746 -0.13016921 -1.3578851 -1.6259278 0.47232488 -0.1276667 -0.028282022 -0.9372813 -0.9976122 -1.8351761 -0.6990732 -0.5668066 2.7745597 -1.0505689 1.3048222 -4.031678 -0.44210157 -0.21420848 0.86621964 1.0776548 0.07397097 -1.9888198 -3.5684824 1.6859627 2.93881 -0.9163194 -3.579341 -0.85996 -0.9813499 1.9086552 -0.09616775 -1.7087891 0.06968384 1.0836736 1.3966932 0.20600006 -1.4503462 -2.7026453 -4.186381 -1.3079604 0.9639797 0.91842383
very 0.90785146 1.3288201 0.28017765 -2.246528 0.14600497 -0.72453284 -0.8323067 0.7865547 -0.45997632 -0.29059562 0.500436 -2.1316192 -0.5307353 0.9898597 1.0328305 0.5802451 -0.59402794 0.31541675 -1.0422683 -1.9893134 0.25334454 -0.612924 -0.105422385 0.018350443 1.1794614 0.42044446 -0.15348193 -1.6717708 -0.10627494 0.9551673 -1.3701509 1.4737564 -0.66815895 0.66270703 0.39855376 0.48036683 -0.5393566 0.20937346 -0.05128449 -0.28900144 0.39133367 0.021495894 2.113196 -1.2592176 0.8521996 0.0040340386 1.6027031 -0.20659432 -1.0923737 -0.43672684
shopping 1.2231524 -0.30261466 -0.62961155 -1.2239641 0.5283076 -0.71524256 -0.655472 0.044637308 -0.65450567 -0.8729063 1.6141322 3.0326912 1.2799376 -0.55846405 -1.9317044 -0.82979524 1.2708004 -2.2437372 3.1919308 2.5819392 -1.408022 1.2546852 0.6120164 -3.5169017 -0.53166187 1.2132597 0.90549594 0.09623994 0.47726017 2.1285157 -2.08372 -1.0069577 0.74905103 -0.12004625 -0.8941241 0.7896403 -2.2417207 0.5862138 -0.19485976 0.2951376 -0.1340475 -0.66222334 -1.4780881 2.053858 1.2195101 0.23884544 -0.49997237 0.455743 0.087196656 0.03796749
looks -1.6702408 -0.76476294 0.85156405 0.62275964 1.4473281 -0.7139767 2.061689 -1.7798198 2.5217922 0.6357424 0.10185679 -1.7954946 2.289516 2.4872751 0.23845242 0.16853835 -1.399667 -0.2902396 -0.013713779 1.9327098 -3.8316953 -0.2531606 -3.483108 0.847314 -0.17963119 0.1079109 -2.20557 0.73823786 1.3517793 -0.39970526 -3.613443 -1.0057845 1.1238925 -0.08480629 1.031948 -2.442671 -1.5925999 -4.1864347 -1.4586037 2.2436302 -1.1527382 1.6093243 -1.6760627 1.5710336 1.7196445 2.30288 -0.6840259 0.36007145 4.4096904 -1.398511
book -0.18011658 1.2379043 0.8913399 -1.3636979 0.4626249 0.13997114 0.39176676 -0.013612453 -0.26190323 -0.78833985 2.501321 3.2111316 0.41066068 -0.172816 -4.506912 -1.508292 1.0133795 -1.3805999 1.747724 2.3501213 -1.9854673 1.0791155 0.32003564 -1.5384239 -0.023291755 -0.27285936 2.958839 -0.4651607 -0.15355642 0.5594807 -1.3165913 -0.011933214 -0.687583 1.3712049 0.016234353 0.9460624 -3.3969412 1.0441883 -2.0111752 0.8738818 0.35918993 0.9049374 -1.4092312 0.26348603 -0.3556222 -0.77275836 0.32605714 -0.07380461 0.8729993 1.1742084
behind -1.0880504 -2.3086996 -0.69139487 2.0754871 0.17466313 0.028463665 0.68731093 -0.06740585 0.98521584 -0.946931 1.1232733 -0.9527547 -0.64182067 -1.445606 0.6449946 -1.8129977 0.8552448 1.2358762 2.0615983 1.6331329 -0.495886 -0.14969957 0.21844989 1.0253017 -1.7006876 1.0114626 -0.97529066 -1.8294076 0.6535399 1.46857 1.1194361 0.8215766 -2.1245506 3.1701076 0.33709022 1.3684822 -2.2810805 0.9106086 0.5316737 -0.022990476 1.2734793 -0.1397769 0.9570948 0.6993485 -0.61363745 2.876311 1.1734068 -0.7823996 -1.8859198 -0.2174061
dressed 0.468514 -0.5817732 2.4229743 -0.05699052 1.676131 -0.26484618 -0.86017627 1.3657705 1.4978215 -0.0010530236 1.2125578 1.521746 -1.7760845 1.754354 0.55249906 -0.19488661 -1.8224597 2.490172 0.5245859 0.27436194 -0.095674045 -3.7938836 0.8232448 2.5784404 0.85728765 -0.9267934 -1.100787 -1.514193 0.6471385 1.9486504 -1.8575493 -0.45762357 0.3277234 -0.8597883 -0.44004303 -2.3213768 -0.79636633 1.3323634 1.8087171 -0.6373412 -1.3558264 -3.5014722 0.8347604 -1.1360323 2.1690667 -0.4228412 0.03004884 1.5211499 3.5847528 -2.534048
camera 0.5272921 -0.12460975 1.071147 0.0119766295 -0.77223146 -0.3219532 0.035204317 1.118964 2.6945982 -0.6057037 0.9508277 -0.81402695 -0.29006407 1.5735146 -0.9645696 0.8633912 0.22133224 1.7717104 0.34881502 1.6119921 -3.2229033 0.591449 -1.0384564 1.6310139 -1.1252408 -1.1416615 -1.3134856 -0.25013518 -0.7158183 2.151291 1.5048052 2.003806 0.6626997 -0.068627924 0.17267388 1.0698041 -0.6151211 -1.219434 -0.29996315 1.8884301 1.9726326 -1.764107 0.92057055 -0.9852671 -0.5826178 0.02708418 -0.37724003 -0.84494406 -1.0248364 0.24629322
into 0.23927867 -1.1309421 -1.9415256 1.5221381 2.1449847 0.098790556 -0.6115514 2.0459588 -1.3511266 -1.4266155 -0.21162456 -2.2570007 0.40038687 0.011983815 2.4205189 -0.4409989 -1.3449526 -1.8328508 -3.2345817 -2.1803067 1.2364029 1.3847055 0.69021124 -0.87190926 -1.0843959 1.5731603 -0.859092 -0.26020142 -0.15101618 -2.0229087 -0.65108633 -1.7724996 -1.1752597 6.0334144 -0.8434407 0.96880525 -1.2104932 -1.9163542 -1.7950641 -0.8230745 2.5199165 4.55682 1.6345124 1.3493769 -3.1142278 0.31202725 1.9525398 2.1407204 -3.084173 1.8876066
umbrella 1.84264 1.0971172 -1.3240491 0.43390435 1.511014 0.04012501 -0.076908454 1.7618321 1.423863 -1.0632772 2.1993027 2.0564516 -2.3114426 -2.970974 -1.427914 -2.1692903 0.18149823 -2.4757478 0.043717902 0.4121315 -0.6813963 2.1749885 1.3579658 -2.28985 -0.38920316 0.10082584 1.7227627 0.6473023 1.1287006 -0.3023597 -2.025671 -0.71885806 3.3953538 1.2527332 -0.016905926 0.9485036 -1.9196134 -1.5491288 1.051355 2.5213566 -0.9047072 0.95868164 -1.0889288 1.9524279 3.1776822 0.44426554 1.5977117 -0.24864274 1.7271948 -0.88399523
both -0.7891309 1.1073797 -0.89377713 2.2960684 0.8357316 0.25246504 -0.59051645 -1.3410432 1.2661504 -0.09437352 -1.9617037 0.96402687 -0.73253685 1.4458586 -0.051397536 -2.419118 -1.1977412 -0.5644365 1.6073385 1.5519536 -0.46332526 -0.43507943 0.8657416 -0.6365139 0.813439 1.2018788 3.3629012 -2.4891574 1.9607887 0.81185377 -1.300617 -1.6958313 0.20921198 0.001865425 2.0674822 1.6416482 0.18603791 1.0850794 0.4025748 0.5973415 -2.1911569 -1.7956465 -0.269269 -0.4566742 -0.41788015 -0.033915803 -0.021346655 2.4616609 -1.7076292 2.751837
vest 1.1285809 1.3362324 -0.06361418 -0.771679 3.401984 -1.9314308 -1.270138 -0.5008407 1.4046446 -0.024856832 -0.21421456 -0.14000738 -0.14633402 0.636609 -2.6220658 -0.037321392 -0.6928169 0.8526353 -2.4832213 0.10594276 1.6695304 -0.83305246 -0.058055997 0.59364516 -0.96390945 -0.5400559 1.1347373 1.4104521 -0.03151611 -3.1324568 0.5877464 0.18465696 0.16015644 -0.873955 0.49670097 0.08455603 1.0728245 0.19656084 0.60904086 -0.26527894 0.94639707 0.6459149 -1.1488074 -0.061736047 0.503284 -1.6729977 1.1412235 -2.5217006 0.28670242 -1.2484974
have 1.543593 -0.8788669 1.0483632 -1.0681474 -2.255184 0.6308535 -1.099149 1.8381796 1.1504338 2.5523736 -2.2184305 -1.9217333 0.66275114 3.8641367 -1.0730656 -2.0957603 -1.9590929 1.0419984 0.3968256 -0.29602402 -0.5992311 3.0387175 -2.453148 -1.0920361 3.4270756 -2.263393 2.9617374 3.8166971 3.2368982 -1.4513079 0.8182235 -1.2091725 -2.9017482 1.6384183 -0.34654933 -0.14124678 -1.4187123 1.8277279 -2.1529758 0.85982 -0.37724805 -0.33449802 0.70602816 0.40875912 0.059612393 -0.032957304 -0.5737545 0.21847577 -1.7842511 -2.5827327
pony -0.9031921 -0.7868761 -0.22753283 -2.6542444 2.01808 0.7453738 -1.6946563 0.07724957 -1.1964616 0.6468484 3.009824 0.73561335 -1.3426255 3.6424332 1.101729 -0.21640685 0.4157585 2.232878 -1.298886 -3.5814424 0.024842637 -1.1426353 2.573062 -2.8146172 -1.6435087 -0.7130436 -0.88397133 -0.027155673 0.32508257 5.531838 -2.257461 3.2828712 0.539278 -0.98765373 -0.24551344 -2.8012195 -4.7854257 1.1357563 -0.29492036 0.18688992 2.4090836 -1.1084968 1.5393192 -0.024636801 -2.1539934 -2.2015803 2.5460637 3.6812763 2.506019 -3.3035498
heels 2.114002 0.012390208 3.620595 -1.3050821 0.737954 -1.1310886 -0.36717954 -1.0586225 1.3467777 -2.2806103 1.5886678 -0.3237603 1.5737222 -1.2272068 1.6374143 -1.2807118 1.8656094 0.54628056 -2.1100926 -2.5577466 1.3851306 -0.12820224 -1.037443 -2.846045 0.009515056 2.1780717 -1.163978 1.0902516 0.72987026 -0.053790182 -2.885521 -0.33547577 1.6606607 0.23466629 -1.4179716 0.9598348 -0.11862404 2.2730577 -1.08088 1.882302 0.113442875 0.0997666 -0.43005913 -3.0623765 -0.3354249 -0.9368323 4.2298245 -0.7765365 -2.284957 0.3592296
flat 0.48896912 -0.3446557 -0.5072509 0.60541695 1.3715253 -1.8637277 0.41656563 1.5379112 -0.42409655 0.5968949 -0.59764475 2.0420892 1.8856691 -1.0238994 0.08144915 -2.2302241 0.910011 -0.9650191 -0.62967265 -0.6003564 1.2744268 -0.71833277 0.3151923 -1.9398701 0.7960738 1.9192584 0.7035608 0.7021017 -0.3352044 0.18337852 -0.18710667 -0.3716245 1.8192103 -1.0681463 -1.2530377 1.4868649 0.78479093 0.40988842 0.42866495 1.9635966 0.51241976 0.22893763 -1.2835494 -0.26340774 -1.8820095 0.30439585 -0.16088739 -0.79020774 -0.40181005 -0.11084572
forward -1.7952589 -1.0024093 0.36953238 3.201539 2.1658103 0.23787221 1.9006397 -1.0823979 1.7249573 -2.6258807 2.9695663 -1.3492423 -0.12032752 -1.6292118 -0.24857469 -0.3838075 -0.9941348 0.6452058 -0.54195315 1.8416351 -0.40319633 -0.6602072 0.40636095 2.4621832 -2.176063 -2.1450343 -1.3709506 -1.3048474 -1.0713172 2.0287988 2.9435356 -1.5439166 0.21439989 -0.04395752 0.4619401 0.12528622 -0.094855964 -1.1314805 0.6905949 2.2372077 -0.7916064 1.3634975 0.8270501 0.27736807 0.7779498 3.8271713 -0.29538018 0.3826579 -1.22041 1.708089
knees -0.81672513 0.37868685 2.705618 -1.5614312 -0.5051635 -2.6972706 2.0736601 3.565344 2.4790757 2.9330032 -4.924121 0.98839855 2.8589242 3.394501 -0.48939058 -1.9088372 2.3762562 2.1911108 -2.088394 -0.7414434 -0.71111053 0.59501266 -1.8337765 -4.122229 -0.778838 -1.9575816 -1.6496379 2.5719073 3.1580393 -0.59132165 -0.54401696 -0.90726286 1.8706092 2.749896 1.2302634 0.798455 0.4947557 -2.1390297 -0.19075811 2.2023175 0.29154742 3.1956203 -2.0057852 0.054173466 -0.31315356 -0.04849526 -2.1240528 1.0982141 -0.9656085 -0.158262
asian 1.0554647 0.41345447 -0.17706108 -2.5872157 0.51670235 -0.74540424 0.19979234 0.6964526 1.129725 0.044726174 0.9744772 -1.4427813 -1.0385678 -1.2477487 1.3424084 2.25315 -3.0436993 -0.16759858 -0.78242177 -0.3392338 -0.11378668 0.055525463 -0.8828911 0.33873373 1.3908949 0.12851223 -0.7521845 -1.0050486 0.43201432 2.3398275 0.022296507 -0.8665802 0.4668679 -0.041825805 0.43408036 -2.0728958 -1.3953646 -1.8808502 0.39183328 -1.5080914 0.8002442 0.44617096 2.6348712 -0.3581736 2.197641 0.18175876 0.6644916 0.4306491 2.0444007 -0.6552722
tail 1.5367427 -2.6052697 0.53187734 -0.32770732 1.081264 0.221502 -3.2757483 -0.640417 -1.5950297 -0.8793093 1.7772267 -1.8983992 -0.5371003 0.37488988 0.24796642 0.09216946 -1.1090249 -0.52229476 -1.3731145 -2.1058035 -0.45248252 -0.21022935 4.235774 -1.6424409 -1.8834033 0.37890464 0.8411232 -0.88919973 0.7247149 1.2476604 -1.3961151 3.147284 1.23482 1.6451682 -0.47056615 -0.032216817 -2.1933732 1.7089974 0.3555434 0.37075394 2.7546172 -2.3039947 -0.18566841 0.5186927 -1.7041986 -3.4386818 2.9963639 3.286672 1.323441 -0.8038686
waist -0.60996366 1.3333436 4.1716576 0.023960834 0.628014 -0.89245963 -0.62602663 -1.454701 2.804197 1.6551439 -1.3273652 0.15756446 1.8616565 3.0773852 1.3287089 -1.6751397 1.5792763 2.6674674 -1.8360863 2.6151545 -1.4201491 -1.1849929 0.7251669 -3.2855024 -2.2396564 0.35679334 -0.930974 1.7721703 -0.2148969 -1.0802748 -0.69606215 -0.7344935 0.13496834 2.049186 -0.050578237 3.3864274 0.5148494 -0.5025086 0.59808815 1.6741372 -1.407996 3.0064306 -1.9844764 -1.3887292 -1.0097625 0.8489424 1.0607142 0.42358226 -1.4750183 -1.3833513
hoodie -0.10018247 0.29763955 -1.1468788 -0.49406046 1.0380343 0.36792108 -2.6255598 1.0986124 0.5134013 0.47196817 0.08019826 0.36792457 0.6492095 0.102052115 -3.0443335 -2.165107 -1.6251673 0.43592346 -0.14361086 -1.4196603 0.47351086 1.4381182 -0.8346502 0.35511833 0.40255904 -1.0781492 0.5771324 0.00048087013 -0.35421276 -0.37116897 0.20599224 -1.3548917 -0.3215454 -2.582388 1.340602 0.6376711 -0.27496797 -1.4718841 -0.73908186 0.26504102 0.13679855 -0.18371928 1.3240618 0.027019668 -0.8187278 -1.2412919 0.61668235 -1.071513 2.4474342 0.8587544
design -0.32526615 -0.25547507 -2.124137 -3.1182551 -0.4024096 -2.9183629 -0.120934285 -1.3455768 -0.26821947 0.36087167 -0.35307738 -1.9589992 -1.6889238 -1.9371523 -0.8537227 -0.6241869 -0.14084148 1.6271653 1.9482536 -0.053237204 0.46539423 1.9212289 1.1681646 -1.2782605 1.5697633 -0.6090213 -0.031531774 1.0841511 -1.3123114 -2.8099403 1.7284408 1.4006637 -0.26043168 -1.1735097 0.87089 -0.4792639 0.39242887 1.3639156 -0.94273585 1.1889087 0.92329645 1.5328492 -2.920407 0.7033211 -2.3061278 -1.4436331 -0.75601923 0.98372245 1.1734216 1.6156735
patterned 2.0775042 -1.5302846 -0.6710786 -0.95952183 -0.11147852 -1.1277579 -0.62533486 0.65639496 -0.5052577 0.31319442 -0.49959686 0.10865287 1.335299 0.106138915 0.8931588 0.21577768 -0.26495457 -0.8015342 -0.9383267 -1.4950194 0.04427025 -0.6756816 1.3827194 -1.0185288 0.7418291 1.1963421 -0.31751177 0.7437272 0.056292485 -0.79989237 -0.1574232 -0.30338135 1.637481 -1.0419848 -0.349391 0.71871626 0.037978955 1.6358463 -0.3514127 0.6166129 -0.0022465156 0.09351101 -1.1150225 0.5874233 0.43867335 -1.4892368 0.14157358 -1.617415 -0.71032107 -0.05304049
cap 1.1940519 -2.1660306 0.71700674 -0.2502997 0.54283863 -0.25803825 -2.7015862 -1.5202501 2.2412283 -1.3980408 1.687878 -3.2607305 0.87992144 -2.584243 -2.538777 -1.063687 -0.49339834 1.0776631 -0.46749172 -1.1797979 0.074777015 0.780095 1.1440313 2.0545297 0.5278775 -1.0971476 0.63241404 -0.87381923 0.23505296 -2.3802574 2.7010999 2.5429406 -0.8476014 0.1979021 0.042807404 -2.0919075 -0.47726786 0.5830195 1.6178705 1.0911887 1.3363212 2.0723455 0.7528573 0.89500296 0.5954868 -2.3162131 -0.36884132 -0.4266105 0.19149414 0.63675964
underneath 1.4525932 -0.05544995 0.8739999 -0.14236663 -0.77789545 -0.7309974 -1.184696 0.59455854 -1.8824227 1.2623693 2.7531457 -1.8505268 0.59792894 1.0176494 -0.7520307 -0.19615157 -0.7443935 1.4454793 -1.8033786 -1.5101321 -0.7275066 -0.02918538 2.5379746 1.1337309 1.3191655 -2.0194163 -0.4688898 1.1848109 -1.8382286 -3.6691394 -0.51774985 -0.7478729 0.09584371 0.69602156 -0.98260784 -0.032325417 0.7710248 0.73419887 -1.707567 -0.51722527 0.15871799 1.4239897 -2.0198324 -0.9428285 -0.3821781 -0.6136342 -0.645165 -0.22137456 0.34106568 1.0386503
