6479 50
a -0.24038398 0.32659867 -1.5252607 1.1900716 0.6666053 -0.8730883 -1.3747314 -1.5890415 0.6274078 0.17182785 -3.9507496 -0.26900578 1.075307 -0.80991817 -1.4037669 -0.70487744 0.072445884 0.8928519 0.43450388 -0.46765453 -0.33439925 1.7683479 0.16885237 0.8973071 -0.43817577 -1.1085469 -0.16282474 0.23571908 0.56971157 2.2229078 -0.19823082 -1.1654737 0.40542555 0.23754744 -1.1055666 -1.5210743 -1.922438 -0.9065356 -1.4453745 1.6523721 0.17333224 -0.3231404 -2.3726037 0.15731414 0.48079175 0.010148845 -0.37221608 0.63716006 0.8858626 0.69998956
and -0.9071933 -0.33140695 -1.9898547 1.126794 0.17348768 0.3619021 -0.6784591 -1.4111649 0.7319537 0.42433634 -3.6054547 0.44332907 1.0994517 1.3762227 -0.49265763 0.040562704 -0.6253736 0.76641613 -0.099629894 0.4683212 -0.63035744 1.4928653 -0.15662909 -0.86498064 -1.1200979 -1.523111 0.41720238 0.92059004 1.2383368 1.630631 -0.2450546 -0.4077826 2.4016113 0.54743737 -1.3512965 -0.89558876 -1.4810315 -1.7245263 -2.7001102 1.6902878 -0.5899901 0.74779433 -2.4853802 0.32267454 1.8990889 0.0062212786 -0.71892244 1.2523452 0.6404288 0.20429668
black -0.49415183 -0.7076477 -0.42633778 2.15727 0.8561017 -1.5289608 -0.0396123 -1.1173275 1.9978621 0.6666146 -3.064153 0.5304263 0.049004577 -0.3756288 -0.5926178 -1.4897429 0.13736792 0.39694387 0.4710968 -0.72145325 0.34738103 2.9255323 0.27418235 -0.5904086 -0.4820961 -0.9328662 1.0992217 1.3992175 -0.43568957 1.1210988 -1.418738 0.29155162 0.7395423 0.44995934 -0.40520057 -1.5289376 -0.9774221 -1.394202 -2.3201516 1.8690815 -2.6483645 -0.4523142 -1.9557134 -0.44866022 1.692211 1.2013972 -2.4979403 -0.53969157 -0.5567992 -0.08740563
is -0.17127264 2.8000607 0.35413045 0.04096957 0.40085065 2.566358 1.3417091 -1.3064249 0.20579307 -2.2586312 -0.9159401 -0.55376863 1.2372655 1.2443881 0.7788976 -1.7702975 1.1703976 1.4356889 -0.2191165 0.63870865 -0.99994487 1.0085777 0.45792088 -0.64068836 -0.4106119 -2.5770617 0.48052517 -1.443427 2.478185 -0.38713002 0.25293276 0.08083075 0.91154814 0.7206583 -0.5062752 -1.4292759 -0.33602786 -2.4378088 -1.2300141 2.4322338 -1.0666565 0.17161508 -0.46636933 0.29543555 -1.3951163 -1.0982016 -0.25632372 -0.9073023 -1.0224231 -0.66666853
wearing -1.3637272 -1.7262841 -0.77246976 -2.332394 -2.3956177 -0.8723621 0.6606379 -1.1271281 0.16005825 1.4108975 -2.057841 0.58283234 -0.032139648 -0.58502364 -0.86540645 0.07160894 1.3425444 -1.411697 -1.8381212 -1.2146308 0.40600774 0.21347599 -0.58602893 0.44516125 -1.8582911 -1.1872293 1.3627517 1.4973687 1.5437231 0.7123769 -0.10459277 -1.6783848 1.8599623 1.5655452 -1.5547361 -1.5695829 -0.34216428 -0.62061363 -2.6103556 1.88921 -1.3942497 1.9876329 -3.4518962 -0.5994524 0.7418835 0.7097034 -1.0957177 -0.983721 1.5802044 0.29853606
shirt 0.50246036 -1.0959337 0.74657 0.3610941 1.7182455 -0.8061628 -1.7872103 -2.746486 -0.28049952 -2.437149 -1.5314267 -0.846764 -1.2276471 0.9089864 -1.7143153 2.4483683 0.6620737 0.0070796967 2.8155763 1.5080678 -0.2284009 1.9701416 1.6829759 2.161118 -2.295959 3.1389658 -1.3373878 2.3870506 2.221647 1.2148312 1.4805732 -2.6382701 2.602457 0.07269632 -1.8928498 -4.0282383 0.1223205 -1.9287694 -1.0555104 1.0425075 -1.6052761 1.6079123 -1.3151888 1.0819441 3.47494 -1.4555719 -0.80040735 -0.64955866 -0.31076995 -0.6565606
the -2.4271102 -0.04475787 1.4098217 -0.8411109 1.6447201 -0.26774433 -0.30375704 1.3981405 0.17971544 -0.3953041 -2.7208607 -0.5250213 -1.3794498 -0.937261 0.06995532 2.2281826 -2.6279092 -0.19772194 1.1676638 0.6278686 -2.4831097 2.1403415 -0.8904166 1.0590365 -0.2739664 -1.5113747 -1.038115 -2.4408624 0.8909074 1.3239096 -1.1011398 -0.9765846 0.4574564 -0.07015139 -0.9788993 -2.268726 -1.1926224 -0.211645 -1.0331271 0.50315696 2.5380902 0.80998427 0.22577299 -1.7473954 0.66568124 1.0625964 -0.75764775 2.1781442 -1.605153 -0.27219018
white 0.41247636 -1.106084 0.38987613 2.1805449 -0.15508342 -0.7658395 0.098430745 -0.31346697 2.8545969 1.0322936 -2.7800932 1.5654817 -0.042480383 -0.51444656 0.21845822 -1.105935 0.9409974 0.21742108 0.87000304 -0.5140583 -0.3741514 3.0729663 1.0735371 0.10579513 -0.8998394 -0.096010424 0.2684162 1.3041307 -0.8591859 2.4048476 -1.0451765 -0.25685048 0.22026826 0.11008281 -1.6099123 -1.8730999 -0.41951385 -2.034496 -1.8572319 2.032208 -1.5034655 0.31196034 -1.9722303 -0.2378192 1.1939919 1.7819723 -1.7648956 -0.018410785 -0.25311753 -0.18534367
with -0.94145983 -0.37926137 -0.19460115 1.1632501 -0.42136624 -0.17339288 1.7022073 -1.8038769 1.4944793 0.94855124 -2.002068 -0.9190366 -1.5555342 0.6697314 3.1653986 0.20132418 -1.0356526 -0.21636546 1.3534819 1.4712126 -0.71102285 1.3252041 -0.05768482 0.47974503 0.07597136 -1.0715668 0.6263966 0.26835522 1.2405739 1.3138344 1.3057925 0.9560098 1.7326229 0.0402473 -0.10628548 -0.9976026 -1.3514919 -1.0451092 -3.3178725 -0.7928156 0.6303387 1.9656701 -1.9490076 -1.0139401 -0.5712359 0.1533971 -0.26305178 1.3833587 1.4368974 0.33045444
shoes 1.0335981 -0.7089586 1.4152592 -0.071389526 -1.578216 0.7156325 -3.6842294 -1.599837 0.35673183 0.98706305 -2.7392046 -0.8547709 0.26638827 3.4531848 -0.5902496 -0.99670047 -0.16029462 2.5020614 0.06302332 -1.6988144 -0.49642938 1.1361003 -3.1978498 -1.2633052 0.48013934 0.56648165 -0.70555294 1.4101074 -0.7179512 1.4484293 -0.49515218 -1.2582942 0.42286763 -2.3684363 -3.2798004 -3.6405313 -2.121704 -1.569258 -2.8115659 4.097962 -3.0903246 1.058295 -4.1698194 1.7663101 2.6665661 0.94066244 1.8413229 -0.66253644 3.3612933 0.32168555
man 1.697462 1.5544018 -3.4365394 -1.3831569 1.4671724 -0.85894644 1.5949563 -0.43058133 -4.0807185 -0.29186422 -5.7409067 1.9225255 0.51511014 2.8714337 -0.23602039 -1.7266201 1.4934492 -2.1176977 2.8815744 0.027544474 -1.4647632 1.2871642 -0.56719804 1.8717363 -0.591088 0.85902107 -1.275458 1.613965 -0.9585291 1.3849249 -1.292839 -0.77759016 -1.527167 0.91228694 2.7683659 -3.0199897 1.8873916 0.52012074 -1.6212566 -0.2949919 -2.3278491 3.4541302 -0.13776815 -0.5163094 2.557455 0.48135757 0.5761396 0.1635651 1.495795 1.3731862
of 3.9414902 -3.603807 -0.038144488 0.92166245 -3.2222586 2.2733428 -1.9263473 0.21896017 -0.62639964 0.3284167 -3.6571524 0.68637276 -0.3715615 -0.3136784 -1.2921138 -0.10024434 -0.8976882 -1.5951595 0.96501917 0.16085638 2.5280774 0.910844 -0.65630704 0.09068627 1.9333458 -0.4221628 -2.641283 1.6563102 0.17010133 4.48691 2.6030052 1.5713453 -0.49248198 1.3285348 -0.9597895 -1.0887719 -2.702158 -0.54723394 0.80402404 -0.6308021 -0.542912 0.46160182 -0.62138075 0.06382194 -0.15429273 1.7960998 0.059074078 -2.1603782 0.8831694 -1.1319058
has -2.6659994 1.1938045 0.8802277 0.118292905 -0.27282768 0.12026424 -0.626128 -1.3347127 0.527918 -2.0433545 1.4187344 -1.4069569 0.48443314 0.03876356 2.9932334 0.21656567 1.4086109 -0.74305546 -0.007788956 -0.37890244 1.090958 0.30946228 0.36074394 0.02555687 -0.25318983 -2.2420008 0.8863838 -0.39376318 2.8016212 -0.14892769 0.9516869 1.3375769 1.8412614 -0.058732033 1.7130462 -0.90065867 -1.3889338 -1.7104899 -4.7879577 -0.5342962 -3.374959 0.06313752 -0.27193272 1.6826456 -1.0198504 0.726661 -1.3524797 -0.30328023 0.7245454 3.143028
pants 1.0972182 0.6343348 -0.9502182 0.16213617 2.711211 1.8226832 1.2379003 -2.058944 -0.31967863 3.6243691 -0.88597995 0.9096374 0.6576551 -2.6107647 2.6615856 -4.4320784 1.75522 -2.0040662 -0.25881207 0.08262635 1.4062674 0.8715517 0.5044969 2.0155032 -1.962497 -0.7363587 -0.5791778 -3.2387142 2.2969012 0.4372682 -0.34893328 -0.6713601 1.7235456 1.6653136 -3.1787257 -2.1947167 -1.044833 5.389605 -1.3047781 2.7902095 -0.25529844 0.864985 -1.3065381 2.0205288 1.8620564 -0.9122239 -0.1467598 2.3706074 -0.43004343 2.0816183
he -1.368421 2.949962 -2.4458582 -0.453663 2.1155279 -1.340103 -1.8662251 -0.98564464 -2.0199509 -2.7334125 -2.3811405 3.0005686 -0.96446276 2.880555 0.067831226 0.041849665 -2.1556854 -1.2970966 2.0212138 1.5201429 -1.1899635 2.2070448 -1.0486054 2.0203166 -0.43980318 0.2426333 -0.6358329 -1.1916653 -2.955333 2.064983 -2.1007407 1.7824239 2.2127979 1.7434584 0.4330539 -2.0057611 1.5069534 1.7396636 -1.7638007 1.8164827 -0.60831636 4.8523645 -2.7428536 -0.86929405 1.7071491 2.3099964 -0.81734914 0.18177131 -1.4924968 -0.15762013
pair 2.2653143 -2.9738166 -1.3741602 1.6824003 -5.3187623 2.712338 -0.48966345 -3.564316 0.8953581 0.4627628 -5.715816 -2.249196 -0.71770144 -0.6767175 -3.9317565 1.8503758 1.6266294 -3.0540936 1.9553696 -1.5407468 1.1974227 4.444881 -0.93415797 -0.35735312 1.943472 0.7380884 -1.7239267 1.1768861 0.98482966 4.125703 -0.10661343 -0.1673147 -0.9952233 1.1242605 -1.7150284 -1.351694 -2.7198987 -0.7837997 1.4461217 0.98619014 -2.4671392 0.009323769 2.2000837 1.2950424 1.1787804 3.6749961 0.7300943 -2.0078897 2.777537 1.820144
dark 0.03497356 -0.07184358 -0.6541258 2.193595 1.3503522 -0.90996575 0.61139214 -1.1829993 1.5488875 -0.5071368 -2.1871855 0.84105015 -0.55942327 0.068345 0.48278287 0.19182564 -0.8791665 0.9658154 -0.0485894 0.42710057 -1.1185559 0.93863904 -0.8841314 0.28650126 -2.8995574 -2.9828396 -0.79322946 1.1100756 -0.08109278 -0.6242078 -1.1198124 -0.4493608 0.06576502 1.0843034 0.41205513 -2.351503 -0.70014876 0.118550986 -2.6140819 0.8605341 -1.7772819 0.5817493 -1.663877 0.0044940696 0.57215536 1.1614056 -1.7396157 -2.2633152 -0.80944324 1.1396165
she 0.12406612 -0.6225476 -1.3339058 2.2899554 1.111158 -1.4233482 -1.0964102 -0.22698052 2.207831 -2.507132 -2.7183385 0.04266544 1.1822186 -0.83125967 1.6015929 0.82991785 -3.6936703 3.621539 -0.66324556 0.09491831 1.082839 -0.83305585 0.95099294 1.4263535 -1.2666644 -2.3293116 0.83814067 -3.9605725 1.1023712 0.4864494 -2.7564056 0.96993965 -0.7956864 1.1979554 -3.3047166 1.1502138 2.3043141 -1.9340637 -0.09266773 -0.252812 -1.0944378 2.4197419 -3.4569602 -0.45220065 1.0881168 2.3153288 -0.61795044 1.7615101 1.5131757 -2.0372303
woman 3.0650241 -1.3066784 -2.6656773 0.9996055 0.29646376 -1.1499641 2.28986 1.0337955 -0.79877305 0.6015462 -6.1017513 -1.3689775 2.264945 -0.2683596 0.35892218 -1.1218742 -0.02617299 1.6548233 0.5030614 -0.8124649 0.4138534 -1.2180408 1.179315 1.6658705 -0.965527 -1.1633832 0.11795658 -0.55028117 2.475846 0.26349047 -1.4245751 -0.96485513 -4.407046 0.09287492 0.5086761 -0.8421152 2.3716874 -1.6562135 -0.6447536 -2.5940385 -2.7086077 1.6104301 -0.50514835 0.6295805 1.6743776 0.13943276 1.2247859 0.7234791 3.5433455 -0.5679083
blue 1.835915 -1.3358877 -0.7184636 -0.7186113 0.22079884 0.0880719 -0.5888311 -1.4718189 2.9872932 -0.24115191 -2.8765066 0.4769876 1.6845007 -1.6938978 -1.6238544 -0.4304207 1.2465024 -1.0100292 0.10633814 0.85094863 -1.132363 3.0718265 0.6744411 0.3386057 -0.43732676 0.16592632 -0.18796265 2.074137 -0.5165498 2.0963664 -1.8189956 -0.052382827 1.8739705 0.035446756 -0.95493233 -2.9581246 -1.0199399 -2.7437801 -1.8875343 1.2547226 -1.6387405 1.6428181 -2.3721511 0.26041517 -0.9555961 0.9751072 -0.46122697 2.170316 0.036612097 -0.19037013
hair -1.4644053 1.8918927 -2.397409 -0.8258372 -1.124092 -0.16720805 1.5332153 1.21787 0.83828205 -0.687466 0.39204392 -4.364977 4.1823335 0.2564963 2.322861 1.268103 0.13861696 -0.78149545 -3.2392347 0.53198373 -1.15904 3.015018 0.2729942 2.9084508 -2.0199668 -0.568701 -0.9264301 -4.0412145 0.09777907 -2.1254363 -1.9502674 -3.611634 0.98259735 -0.47980818 1.3636377 -0.9038662 0.7575521 -0.531795 2.0268662 2.3027446 -1.0265704 1.6474043 -0.687201 2.0044298 2.1172235 1.7902844 0.0025626882 -2.9289215 -0.017155958 -0.69378346
on 2.0412662 0.33354124 -2.8480575 -0.101705745 -1.8238256 0.8094472 0.43825263 -0.5832501 0.33267865 0.7562285 1.0455917 2.051587 -0.11779809 0.7568775 0.13554296 -0.9506277 -1.0209388 -0.8598364 -1.7256833 -1.0183656 0.29716247 2.4476304 0.72900647 -0.9527953 -1.1464328 -3.5569742 -2.340841 0.9819375 -0.2637161 -0.38099447 0.6105926 -0.6671223 3.3329728 -1.395193 -3.1746962 -0.6193707 -1.8640045 -1.8641467 0.34372726 1.0483618 -0.50784576 -2.214031 -3.5023935 -2.0144255 2.2519126 -0.11592696 0.7257367 0.55948603 -2.4394214 -2.532072
short 1.1049346 1.3888447 2.0682225 -0.5507391 4.5581574 -1.0130659 2.0906563 -0.27582055 -0.6652483 0.7812595 -2.0583348 -0.50153315 -0.3407044 1.1428167 -3.0760393 -1.2503078 1.0865167 -1.056872 1.2020433 -2.744282 -2.809079 -1.7272437 0.8880231 1.6771742 -3.3880448 -1.825972 0.12337468 0.6496389 0.68981606 0.31039107 -0.6830193 0.08769703 2.5042276 1.5607166 -1.9960982 -1.0979539 -2.6906748 -2.513531 -4.336393 -0.31031644 -2.2387228 3.6843507 -0.8937543 0.021358974 1.7518106 -0.12356 0.8081758 -0.14831935 0.63649994 -1.7326273
her -0.53938717 -1.7293777 0.60352606 2.2431443 2.053306 -0.6830698 -1.977503 2.1251938 1.4809446 -2.6963654 0.97263086 0.64672494 -0.9986917 -4.0360165 -1.3212554 2.9360604 -3.4636047 2.6784635 -0.4250268 -0.25650993 2.015696 -3.7885275 2.8295426 -1.602988 3.0945842 -3.9936957 1.0324911 -3.7984555 0.002390582 3.29021 -2.3349273 -1.5054628 -2.389495 0.13150182 -2.660539 -1.4967335 0.9016111 -1.4604423 -0.8790577 -0.42622116 -1.4030068 -3.0897286 -0.64379966 2.2324045 0.26739845 -0.108795956 -2.5156417 2.3363128 1.4896579 1.3581351
shorts 3.3356853 1.7827657 1.1239309 0.61553454 1.3864497 2.554848 -0.10008624 0.70026654 -1.9513564 2.6585054 -1.4042927 0.44044626 -0.9307496 -2.9803245 2.9967396 -1.5656276 2.3341086 -2.581005 0.2036517 -0.5784815 1.3173959 1.7110333 1.4306227 2.3614962 -2.9741325 0.06762758 -2.3007197 -0.5011862 2.0852785 -0.18674588 -2.0320284 -0.6448032 4.519656 1.6356869 -3.3223085 -0.7660158 -0.9666111 5.1303325 -0.96535975 4.076814 0.3938708 2.1426046 -0.16260038 2.4550252 0.87101966 -0.44872275 0.36114395 4.5915046 -0.7207506 3.0696268
in 2.5811262 0.5729996 -4.8832293 2.0739625 -1.2832536 3.1547427 -0.5685222 1.1021281 2.3674295 1.3937762 2.042693 0.95146674 -0.83979994 1.3698123 -2.4114041 0.96244025 -0.3301962 -0.06323765 1.5773746 -0.6336013 2.0297663 -0.5561944 -0.0754697 -0.10783412 -0.7502967 0.15417816 4.572307 -0.23743528 1.1383442 1.2400092 0.55086166 0.20384169 -1.2912321 0.4957219 -0.69048554 -0.8602236 -2.4158905 0.8157153 -0.4467767 -0.23733237 1.5406382 -0.15152921 -4.1821346 -1.5841517 -1.533502 -0.30501145 1.1547781 -0.034128852 0.27127078 -2.355972
his -2.1341782 1.8990113 -1.646388 -0.2865344 2.209061 -0.2696578 -2.4635644 1.5008607 -2.2406676 -2.844876 1.2796669 3.3445756 -3.2953832 0.03526905 -2.3139694 1.650429 -1.2333312 -2.0402863 1.3845471 1.4807092 -0.73647964 -0.4596619 0.30435276 -1.6838335 4.018543 -1.2511661 -0.44483915 -0.9948781 -6.017914 4.643514 -1.4768213 -0.320553 1.0927261 0.47111946 0.8958631 -4.1449656 -0.07419517 2.5143368 -2.72858 3.1119332 -0.77310216 -0.6469683 0.04594515 1.5013119 1.2467892 -0.058172088 -2.595937 0.5251673 -1.3575321 2.9007113
carrying -0.86562043 0.15525492 1.0864654 -2.360994 -2.3374615 0.2340685 -1.6933179 -3.032629 3.216233 -1.1681174 3.9615312 1.224328 2.0047657 -0.93855584 -0.33899194 0.48503664 0.9426319 -0.9613144 0.020799492 -2.1932187 0.21830602 -1.5298942 1.0421133 -2.155356 -2.3582451 -0.67872775 -0.21698898 0.13135947 1.9986867 1.0928097 0.27824578 0.8600331 3.0526578 4.380067 2.4164884 2.3662145 0.55816656 -2.7539597 -1.3128215 2.560768 -2.7388146 -0.5294967 -1.9497863 -2.4857304 4.0836678 3.5513377 -0.24224813 0.3192135 1.7330643 3.7951133
bag 1.0388293 4.479669 -2.5827782 0.9757244 -0.0301654 -0.68500966 -2.924691 0.26014397 1.1302363 1.8408892 0.5824542 -1.5603244 1.6325095 -1.4661794 -3.1526043 -0.5541859 -0.33830202 3.744255 -2.0858133 1.5206792 0.31937838 2.2341545 -3.6410038 0.6732734 -1.102925 0.8792159 1.2046567 0.30007818 -0.919081 4.1110606 1.4505827 -0.6874931 5.7625966 1.1596882 -6.1778255 0.94912225 4.0230994 -0.43600345 -2.3231726 0.350584 -2.8744016 -2.1628697 0.7984528 0.6678043 -0.8506884 -0.7505405 -2.055837 -0.37421396 -0.18739372 0.2940643
long 0.13960329 -0.25403413 1.3493537 -0.32920793 4.9839606 -1.1470484 2.5017028 -1.8180541 0.9634915 1.0299923 -2.3936038 -0.8165391 0.14184782 0.8025432 -2.9428194 -0.48452955 0.88330394 0.73620075 0.79947054 -1.5711284 -1.9522159 -1.6391004 0.1481222 0.7908804 -3.2120047 -4.010476 0.6452188 -1.410157 0.714487 -0.05161381 -0.6231851 0.8616223 0.14703749 0.4818501 -3.1387963 -1.3487878 -2.4739568 -1.4873366 -2.8680394 -1.5145568 -2.4141703 1.3329664 -0.46631616 -0.6099193 1.832774 0.0766678 -0.30408835 -0.43254593 1.7774056 -0.93625885
gray 0.61322904 -2.3564079 0.3558748 1.4561133 0.9128526 -0.5180572 0.0009208183 -1.8623594 1.6187183 1.0687124 -3.7920537 1.0558943 0.46232483 -0.34387258 -0.8752313 -0.0055569466 0.2659817 -0.6989995 -0.030687375 -0.6835563 0.10622673 3.267524 0.01912107 -1.1113131 -0.22581367 0.2527235 0.49366087 1.328434 -2.3338666 2.3321848 -1.0195315 0.2662403 0.06953457 0.5071713 0.09841284 -2.4458544 -1.5735052 -0.5951631 -2.1108441 1.1661767 -1.9686435 -0.015816167 -0.94417614 0.5621841 0.6747981 0.7261357 0.14511864 -0.8099825 -0.22289832 0.15451254
brown 0.10798748 -1.3542434 -1.360056 2.1434202 1.1324167 0.6789547 -0.24623357 -1.8436452 1.4463971 -0.6211034 -2.3728704 0.69498426 1.8203189 -1.4463772 -1.8857412 -0.92545027 -1.0810536 0.13271905 -0.6465922 -0.48024318 -0.64705193 1.4899582 0.16837285 0.01751432 -0.7259039 -0.47102875 0.813325 1.7264469 0.98651505 1.1019866 -2.005498 0.0218787 0.9554439 0.16135037 -0.3107236 -1.3755323 -1.0422561 -0.7907131 -2.2173994 0.60870653 -2.465521 -0.4636084 -1.2845901 -0.09211124 0.19416487 1.0029175 -1.6457962 -0.6357169 -0.20251116 0.4194288
red 0.17950533 -0.43390086 -0.37254208 1.5621675 0.7025119 -0.92112154 -0.56775963 -0.9600116 2.286549 0.50275517 -1.8750824 -0.014684436 0.3892379 -1.47466 0.14129482 -1.1516134 1.1369678 -0.45690325 -0.14555499 -0.6706247 0.14209467 2.576134 0.9409067 -0.3420697 0.039947473 -0.43903884 0.4750014 1.3499078 -1.0392889 1.1775934 -0.66320896 0.9460541 0.65975606 0.25234875 -1.0422218 -1.4645845 -0.423839 -2.2888658 -1.280625 1.5756795 -1.3656988 -0.47148067 -2.008579 -0.5170435 0.9188624 1.2417766 -1.3232806 0.4509796 -0.4090622 -0.5849277
jeans 0.8108699 0.3621326 -1.4869281 1.6052542 2.9481215 1.7794234 -0.17729756 -1.6091815 -0.35544312 3.0445952 0.029033769 4.1656103 -0.69258344 -2.9405668 2.781869 -4.7180166 2.3772838 -1.439617 -2.2912314 -2.1921813 1.120116 2.3907826 -0.17170367 3.4047594 -3.0181093 -1.3160015 -0.24332559 -1.9665476 2.1352959 -0.1969546 0.16052124 0.4108484 1.361245 3.004597 -3.5312347 -4.3065 -1.1792818 2.827657 2.0752702 1.689485 0.8200032 2.0602205 1.0846584 2.313586 2.5164812 -1.4237374 -0.8656874 0.65704733 0.19507651 3.7516387
jacket 0.55870914 -1.2016581 -2.329622 -0.7009519 -0.11580914 -1.9237207 -2.7195814 -1.6189578 2.3042364 -1.2952511 -1.9974458 -0.47030225 0.14205651 1.3205346 -0.33049554 -0.836831 0.5303585 -0.28035042 2.1589415 3.6682482 0.79064584 -2.4724941 -1.6598247 0.8796294 -1.145449 -0.31296885 0.770965 0.0024157735 1.456833 1.6674132 1.7390403 -2.3593328 1.0078515 -1.5439117 -1.9825485 -2.008819 -1.298839 -0.41159979 0.2343297 2.3061717 -2.7469335 1.3553756 1.7749839 1.3625473 2.0271637 2.4468756 0.70615155 0.086030714 -2.1787589 0.7720339
shoulder 2.41643 3.401433 -0.7477862 2.6397705 1.7611202 1.1111875 -6.826006 -2.118258 1.7392102 -1.9397137 -0.70276815 0.017789647 1.9367367 -3.4928029 1.8140463 0.3219149 -1.7021807 1.1897117 2.0289297 -1.2702198 3.5516286 -2.5836494 -2.4397516 -1.7274268 -3.733413 -0.6117135 5.0703573 -3.3918266 -1.8522332 1.887908 -0.6382961 0.98161805 5.392173 -2.1262875 0.9026839 0.16704382 -0.04932497 -2.686299 0.17800993 -1.6117697 -0.89832866 -1.8710177 1.099208 1.4022812 2.6140044 -1.2171558 -3.0070174 -0.55029136 -0.48214447 0.6252707
grey -2.0997052 1.0149838 -0.14772515 0.19890328 0.63998544 -0.8341821 1.0088447 -2.8068671 2.3894641 0.03095656 -1.8087773 0.9186711 0.36423036 0.41026264 0.033483054 -1.6384057 0.82869476 -0.32195207 -0.4440786 0.11306634 -0.84746546 2.8611808 -0.51394445 0.31000468 -1.6084683 -0.74431884 0.04341519 0.40976748 -1.0079803 -0.52972937 -1.6786349 0.17333794 0.401521 1.190804 -0.3917628 -2.840921 0.70339614 -2.3527958 -2.6591616 2.1001961 -2.1960065 0.88928366 -1.3029783 -1.6261913 0.033833858 2.2021265 -2.1952443 0.5936777 -0.9529916 -1.2400138
wears -0.43067086 -0.37868965 0.4624018 -0.09748766 -0.58813447 -0.008343394 2.2570117 -2.1540148 2.678846 2.6567523 -1.4748185 1.6029065 0.33756685 1.2574767 1.5127965 1.3705261 0.59533113 -1.7938647 -1.4024347 1.4647282 1.6276587 0.05467034 0.4018689 1.1595471 2.7966642 -1.3600943 -0.93564266 0.2639521 -1.2183555 -1.3171179 1.7777213 -2.421049 4.754267 -0.1411166 -0.9329472 -1.3266724 -0.78886515 -1.2321453 -2.066325 2.3653898 -1.9826187 -1.7826711 -0.2900325 -1.7595477 -0.8315413 -2.662575 -1.8227743 0.1955202 3.6986978 -1.0977942
over 3.5604703 -0.6649202 -1.833281 -0.7034461 0.18136698 0.28640115 0.8731367 -3.5532095 1.2128167 2.8645353 0.18537532 -0.6881682 1.7172077 2.3775847 2.3716853 -0.10883576 -0.47683397 1.6734184 -1.0311172 -0.44861513 -0.6356711 3.9192088 1.5189126 -1.1926861 -0.26430333 -3.4728947 1.0664308 -0.32756367 -1.9911067 0.5050811 -0.84901273 -0.83807373 3.9831977 0.42600188 -1.0244454 0.47422707 -2.337665 -0.21084009 0.9634147 -2.4884632 -2.1008399 -4.469575 -4.110468 -1.681864 0.32751334 -1.5968627 0.7692307 -0.45013085 0.042192306 0.31727487
light 1.453424 0.4448321 0.26965848 2.4835804 0.5361251 0.4247522 0.26181686 -1.6199077 2.178902 0.30886337 -1.3716702 1.3411895 -0.20584163 0.81769115 0.9401409 1.2582688 -0.3151915 2.172417 -0.81887835 0.81963253 -1.9701109 -0.6120445 -0.644202 1.8811694 -3.5942318 -3.453979 -1.9434656 1.3307034 0.43141598 0.7059341 -0.6885926 -1.4673302 0.3662084 1.5251148 -0.88359195 -2.0540483 -0.12693669 0.10874398 -1.5175945 1.3416127 -0.64340067 0.8662423 -1.7103605 0.33861807 1.2150067 1.3801534 -1.8912994 -2.184817 -0.13853271 2.4073503
backpack 0.6353183 4.574148 -1.1175554 1.0809817 -0.3530838 -1.130584 -1.5819477 1.0342325 -0.6371874 0.9242766 -0.392979 -1.4924512 -1.2540911 1.4760965 0.27587423 0.2646086 1.0590729 1.3584372 -1.3090078 2.794087 0.84965676 2.6956747 -3.8738916 1.9040264 -3.7532754 0.7514856 0.8234081 -1.151131 -1.1577938 2.0830593 -0.24586761 1.6465625 4.5896277 2.5703917 -2.8945725 -2.033585 1.1390712 -1.3682873 -3.549648 1.2165624 -2.1734052 -0.8695067 1.0450084 -0.39546135 0.8017235 1.1551061 -1.2419727 -0.6834163 -1.2120563 -1.6919199
back -1.294157 1.8701749 2.7045913 1.0519791 3.0443714 -0.5377991 -1.3543925 -1.4038213 -0.08514243 2.334924 -1.0929079 -1.9006627 1.6655241 -1.7284234 -1.7085054 0.08573467 -1.90574 0.026341945 3.104086 0.83219486 4.639962 2.1493318 -2.6571968 2.2885423 -0.42505646 -2.4263163 2.867588 1.0703788 -1.871947 -0.38288897 1.3816117 1.4043671 1.3987129 -2.9577103 1.2228905 1.1235197 1.390037 -1.5904022 1.8045707 0.10982105 -0.11171758 -0.14477968 -0.9079418 3.6341538 0.5975351 0.87533635 1.5175822 -1.068272 -1.0350399 3.3557258
also -0.67519975 1.8017232 -1.7284689 0.29107606 -0.74718726 -0.80312616 -0.89754325 -0.9571986 -0.31709862 -0.29338437 1.3928512 -2.845718 1.8377084 0.5087962 0.1469983 -2.3618615 1.3459955 0.074796386 -1.717033 -0.020957228 -0.9537116 0.3293791 0.17945601 0.19347382 -1.1101966 -2.0563016 -0.81100637 2.9454927 1.5164771 -0.051063612 0.5895746 -1.391716 1.652911 1.8010377 -0.08600311 -0.7210015 -1.4822209 -2.9934554 -3.1474905 -0.16755868 -0.5778819 -1.5832173 -0.21855482 1.5154533 2.3888602 3.4720204 -3.4199917 1.7047102 -1.2371126 0.9852624
coloured -0.679334 -0.7204727 -0.5149811 -1.2133424 1.0369507 0.50974804 1.9694247 -3.1291335 2.313814 -3.0914433 -1.3288656 -0.097825885 2.9215245 -1.7128601 -0.7715557 -1.5338092 -0.9269937 -0.8433524 -2.744869 0.9273795 0.07994734 0.5088727 -0.98266613 -1.512175 -2.7255614 0.69294256 -0.926511 -0.58462775 -1.0589944 -1.127477 -2.2450178 0.5780155 1.3722367 0.93055505 -0.6630284 -3.3140109 -1.4129411 -2.1609855 -5.072689 0.49909836 -1.2774788 1.2485725 -3.2298057 0.63623273 -1.322154 0.94431555 1.3952895 0.15746628 -1.3866295 -0.057222426
right -3.2305927 2.5013535 -0.4320653 0.81389976 2.4687579 2.5678594 -2.280873 0.651085 1.9048518 -0.9477028 1.2911351 1.4493757 3.3306584 -3.8980522 -0.3012746 0.87921876 -1.512634 5.861444 0.24911879 1.1703577 1.1561518 1.3506502 -0.8446519 -0.6257734 1.5565289 1.899081 -0.6822892 2.27413 -3.9648879 -0.7447397 3.0958366 3.0031788 0.32323623 -0.9741214 -0.99904495 4.0608225 -1.6856098 2.398175 -0.19275314 0.8141748 -2.0139847 -0.8149626 2.6694543 0.8535138 3.9865167 -0.3595339 1.1424991 0.39999396 -1.4229425 -0.40868056
pink 1.5083777 -1.7693421 -0.033165026 1.8528963 0.5873067 -0.30158716 0.009998783 -0.22245409 2.7913022 -0.056409467 -2.8035119 -0.2092099 1.1412191 -2.2091253 -0.33871743 -0.22640489 0.15716742 0.5141758 -1.5229762 -1.2116632 0.8365765 1.3119843 2.0179038 -0.096319236 -0.30379856 0.1247287 0.91567814 0.88177687 0.14396518 1.2315239 -1.7079774 0.4737294 -0.7318881 0.8023986 -2.2199643 -1.4300833 -0.2512104 -3.1613665 -1.2627021 1.1125269 -0.8812266 -0.451358 -2.4362395 0.29731444 0.0034878738 1.417556 -1.0259755 1.0709453 0.4562817 -0.53718394
this -1.4191936 -0.87599146 -0.7790427 -1.8915372 3.6839406 -1.8935326 0.29258865 1.9006395 -1.5871416 -2.059979 -2.9874115 -2.6807737 -0.4031559 -0.28952292 -0.44577575 1.6770905 -1.0315919 -0.23059012 0.1721787 -2.5185947 -3.4347343 4.49363 -2.019415 1.8976691 -2.172654 -1.1987296 0.13051094 -2.7828465 3.3804061 -1.036361 -0.34744433 -3.0042255 1.1468072 2.0049272 2.0487692 -0.38196862 -1.0434142 0.8778814 -1.2126358 0.64648026 2.193498 2.7328598 1.1093843 -1.0829542 1.5555028 1.0835273 0.22641848 -0.21837556 -0.29852968 -1.9641224
hand 4.4374137 4.2806177 -2.3385334 -1.5926964 3.049747 -0.44915128 -5.6914387 -0.10811199 1.2100405 -2.2703855 2.2055678 1.6166189 3.5225651 0.2413849 0.656803 1.2362531 -1.0439326 -1.0279061 3.935356 -1.502012 -0.31936103 1.9460316 -2.3534074 -5.3071823 -2.1046298 0.2876632 -0.91935986 -2.4599767 -2.5165167 0.13093863 -0.3240193 2.1215746 1.7582612 2.2978396 -1.0509359 3.907214 0.57993037 -1.9048591 1.8006158 1.4825126 3.4696388 -6.5146227 -1.3061574 2.929358 2.4689794 -4.1182604 -3.4320128 -1.4841926 2.325509 -1.0544734
walking -1.7985191 0.7809931 2.7955933 -1.9194795 -1.466652 -0.24414276 -4.188357 0.29363462 -2.431071 -2.633918 0.7394441 0.37678432 3.850852 -1.7275903 -3.132826 0.3211691 2.916917 0.11888862 1.9285868 -1.3788517 0.4710774 0.052770607 -2.7988455 -1.4261309 -2.5618918 -2.578716 0.42964506 0.08725765 -1.6608056 -1.7939552 -0.55234385 -2.336943 -2.2259426 3.0430822 -0.810244 0.08618468 1.5587037 0.5710388 -0.44773662 -0.0022937616 1.9291509 -1.6420071 2.2543733 -3.5374465 -0.5327686 1.2179116 -3.6278782 1.4745854 0.67265534 2.2367618
left -3.2802782 2.3554163 -0.5520016 1.0533991 1.9670821 2.9713988 -1.5700114 0.67984676 1.4233438 -0.6381487 1.4798582 1.8741941 3.1314592 -4.0926857 -0.013049543 1.3280288 -1.4728444 5.6220255 0.9186238 0.7073939 1.2586968 1.4956945 -1.2465953 -0.3158219 2.0438054 2.1763809 -1.2190083 2.7040021 -3.7396395 -0.5570542 3.5262716 2.84432 -0.06968815 -1.4186792 -1.7603261 4.1924667 -1.54746 2.1781244 -0.7284293 0.5157767 -1.2410896 -0.68937427 2.6260192 0.99624133 3.9182277 -0.21304816 1.0811672 -0.23871462 -1.1419141 -0.8736554
glasses -0.4237793 1.2881426 -2.1415632 -0.080394484 2.7770326 -1.4781545 -1.0761039 -0.08951287 -0.17431611 0.36098173 0.17227894 -0.21723223 0.6724413 0.4458366 -1.0036049 -1.5998185 -0.16475102 0.015785648 2.689415 -1.3418212 1.1671407 3.3266191 -0.20572028 2.0995543 -1.6151347 0.75022227 0.6637424 -0.7508486 0.21574241 0.692437 -2.7275453 0.5728024 -1.2108216 0.7762641 0.49807054 -1.5740914 -1.7348675 -1.5432919 -2.4735465 1.6311772 -2.3702393 1.2940415 -0.739169 0.27898437 0.72879213 0.5290116 -1.0093558 -0.32818195 -0.98427427 1.4684674
dress -0.004896647 -1.8623899 0.40397686 -0.024458993 0.27286005 0.702888 2.0607116 -0.75042933 -1.2100036 -2.1100647 -3.4726906 -2.4295325 -0.42520195 -0.73997426 2.0290298 0.3620013 -1.000964 0.25824636 0.35094413 0.92116916 0.8307908 -2.4126933 2.2233925 2.405111 -1.4823989 1.9262553 0.72593474 -1.3101344 4.9952755 -1.4484185 -0.47125262 -0.41446263 0.48602712 0.6182479 -2.9327154 -0.154549 -0.84322524 2.2691603 0.6595655 0.78377956 -1.3133348 -2.6847277 -1.30194 1.5829768 1.7753952 0.8211269 -2.5893073 -0.09598553 -0.30476236 0.52922434
sleeved -0.4154629 -0.58316725 -3.0868902 1.2292291 -6.1941295 -0.81930417 -0.92413044 -1.1142111 1.6362745 -0.7906968 -2.4271774 -1.1115923 3.1510775 1.1968535 6.6968427 0.8206241 -1.3444641 1.1527666 -1.6979352 1.1726409 1.1050179 3.2704802 -1.178686 2.2127209 0.79591197 0.7197828 -0.0665788 0.21409196 1.1596916 -1.2406356 -0.88259345 -3.3351605 -0.72385377 1.8298731 3.4359174 -1.4321686 1.717977 0.34704924 -2.4560168 3.196675 -1.6511708 2.1022017 -1.0255605 1.9075425 -2.7486808 1.7034479 -1.5127221 0.40912288 -3.0649657 2.2804303
top -0.3112071 0.23879388 2.2396085 0.9799831 -0.5596081 -2.4635713 -0.4714032 -1.840047 3.0013924 -4.0853233 -3.1712818 -1.5002271 -3.6790226 -1.0586445 -2.3907537 0.82308835 0.4358912 1.6931399 0.3941271 0.8911875 0.7124164 0.938808 2.9156053 1.9289284 -1.5501636 1.50408 -0.54271483 0.22942552 3.358313 -2.6710868 2.1391234 -0.08620609 2.4294496 -0.7613235 -1.9861276 -3.7525394 0.88366807 -0.23571573 -0.5329065 -1.5683765 -1.7597107 -0.75147974 -2.162752 2.49714 2.8000324 -0.23657504 1.3792148 -1.530802 1.1640718 -0.05581546
sneakers 0.3964767 0.4689661 -0.4252651 -1.2577994 -1.098957 -0.30610988 -2.115121 -2.7022195 -0.16527008 1.0581135 -0.52615595 -2.5979319 -1.9657644 1.1041365 -0.08892338 -0.19806443 0.06167049 3.4472833 0.18471259 -2.1112986 -0.68482804 0.52507836 -4.715018 2.261729 0.33962053 0.23320387 -3.3087957 1.7669773 -2.5848024 -0.44306362 1.0314882 -1.6531223 1.660138 -0.6632702 2.1986103 -4.4558992 -1.3298714 -2.5285807 -1.0521846 3.6864884 -4.2364955 0.9717463 -3.63954 -0.71093345 -0.41197157 -0.44267192 -0.19432943 2.4014058 1.8855308 -1.9359695
green 0.08845659 -0.60072523 0.09954184 0.85474986 1.5200272 0.19733168 0.19115004 -1.2973003 0.7124115 -0.5073077 -2.5300288 -0.080117255 1.5751384 -1.3510562 -0.4457405 0.0029253592 1.288644 -1.2569654 -1.7939752 -1.0012558 0.47272077 2.5636528 1.1140565 0.46031702 -0.48708677 1.634101 0.61242265 1.515723 -1.8466574 1.1120472 -1.3268987 0.8534133 0.5346841 0.8910857 -0.94352096 -2.0189698 -0.5587321 -2.5460873 -2.6261768 1.9479165 -0.60637444 -0.19995736 -2.3960192 -0.7968776 0.28023973 1.200464 0.22066617 0.85940146 -0.22590707 -0.2867759
to 0.586464 2.5117855 -0.2126862 -0.78051746 -1.5361117 -1.6416222 -0.9382276 -1.5112348 1.7162699 -0.89462835 2.3158023 0.7952251 -4.1330304 4.6888847 -0.55966026 -1.414037 -5.610873 -3.333865 -3.3678222 -3.8485298 -2.172895 -0.8444532 -1.2861265 -5.900809 -2.9187295 0.71445835 1.1054007 -0.9021865 -0.08080167 0.5905084 -2.460542 0.44473496 -0.9653487 -1.0807657 -1.7551926 1.5974888 0.052605636 0.19647872 5.0006113 -1.817965 0.59097964 -0.93893576 3.5108395 2.456132 -4.918112 -3.2616541 -0.9684308 1.2621838 -2.099281 -2.2587035
sleeve -0.541452 -1.2702005 -2.3422062 1.2465076 -6.0226374 -0.417589 -1.1633549 -0.24883986 2.2004476 0.1881033 -3.2048938 -0.18564226 2.4088194 0.13813663 6.2241535 0.2837288 -1.8819093 0.3017763 0.2931658 2.213447 0.3248864 3.0029461 -1.4537607 1.1938645 1.5159657 0.84113437 -0.27771452 0.96269965 1.8736289 -0.72639394 -1.185669 -4.046242 -1.0362381 1.1888425 3.1733932 -1.946635 1.2925104 -0.045977194 -2.3465378 2.3902383 -1.1593022 0.6718128 -0.83758783 1.7072884 -2.9567437 1.3409791 -1.1902478 0.54561037 -2.3101501 2.4468582
sandals 1.7881016 0.8322981 1.9989254 0.8672136 -1.4833174 2.0189295 -3.1163986 -0.49534002 -0.8568525 -0.18467347 -1.166033 -2.100552 0.31428027 0.11618786 -0.18990494 0.7921332 -2.4469185 2.628476 -1.2694232 -3.2710352 -1.5463173 -0.91864604 -1.9849044 2.3155425 1.5729 2.1763184 -1.617704 2.6018288 0.36489603 1.7322128 -1.8893787 -3.2939093 0.6062563 -2.3755875 -0.8505405 -1.749399 -2.0180886 -2.9221582 -2.2817185 3.1107247 -2.9194 0.02222373 -4.328142 1.7404809 0.59989476 -0.2609294 1.6468006 0.6229312 3.229255 -0.80226165
skirt 2.215741 -3.3908365 -0.35512233 0.70084584 -0.29590452 1.8869894 3.3259962 0.4414086 -0.3558269 0.96107453 -3.4280772 -2.057566 -0.28550768 -3.228875 5.3065557 -1.3094009 0.92584425 1.4483721 -1.1998794 -0.52097195 2.5357862 -0.69595397 1.0458976 1.9549437 -1.7037623 -0.20751996 0.3988307 -3.4121068 4.2138133 -1.9051468 -3.0261621 -0.43544045 0.6910475 1.8371154 -4.117491 0.9571794 -0.3976361 3.8715446 1.0460838 2.1277473 -1.93034 -0.9945943 -0.77290136 1.6923727 0.79625434 0.8552964 -1.5369599 2.5009794 1.1456776 2.0725286
person 2.773853 -0.41741833 -2.3913116 1.6312948 1.1067955 -2.69258 2.2316852 0.23010245 -1.0048277 -2.0977578 -2.5674841 0.26376146 0.76240885 1.1703484 0.40763888 -0.89491034 1.423466 1.0170977 0.48702395 -1.3156149 0.22988738 -0.36628127 -1.1875021 -0.48341382 -1.5969603 -0.2182926 -0.8493466 -0.5814401 -1.0756881 0.8528069 -0.17094997 0.59069556 -1.9280473 -0.48002762 1.4870957 -1.593664 4.27526 1.6984761 -1.2231301 -0.69184643 -0.66794425 3.8859212 -0.69895875 -0.73288053 0.39167923 -0.1410376 1.5193934 0.02304674 0.10722513 0.04560411
yellow 1.3218848 -0.03654749 0.3382163 1.6550816 0.30011788 -0.92510045 -0.38212833 0.29226002 1.4326574 0.004947974 -2.348186 -0.18478689 0.8351243 -1.4764516 0.2546004 -0.4345433 1.3025305 -1.4276979 -0.9731091 -1.1821417 0.46570945 2.6415164 1.7075956 0.5374482 -0.15581428 0.964876 0.22212884 1.721366 -1.4692024 1.4124316 -0.67740583 0.9911394 1.348385 0.3238941 -0.9400587 -1.5310417 -0.12549436 -2.7299376 -1.7807719 1.6791543 -0.5643735 -0.5229131 -2.4796464 -0.45982996 0.36941195 1.5219818 -0.38680556 1.0288956 -0.39039582 -0.2678178
that -0.7590707 -1.1142982 4.166904 -0.1091252 0.05244525 -2.013915 2.0775485 0.16811523 1.0895901 2.1696174 -0.087432094 -1.674313 -0.77052826 -0.11478253 0.8247769 0.392088 -4.3126607 -1.8416286 -1.1780707 0.4216281 -2.8355079 -0.1361672 -0.32345828 -0.019705344 -1.1213177 -3.8688557 -0.836416 -0.10973498 2.1169758 4.1428123 -2.417501 -2.0001519 -0.017051784 -0.49944532 0.6390163 0.20491756 0.0075649237 -0.7541403 -0.70682365 -0.45384204 0.8407923 1.8900809 -3.6693592 3.4421778 2.522103 -0.5497821 -1.2509049 -0.25368142 -0.7924376 -0.6152533
tan -1.016302 0.5315627 0.43598804 2.0924935 1.0593904 0.6873823 0.36148748 -2.5483198 1.902597 -0.7775645 -1.2797103 1.1650717 1.1026663 0.16350919 0.014546938 -0.30392385 -0.6189441 1.0106736 -1.7800297 -1.0752861 -1.0940497 0.88451463 0.37732077 -0.09042366 -1.6172054 -0.5976437 0.17426376 0.83051056 -1.0416024 -0.17492062 -0.9341202 -0.25809684 1.5933026 1.0474952 -0.22865115 -1.2413477 0.6499466 -0.5727737 -2.8447866 1.1238809 -1.7847437 -0.16732278 -1.4745373 -0.4374501 0.7247903 1.7128954 -1.7233145 -1.2432982 -1.3207576 0.41046014
purse 1.2645011 2.1566849 -1.9233737 0.31071422 0.4776447 0.395568 -1.7037293 0.6173523 1.32605 0.110131375 -0.28943187 -2.810492 0.82153004 -1.9407898 -1.0422478 -0.43917325 -1.4356283 5.5448008 -3.0599134 1.0935786 1.409049 -0.9354964 -2.6013021 1.3622442 -1.9057361 -0.19717881 1.2158439 -2.2926528 1.5586411 2.2646127 -0.64605474 -0.73872197 3.909595 1.4655377 -7.1519876 1.3263769 3.9414196 -2.5292947 -1.6574603 -1.6142788 -3.1307876 -1.4852847 0.49648708 1.3280289 -1.0385132 0.38321194 -3.0008802 -0.51079965 0.69415605 -0.95632666
tennis -0.5679541 -0.106532075 -1.1525738 -0.85995483 -1.3623002 0.22181663 0.077511 -1.3308237 -0.45319974 -1.0572584 -0.01942299 -1.0350052 -0.8122536 -0.5772009 -2.213929 -1.281824 -0.70818716 1.2901529 0.8492415 -1.1075321 1.3831336 1.3326341 -2.0270967 2.0759614 -3.119179 -0.9103007 -3.691815 0.18650472 -1.6530163 -0.34348106 2.2010205 -0.4035272 2.8672783 2.3580208 3.2325497 -2.0792499 -0.93129826 -2.3813314 -1.381953 2.806133 -3.7372305 0.7489272 -2.2012355 0.3548897 -0.080784 0.23299542 -3.725937 3.6466186 -2.5963333 -1.152289
length -2.193771 -2.9838705 2.8127856 0.21993417 3.6974854 -1.9810338 3.6039205 1.151218 0.87355304 3.2356138 1.5791078 -2.0015266 1.4375753 2.0432394 -1.9407881 -1.9086536 -3.3633292 5.5266557 -1.2808837 -1.209498 -4.3293867 1.3217204 2.0702465 1.1938696 0.7093345 -0.16542879 -4.181493 2.437441 2.3621275 1.1033065 -1.8061206 -1.0524063 1.3105942 3.744534 -3.923994 1.4394492 -0.97801334 -0.11204943 -3.1790557 -1.2189118 -6.215487 2.9855328 0.48436388 -2.0268497 -2.7817833 -1.3310589 0.9081816 0.6621579 -0.109706506 1.4546872
front -1.8271117 0.11201828 2.233974 0.9915205 0.2322389 -1.253294 0.67278004 1.7046077 0.34474403 0.7959563 -1.4856713 1.851431 1.0786186 -1.4182423 0.65606153 0.9321996 0.8221317 -1.9563454 3.651664 -0.3686868 2.6230495 2.6332903 -0.042634938 0.1885473 0.27486768 1.3020779 -0.9897577 3.1496704 -2.4607303 1.68678 3.7819533 -0.10070096 0.16645673 -4.475509 -1.4908767 -0.33995935 0.6742882 -3.5868273 0.7983235 -1.2585658 0.5593757 -1.2136033 -0.7492489 7.3870425 -1.0320191 -0.83626515 1.5756061 0.51680726 1.107976 3.0809672
an -1.2581468 2.410287 -0.7093989 -1.2724286 3.3564286 -1.7047646 -1.0818608 0.3319652 2.0732255 1.7809937 -0.71974504 0.9335757 1.1585448 0.41813147 -0.020404097 0.8294049 1.0939853 6.8641167 -1.6100216 1.6061481 2.4633303 -0.62246454 1.2582095 -1.3019978 0.18658625 2.168695 -1.2252562 1.8954725 -0.2208809 3.1162848 -3.390145 0.770054 -0.08061854 1.9142361 2.529954 -2.1054056 -5.248386 1.5472049 0.29664275 -0.4488485 5.1323576 1.005926 -0.7571761 1.4747756 -0.4258313 0.41958717 -2.2695558 0.009704515 0.26775613 -0.7265504
while 0.1495251 3.5075815 -2.220238 0.823051 1.1330581 3.3001995 -0.88745314 -0.5463391 1.7991905 -0.19390205 -2.1055884 -0.8055496 0.0065114237 1.3254721 -0.14933896 0.15414672 -2.6550717 3.0590014 -0.22669455 2.712708 -0.70195633 0.47558025 1.5434301 -1.7679434 2.1411798 0.08396377 1.6762084 -1.3830632 -1.9991179 0.02084887 1.2409947 1.7050738 -0.715569 -0.4269885 0.16417617 -0.3482229 -0.4012017 0.100916296 0.21709599 0.82511556 2.0228379 -0.9611448 0.8902712 -1.5884051 0.3094387 -2.6526704 1.1798538 1.404339 0.5712709 -0.5961843
holding -0.70571613 -0.7071752 -0.016443636 -2.0441568 -1.9904152 0.5892811 -1.2724407 -0.5001964 2.875417 -2.1825156 5.425224 2.4523225 0.1681292 0.07469907 -1.5093141 1.8399752 1.6033245 -1.7291118 0.27342993 -2.0482535 0.41204625 -2.536145 0.5201195 -1.5232371 -1.0355273 0.80231726 0.7586217 0.567265 1.7045002 0.6052391 1.2305436 2.2854571 -0.8723257 3.4716284 0.94722867 3.2313874 -0.67137086 -0.65353775 -0.5924611 2.710005 0.3059829 -1.1433836 -0.616829 -2.378847 3.0201528 1.8423604 -0.4589808 1.1455986 3.1500845 1.9254252
s 0.7102785 0.6818417 0.31039783 0.93557775 2.184848 2.6270523 -0.7042883 0.29565722 -0.8293595 -2.0850646 1.1969337 -0.47078082 0.4966139 1.1522566 2.2680907 -0.9991045 2.4437642 1.5844408 -3.4717093 -0.1839 1.6519288 1.6650254 0.40749663 0.012728283 1.8905368 -1.5077828 1.2597941 -0.40160254 1.4041907 1.7085644 2.0165358 -1.820691 0.7270502 1.0314188 1.0517275 -1.441535 -1.2838937 -1.3689649 -3.4818149 2.0540311 -2.6674848 -0.37716386 0.7836017 2.4958212 -0.8611318 -1.9980356 -0.7110128 -0.091827095 -0.53322905 -1.3840446
are 1.141406 -0.8294696 1.0555233 2.519825 -2.700359 2.3315594 0.10667971 -1.9493835 1.6358309 -1.7824584 1.7539111 -0.124369144 2.3295221 4.1141872 -0.32628396 0.28584012 1.6910038 0.19247551 0.6270272 1.0328666 -1.0286266 3.3706226 -2.9261453 0.59531546 -3.0473225 -2.9480193 0.6736762 0.15890968 0.5307689 -2.350709 3.21027 4.8955164 3.5315566 0.21606234 -0.55400175 0.23569208 0.8765189 0.08760817 -1.4916182 0.474404 -0.07616701 0.56555134 -1.5714079 2.4694846 0.70617545 0.1279509 1.1352434 1.3351306 -1.9476486 -1.567481
carries -0.34815553 0.9866084 2.3757222 0.30522892 0.6159247 1.7437737 -1.196258 -2.4254782 4.1772475 0.44913682 3.185908 1.4070845 0.64894384 0.8357928 0.70110005 1.2685854 0.9590282 -0.66849244 1.0143393 1.6266034 3.2732124 -1.9404129 2.392066 -2.07678 2.5629437 0.30449453 -1.3766742 0.4258458 0.56417733 -1.8017486 1.5639893 -1.3173224 4.3668203 2.5217097 1.6486505 1.2681917 -0.5661299 -1.3443726 0.37465215 2.2921824 -2.0265312 -4.4251413 1.6071348 -4.811285 1.5498567 1.4214921 1.2287278 0.96430445 5.012856 4.191972
down -1.5934737 -0.82782793 -1.2954127 -5.234325 0.28555122 3.1084516 -1.1581879 -1.6519188 0.59259415 2.7687275 -2.422575 1.9161682 -4.0874543 1.2133284 -0.36994198 0.38114306 0.2216691 2.3458755 -1.4905496 1.3169838 -2.0821385 1.37066 3.7824771 2.510973 -2.6671357 -2.4370382 0.25063664 0.62886035 -1.0053842 -0.3843232 0.53487825 2.5107977 -1.0861009 -2.0461116 0.46398917 -0.14683144 0.4539984 -0.41465953 -2.4984002 1.3503678 0.22726579 -3.0413933 1.8349363 0.92475533 -0.2011999 1.3756196 0.79020685 0.08072571 -1.3730391 -3.6636498
young -0.45972094 1.2681813 -0.91239583 -1.319955 2.3216982 -2.4617248 -1.0944997 0.73905903 -0.08292233 0.47270352 -2.5659375 -2.017166 0.6928819 0.40360948 -0.380028 1.5413593 -0.5221583 0.2933969 0.36889714 -0.40002227 -0.20625994 1.5087777 0.5064565 0.56219316 -0.91802776 1.4313203 -0.5305306 0.9035287 1.2373868 -2.084743 -1.6307162 0.38896886 -0.902352 0.46387106 1.5577745 -0.81565017 0.9626146 1.7817 1.3213975 1.2709655 0.7930369 4.5651717 2.0533278 -1.6255617 -1.2499521 -0.051739782 0.6788738 -1.0537908 0.7663591 -1.1857905
at 0.4333736 -4.081573 -1.1163524 -0.47961935 -1.7529849 1.6195701 1.31704 -1.1189201 0.4886717 1.2825737 4.320601 2.3543038 -0.6835366 5.0857973 0.7058834 3.2819984 -3.1196206 -1.2554442 -1.2419941 -2.466555 -1.9457932 -0.9723899 1.6559114 0.30780026 -0.71076185 1.6068485 2.014076 2.156857 -3.5961235 -1.5152729 0.728571 4.2744784 -0.70451313 -1.1075943 -3.154998 0.79037726 -1.8004891 0.08692504 3.0154176 1.2335289 0.14479141 -1.7257969 1.5799376 0.6496135 -0.8757011 -2.4737031 -0.2482815 3.5603802 -2.4541116 0.082350455
up -1.2390035 -1.2249962 -1.6827556 -4.0522375 1.8944557 2.3542175 -0.228257 -1.805392 3.9984791 3.725711 -1.0176318 2.3750963 -3.565536 -0.2860502 -2.0688415 -1.0523442 0.80568063 2.2128778 1.232753 2.1172006 -1.5342554 1.133433 1.9283073 3.8381178 -1.3100002 -3.6890903 0.33820155 1.0013719 -0.7406221 0.6421838 1.2717506 2.4049432 -3.6719277 -1.4555953 -0.19452657 -0.13049518 0.65939355 -0.85540605 -3.2993014 1.1182598 -0.37618047 0.24049856 -0.55432117 6.0291786 -1.4714999 0.68098295 0.14676037 -3.2385173 -0.66261595 -2.994304
sleeves -1.557381 -3.30064 0.21014057 1.3556916 -5.8915014 -0.8499016 0.22109087 0.077064 2.5101376 2.2725756 -2.332459 1.1946919 2.7450283 -0.069063105 6.2026935 -0.027029933 -0.50228655 0.48568922 0.68654746 2.0267782 0.6229037 1.8291757 -0.7041985 1.9941332 1.8014247 0.99497426 -0.27563787 0.6046968 -0.69002765 -0.39238846 -2.5885592 -3.9495456 -1.2064279 0.5628771 1.4318548 -3.4930222 0.29146415 0.037265405 -0.59263533 2.4399414 -1.6804743 -0.12878338 -2.632885 3.0713897 0.0300662 -0.53679377 -2.0376709 -0.56273574 -3.148798 0.95291334
lady 1.6586367 0.23788574 -2.7251134 1.8458863 1.006247 -1.7101227 3.113758 0.6475515 0.25568965 0.108714625 -4.103211 -0.41160768 2.1394703 1.559608 1.5848497 -1.1251776 1.0858971 1.4426794 0.5742274 -0.43581498 0.56195205 -1.6032478 0.29515257 3.276775 -0.5284163 -0.32336405 -1.2736156 -0.29528072 2.6565378 -1.0316049 -1.5118967 -1.5010116 -2.850338 -0.6915808 0.8675026 -0.48792252 3.7138262 -2.2258322 -1.0344993 -2.1440408 -2.1171348 1.4288139 -0.049117748 -0.96006423 0.6474446 0.3550328 -0.43219033 1.6036023 4.656159 -1.4274633
girl 1.9063821 -0.66791123 -2.0646026 0.72132003 -0.30717388 -1.7011992 2.752213 1.5433481 -0.279797 0.3171732 -3.6987555 -1.0710962 1.2826215 -0.1355795 1.3697382 -1.4113622 0.71679515 1.3746011 0.67187095 -0.50649583 0.33285543 -1.2635764 1.4972926 2.54571 -1.8201768 -1.0715332 -0.97649163 0.1365107 2.9396136 -1.6585549 -2.1003625 -0.42380005 -4.143967 0.5467096 1.1235533 -1.0881078 3.1245804 -3.5886214 0.57544833 -2.3801978 -1.2701962 2.4931326 -0.570764 -0.032235295 0.7254785 -0.41109157 1.3492352 1.7354847 3.394956 -0.93277323
purple 0.7957491 -0.49058574 -0.004715432 0.96971107 0.78464127 -0.3609924 0.46846917 -1.142052 1.4574771 0.16771297 -2.5194404 0.06793865 1.0275022 -1.3734896 -0.40592188 -0.4074132 0.32786304 0.098823674 -0.7682888 -0.8532644 -0.13191424 1.4340762 0.7893885 -0.68651396 -0.8037733 -0.03363368 0.14785916 1.0945358 -0.20979372 1.1406795 -0.6925232 -0.25428802 -0.18490115 0.6113983 -0.7519172 -0.97909135 -0.46949565 -1.3061267 -1.5255078 1.1782246 -0.9014559 -0.21046019 -1.3755279 -0.13522393 0.40967044 0.7826781 -0.52367884 0.081983864 0.263836 -0.61989415
pack 1.8232747 3.7880816 -2.7375877 2.5226705 -3.2528796 -0.6894847 -3.278237 2.2665074 -2.9973416 -0.2777176 -0.4079376 -0.5761393 -1.8300304 0.20775978 -0.98038125 -1.0808808 0.5528021 -0.19064227 -3.3633237 4.431346 0.32918343 0.6660044 -2.625628 -0.5948809 -4.6734943 0.47064763 -1.2990785 -1.1289932 -0.07448573 4.969312 -1.2674764 1.714137 3.0191607 3.8442116 -3.919647 -4.4607534 -1.4786099 0.17093094 -3.045535 1.7793478 -2.8326871 -3.2717805 1.8658032 -2.5109704 0.6369255 0.97752506 -0.505984 0.02742269 0.056450408 -3.767748
or -2.639365 -1.8070977 -1.052904 1.4997838 -0.73835385 0.7750209 0.026523782 -5.087614 0.07371499 -0.27073354 0.45185384 0.8596632 1.4913181 -0.80918443 -0.5557179 0.3771697 0.6005066 1.8192961 -0.21886979 -1.3019782 -0.78832424 -2.0665314 -0.44145146 -2.6251018 -2.2267575 -1.3206731 -2.4789355 0.61594385 1.7978971 1.1299539 -0.7131536 -0.84084934 2.6117132 1.1843696 1.027022 -0.033759028 -0.4074672 0.5489408 -2.2364898 0.03003223 3.2941716 0.65085083 -3.393208 2.3164687 -0.56240296 -1.0423415 2.353622 -2.8624396 1.3111166 -0.50859255
jean 0.13241115 -1.1295593 0.013158144 3.8663936 -0.8924443 1.237357 -0.8927221 -0.2883539 -0.27611747 -0.10404299 -2.4575498 2.991142 -0.641566 0.09347224 -1.1534663 -0.3332899 0.2435853 -0.6011532 -2.9784284 -3.5718546 1.3830936 3.3016112 0.47386873 2.849118 -1.2108566 0.5891536 -0.57824343 2.284519 1.4869668 0.3767449 -0.342504 -0.7330732 -0.78374493 2.7477016 -1.5994158 -2.754159 -0.627188 -3.1481102 0.30590007 1.47202 0.26217163 0.9256517 -0.013514886 0.7020654 1.1547185 0.05582599 -0.9868983 -1.2249908 1.8115108 1.1475067
it -3.8582108 -1.2735763 0.3027961 1.6288302 0.5750961 -1.7643588 0.17172517 0.3448289 1.4061496 -0.5156226 -1.7947077 0.7520442 -1.6356941 -3.147885 1.7988099 0.24815914 1.156454 -1.0194491 1.3784225 -1.6234578 2.6194792 0.8033281 -2.356727 0.5648406 -0.34202915 0.11854582 -1.1183268 0.5398745 1.1433063 3.7569902 -0.033518713 -1.0615784 0.16733721 -2.387586 -1.2623925 -0.42727366 -0.24902423 -4.217001 -1.3669298 0.115768 0.55823916 1.0932125 -1.3036612 3.9293134 1.442657 0.66947484 -0.06787786 0.0060805287 -2.1437604 0.7673562
large -0.10867328 0.8784233 -1.7820024 1.3721197 1.6535184 0.13289179 -1.0133252 -1.6231399 0.110334046 -0.3870391 0.45276308 -0.50567746 2.2557344 -1.5176198 0.59803855 -0.313193 0.59069544 3.0210624 -0.39372632 -0.21568961 1.0871252 -0.9124953 0.27512234 -1.2521808 -0.26343998 -1.1193365 1.3855419 -0.16655926 -0.79981387 0.8366012 -0.9382805 -0.032516044 1.6201915 -0.63224816 -1.749128 -0.52607167 -0.59895223 0.36727774 0.16457602 0.24813317 -0.060337927 -1.169135 -1.2661611 -1.073087 0.7550116 1.6799362 -0.6450017 -0.6335676 -0.6149952 -0.073776856
from 1.8685905 2.4015684 1.6875474 -0.050284725 -0.40326962 1.4744178 1.4500089 0.8489748 -3.1387098 0.21524185 3.9438825 -3.6436677 0.34466293 1.982498 1.6493267 1.9150301 -2.060064 -2.059449 0.03302364 -2.2192752 0.6924428 0.39322242 1.3430343 0.34701198 -0.5916027 -2.3362367 -0.48511368 -2.2578604 -2.1345227 0.86593294 2.0692818 -1.6139861 -1.3655114 -1.378596 1.2961944 2.3463066 0.51494414 1.5095849 -3.3043633 -2.702796 -0.5208458 -3.4053495 1.1154952 -4.5298977 1.1289908 0.31159034 -0.44486818 1.9889345 -4.4131703 -1.6928135
coat -0.6148933 -1.984866 -2.7132993 -0.53804016 -0.49953467 -2.0480752 -3.518188 -1.6894985 2.392116 -1.874795 -0.7486246 -1.6787901 1.2264843 1.0710616 0.33913687 -1.3528159 -0.65286034 0.79840595 1.911543 4.542739 0.98729664 -3.5077329 -1.9142687 -0.3353003 -1.3438984 -0.5487912 0.6461531 -0.99638355 2.1542506 0.59728134 2.2091398 -2.703019 1.1468279 -3.1078532 -0.42009938 -1.5665331 0.27408686 1.5370044 0.7629161 1.5032814 -3.4055505 0.2532989 3.6768293 1.161515 1.1653099 3.1697552 -0.8164668 0.2994638 -2.442958 0.40027106
sweater -0.14070839 -1.5229428 -1.6215352 -0.54190654 0.5140997 -1.7397407 -1.1692553 -2.7955894 2.9522052 -0.8999404 -2.712277 -0.6995808 -0.14889786 -0.021132339 0.625964 0.525299 1.0501347 0.8264322 1.5287923 1.9932468 0.16972537 -1.7279463 -0.42166376 1.6230965 -1.2538884 -0.30803862 0.70899415 -0.019176282 1.4268119 0.3912528 1.5095518 -2.549964 0.7607774 -0.46654022 -2.135527 -1.7944249 -0.64680517 -1.4573076 -1.0774692 0.91070956 -2.4293404 1.3168983 0.9514684 1.4129031 1.9801209 1.015253 0.6090117 0.49836174 -1.3737476 0.8290811
arm 2.0211353 2.789013 -0.9596593 -0.9494718 0.7987084 0.0009095056 -5.2703476 -0.010384502 3.3799555 -2.797473 -0.01792106 1.8500643 2.2605436 -1.3970788 0.28015336 0.60424936 -1.6902602 -0.30867273 2.5311365 -2.0378323 0.5241048 0.39674073 -2.389128 -3.2540386 -1.2455205 -0.1603518 1.1219591 -4.1282554 -2.9799438 0.20269527 1.2637913 0.28684917 1.1765131 -1.0671885 -0.737572 1.5934355 0.10541805 0.124781474 0.80295974 -4.212161 2.0611947 -4.738319 0.63174564 1.8408682 3.7619367 -3.3247929 -3.9483879 -1.5181249 -0.2798994 0.9295226
side 1.3166083 0.72442263 2.2049465 -1.4566206 -0.3989999 1.0372373 -0.38543367 1.6516069 0.17197034 -0.4742756 -0.06190632 0.93738246 -0.23895642 -0.18893135 1.1074966 -0.38379565 -0.22554535 -0.6894834 4.1047745 -0.06662926 3.537534 1.8796928 -1.9041814 -1.820104 -1.294771 0.5093059 2.1966777 -1.7065765 -2.4093866 1.3719598 -0.3200749 -0.3854314 0.58790404 -4.217834 1.0617186 -0.108756766 -0.25853315 -0.5727322 -1.0164059 -2.7501204 1.5236936 -3.3889973 -0.2195694 1.5407357 0.9802471 -1.6660123 -1.1392794 0.70270467 -0.93188405 2.8999674
striped 1.055461 1.6077212 0.5791479 -0.40248862 -1.1940867 -0.7775921 -0.027709227 -2.1792598 1.3724753 1.0999438 -1.8326917 -0.8809646 0.69563127 1.1756017 0.5876866 -0.19258495 0.9117913 1.909305 -0.2903172 -1.767702 -0.75372 -0.030992676 0.24561797 1.8019804 -0.045297474 -0.49939647 0.020107346 0.72843647 -0.6514202 -1.2821075 0.52577114 -1.0593811 0.913194 3.0360017 -0.04615312 -0.9588524 0.26700395 -0.7734569 -1.9047972 1.1286547 -1.0661023 2.067425 -0.29691473 -0.2319373 0.105089344 0.017744387 -1.7838044 1.3975637 -0.38076243 0.6392446
looking 0.7222935 1.2275262 4.4182568 -4.6874094 -0.5125396 -0.043836568 -2.5542874 2.909752 1.5656679 -3.706052 0.8253255 -0.36145842 2.1114564 -1.0773569 -2.6371946 0.00818438 -0.617687 -1.5506111 0.31419468 1.1256546 0.9898272 1.519445 -2.850017 -1.203356 0.9083873 -1.630359 2.0886695 0.44818196 1.4272829 -0.67743987 -0.42978075 -0.74058616 -1.9515289 1.5907044 1.6523337 1.9377099 0.46608403 1.7604486 0.72174305 0.7746559 3.0716503 1.1504871 -0.045066275 -1.5265696 4.547151 -1.071533 -5.004293 1.4026363 0.14484416 3.1548786
socks -1.2347654 -0.27490282 0.9026695 2.5676591 -2.6934931 0.9202871 -2.204935 0.72356945 0.21415877 1.9478745 -0.59876275 -0.05283268 -0.41434196 2.8319957 -2.414516 -2.1359036 -0.075925834 -0.7556628 0.7272554 -1.1184262 2.0617018 1.4533263 0.75484425 -0.026363354 -1.9322188 2.1012464 -2.932323 0.96376014 1.4740131 -1.379417 -2.350484 -1.372096 3.0225317 1.4348178 -0.9723805 -2.3950274 -0.005938068 -0.6167253 -1.672642 3.2643428 -1.2898843 1.4855216 -0.89095044 1.8553503 1.5474037 -0.251869 -0.003367795 1.0027114 -0.8156155 0.6181938
boots -0.81257534 -2.8198957 -0.65683466 -0.9305559 -1.2544386 -0.8534146 -2.3782084 -1.7993791 0.66688466 0.19984022 -0.7035017 -2.6172264 0.5429803 2.3404021 -1.2214402 -3.1346958 -1.178666 4.053359 -0.9637761 -0.33487192 -1.7189554 -1.2798097 -2.6437986 0.3016839 0.35118157 -0.44896907 -2.2369404 0.6802372 2.1704028 1.2140734 -1.2925544 -0.4134983 -0.5580003 -3.2293353 -0.70009035 -1.7072911 -2.311841 1.2408711 -0.011274583 3.3352249 -5.1851726 -1.6679232 -2.7843106 1.156361 -0.047485106 1.5415447 -0.1359875 -0.44596916 2.906788 -0.60526496
male -0.7842879 0.3453479 -2.5344968 -0.39535794 2.2702348 -0.5888225 2.43647 -0.57743144 -3.2380095 -0.22825609 -3.121457 -1.0624557 -2.0692043 2.114857 1.8794705 -1.1936707 3.1040535 -0.21010225 2.035287 0.67962813 -2.2766387 -0.13530943 0.2857643 -0.1719931 -0.58940834 0.83617383 -1.9327205 1.7435122 0.65564483 -2.043258 -4.1675467 -1.8598427 -0.1333238 3.6972198 3.9009442 -4.610364 1.9865661 1.309108 -0.6211027 -0.37961823 -1.3801578 4.862467 0.0073047956 -1.0283977 -2.132839 -0.86129737 1.8536463 -1.9253771 1.0270478 0.36879677
khaki -0.37076208 1.6922357 0.95556855 1.3991644 1.0498424 0.9229964 0.17909208 -1.5206693 0.19377372 -0.8531673 -1.1869812 2.0698164 -0.48585886 2.615746 -0.13332158 0.10268571 -0.006186456 -0.84249765 -1.5514195 -1.0606091 -0.84350914 2.0521593 0.10151515 1.2490199 -1.9646783 0.113423206 -0.06800234 1.2275956 -1.9032607 0.06311408 -0.8976758 -0.6522241 0.52796483 2.2643054 -0.021036144 -2.3969634 0.9285253 -0.7493681 -3.518604 2.0234056 -0.8103042 1.4237015 -1.4497104 0.0018604107 0.8763406 1.3300079 -1.5328121 -1.3961426 -0.9514553 1.0664705
as -1.7618905 -0.9272784 0.15925415 1.4649614 1.8872919 1.989173 -0.34894973 -0.3926728 2.6718233 1.1294979 1.4598489 0.112341896 -0.83012384 3.5754666 0.0024350751 -0.92581785 -0.027067086 -1.3818495 -3.1517446 1.9698662 1.2138582 0.17825383 -1.4622849 -0.91068506 -0.3504584 -0.1821122 -1.8195077 2.8094862 0.16545215 -0.027751453 1.4230081 -1.340896 1.055367 -2.2946444 1.1225765 0.29868785 0.088338956 -1.2998279 -1.6850902 0.006453625 0.97169155 -2.3680563 1.8119919 -1.1251181 1.645638 0.72868025 -1.8951777 2.3450508 2.6463673 -0.9101139
knee 0.75199294 0.5609407 2.746481 2.9058342 -3.6247969 3.2064562 -3.796571 -1.705893 2.403259 -1.8178903 -4.3648963 -0.53771794 -0.30830523 -0.19262938 2.0189435 1.185608 1.5582093 -2.611494 -0.39780718 -0.69177026 0.5355533 -1.6457939 1.0153706 1.8810393 -3.3946214 -0.6269892 1.8727527 -2.373414 -1.0760268 -1.3527142 -2.9857209 -0.98103344 3.869052 -3.4046776 2.8546154 -2.3952825 1.0128276 -1.8332222 -2.3860734 0.8618539 3.4736922 1.3965379 -1.1726044 2.344849 3.6430645 -2.1019866 -3.4472783 0.37866575 1.2369053 -2.4414518
phone 0.5094748 4.5321136 -2.7318082 -3.5896282 0.9387285 2.828333 -2.9393747 2.2023633 2.3287773 -1.4418288 0.86835265 -1.4820957 2.2971725 -0.67046136 -2.0689995 0.116089866 0.58032984 0.062386937 -0.008200436 2.5028536 1.8861154 -0.14592426 -3.8221738 -1.675656 -1.5063365 0.9360185 -0.47239718 1.5741458 0.31912827 -4.2796345 -1.8948386 2.9752362 -0.06392354 -0.36647838 -1.4131253 0.81685424 1.3815186 -0.8445697 2.849471 1.1827482 -0.65784454 -0.013687198 2.4206028 4.041073 -0.09616477 -0.72386384 -4.846972 1.4701892 0.061837975 -0.74979824
one -2.6142254 1.0986569 -1.0600026 1.436243 2.0315125 0.21518746 0.36226836 1.6709111 1.238927 -2.1196432 1.9068233 0.7227549 1.0321211 -3.770668 -0.44141084 1.1922201 -0.17922425 4.57245 -0.30644315 0.1679348 0.06340346 -2.2676966 0.21278352 -0.79292756 3.5089684 0.8895234 -0.3767173 1.7210488 -2.7960746 0.89685404 2.4403253 1.5410349 1.1413918 0.0747637 -1.6726611 1.1208053 0.16135624 0.40016526 0.11753797 0.9743843 0.03169983 -0.69037956 -0.097669706 -0.028936965 2.0121312 0.18800908 0.077766284 0.34172764 -1.0694047 1.100444
orange 0.32534713 -1.2990317 -1.2093018 1.4823185 1.2432954 0.6083521 -2.2819028 0.07522687 1.5758711 -0.80851406 -2.1476731 -1.2275581 -0.395462 -0.5070347 0.73533016 -1.9049051 0.3887946 -2.4383488 -0.44855478 -1.9004182 -0.906432 2.0316815 1.0467751 0.79649174 -1.1829063 -1.0619732 0.68665797 0.23713227 -2.0786643 0.38745618 0.5593436 0.3341214 0.17617965 1.0840585 -1.532019 0.8817062 0.45019788 -3.086647 -2.0223844 1.9644406 -2.5948567 -0.5016871 -3.1246166 -1.8612007 0.52558535 -0.41540548 0.23484254 -0.11728125 -0.78066665 1.5272217
bright 1.4728135 1.8721768 -0.3165558 1.2268809 -0.5102127 -1.9678681 0.4764204 -0.2434975 -1.0114186 0.60109764 -2.2500496 0.05116509 -0.09599941 1.0408803 0.43914223 0.9270146 0.56369656 1.671012 -0.5684507 -1.2137603 1.2325212 0.20769481 -0.6223107 1.5941565 -0.557202 -0.77710325 -0.25081185 0.98064727 2.1748984 1.1914604 -0.7846873 0.18742861 2.9309316 2.1639998 0.52834225 -1.1064451 -0.7798404 -1.0403961 -0.05029262 2.5414557 0.6736997 0.36584455 -0.5144392 0.011566558 0.88309216 0.54467094 -0.6671562 1.1431545 -0.26744786 1.5639949
hat 0.95050377 -0.37707227 -1.550462 -2.106671 1.4448723 -0.02468017 -0.35366932 -2.867932 -0.61404437 -1.1260527 -2.0525346 -1.1471834 0.89798975 1.0479056 -0.7729775 -1.8934897 0.18031111 -0.68343514 -1.1690766 -0.20263538 0.36623538 -0.69259906 -2.4902065 2.0485983 0.7284771 0.096850365 -1.8287344 -0.79304296 3.093758 0.57044977 1.1240523 0.9621242 1.6233824 -0.24784525 -0.9090057 -0.051486373 0.1462877 0.8568459 -0.75008565 1.0733547 -1.0579392 -1.568694 0.42571107 -0.7558099 1.3505702 0.72662336 -0.0064162607 -1.3451824 -1.3861698 0.7569846
be -3.668685 2.1637976 0.3261156 1.3918055 -0.62458867 3.6153555 -0.169479 -2.0779674 0.9263323 -3.6199403 0.3683371 -2.3519955 -2.8068335 -2.0713813 0.8458609 -1.4582137 3.9940505 2.0940342 1.184358 1.4888284 0.77437884 -1.0083414 -2.6136277 -4.1026154 -2.1819093 -0.8573132 0.79665715 1.4139541 0.9462639 0.4497142 -2.030807 0.47901112 -2.8960135 0.7982476 2.6195633 3.1734483 0.7459308 -0.33790597 -3.4670377 2.4468358 2.33122 2.3719797 3.0597198 1.9877976 -0.69531596 -0.8209889 1.295508 -2.2454052 -0.6765688 -0.7839632
walks -2.0965726 0.13201667 5.968008 0.9907286 1.0162386 1.4312266 -4.5131683 0.06622615 -0.36415958 -1.4756418 -0.6241292 1.859544 2.515368 1.3000346 -2.0490322 -0.9831202 3.6566396 -1.6729804 0.68586266 1.3734285 3.3599854 0.41952348 -3.371451 -0.57489127 -0.9292249 -1.566982 -0.32358155 2.300625 -1.0560049 -3.4683871 -0.017857922 -3.430242 1.0480021 2.3864257 -0.89803046 -0.19769898 1.5053729 0.02596946 0.15873438 0.93345743 0.8220854 -4.0137005 3.4455712 -4.9863358 -2.7561495 0.13428262 -4.7799716 2.502413 3.284161 0.859531
t 0.4055258 2.1087825 -0.57744324 1.1162779 -0.10252656 -0.7984823 -0.9401759 0.6862334 1.5251013 0.20280991 -1.894684 0.5326515 -0.6440344 3.0288606 -0.840595 1.1344086 0.8004402 -0.77707607 -0.23105577 -1.2450212 1.0065292 1.7992063 -1.0566874 3.491898 -0.05724708 0.191018 -1.2463367 1.3794248 0.18773884 -1.2771225 -0.6801555 -3.1945238 2.1360247 0.97824854 1.2210795 0.7711585 0.3993908 -1.0311109 -1.414247 1.8264052 0.28132442 2.8111126 1.4911476 0.119332805 -0.8696429 1.974936 0.6212258 2.1790102 0.4369641 0.56544214
denim -0.3164261 -0.36428407 -0.16159156 1.73453 -0.110837884 -0.29955626 -0.8183954 -1.6415821 3.0922208 -0.22095297 -0.899979 1.2822621 0.6590154 0.2883374 0.5392222 0.14453888 0.47884548 1.8773835 -1.6182641 -0.8271406 -1.1774564 2.9416225 0.45368236 1.8622087 -0.9043142 -0.91699713 0.14294419 1.3951705 -1.230931 -0.9592771 -1.1519914 -1.1799755 1.6326323 2.623781 0.36904618 -2.4082363 0.27983108 -3.4936218 -1.3248861 1.0029203 -0.9906212 2.046198 -1.0354545 0.47016934 -0.70661914 -0.319811 -0.6470933 -0.036048207 -0.01744754 0.50577116
tee 0.277013 2.6068501 0.7421003 0.46122083 -1.0740626 0.12802161 -0.08719758 0.26814777 0.7834552 -0.30072868 -2.8291776 -0.115351886 -0.94984865 0.4841886 0.19914347 1.1958828 0.72221386 -0.64070296 0.7588643 -1.1643018 -1.1530355 0.6981515 0.04643058 1.6768652 -0.9028669 -0.17346388 -1.1340961 0.89599574 -0.61519384 -0.8426346 -0.38092098 -1.9809234 2.2499535 1.4903566 -0.09465986 -1.2792904 -0.17321637 -1.3729502 -2.0988514 0.76339626 -0.4046809 3.4153907 -0.2071848 0.7203045 -1.406461 0.91069895 1.7144527 1.5699425 -0.99947596 1.07884
hands 0.9034195 1.5154917 0.83746254 -0.5167213 3.3717096 2.1063342 -3.0758946 3.3602242 0.9790438 1.2836305 1.344022 0.9457471 4.8072734 1.4735847 -0.3061267 1.4574317 -1.5449132 -2.286478 1.9445759 1.3122321 -1.5382829 2.2119765 -2.468399 -1.8605456 0.13846858 -0.72283024 -1.3775764 -0.456321 -0.731334 -2.2820528 1.8843633 5.447917 -2.3495111 1.3616354 1.073026 0.17461312 0.4268236 0.4706248 2.324936 2.2389932 2.811007 -4.7938895 -2.163492 2.6378455 3.466643 -1.9798863 0.040665768 -1.07119 -0.9653327 -3.8256502
button 0.7612519 1.3870984 1.0337616 0.09431705 0.2862686 -1.1644799 1.7589747 -0.07409102 0.6226253 -3.4980514 -3.5091565 -0.038760263 3.7770975 2.9420059 0.47480166 -0.10009246 0.09913313 -5.083918 0.42923236 0.116588846 -1.5011473 -0.48188552 -3.611864 -0.31489104 0.29679757 1.0397221 1.5285763 -0.06832951 1.3367928 0.82468754 -1.3227803 -5.348516 -1.6869304 4.5525613 -1.9548386 -3.2334676 -4.536575 1.5610617 1.3583919 -0.3229217 -2.7762363 4.2367578 -2.709432 -0.36377096 2.364305 -0.9894277 -2.8130221 2.788592 -0.8862345 2.8045056
shoulders -1.0872566 1.6778532 4.467008 1.795233 0.88104856 0.27129355 -2.9425209 -0.4330423 1.3110907 1.6148556 -1.5555854 -2.216903 1.4457859 -3.2176795 2.3489368 0.9463308 -1.6912218 0.28836456 -0.5850267 2.5227036 2.309719 -0.7545497 -2.4669073 1.6442964 -0.5146998 -2.3197482 3.6232982 0.3959666 -0.95044106 -0.4031165 0.3086294 3.8067508 1.0386916 -1.4384377 2.2760098 -1.3826319 -0.19787017 -1.0478377 0.13719764 -0.23737852 -2.563904 -0.97993815 -0.10149949 2.6117353 5.4381275 -1.3491031 1.5344381 0.2172826 -2.7632408 0.7210044
plaid 0.6082864 0.48729092 -0.9011241 0.08153769 -0.006749373 -1.3126203 -0.66036433 -1.1477627 1.0768657 0.688389 -2.741279 0.4184771 -0.2791584 0.91867614 -1.0182602 -0.22161521 1.254894 -0.44817367 0.4473833 -1.1549637 -0.73400784 1.2790153 -0.47542122 1.3159497 0.09991507 -1.1340145 -0.1498987 0.74866635 -0.13873765 0.7622989 0.33205786 -0.73473185 0.3673624 0.82966936 0.017754473 -1.4986476 -1.1649556 -0.054792058 -0.4817071 0.827792 -1.4308344 1.6122983 0.093811624 0.9077227 1.0283973 0.5992686 -0.4596324 -0.100764506 0.71550596 0.78408426
blouse 0.8440157 -2.8417413 1.8759075 0.97606695 0.8393707 -0.62465984 0.039448798 -1.5512267 1.6251514 -2.3071404 -3.6381707 -2.1929495 -1.3749623 0.14096828 -0.7748043 3.1885138 -1.0373745 2.7048457 0.50357294 1.0868465 0.4500827 -1.1140726 3.4757175 2.152124 -0.9312268 2.6211007 0.9452146 -0.22689755 2.3876984 -0.992071 1.173681 -2.1543014 0.6783762 0.5841463 -2.6708016 -2.034886 0.3414287 -0.93440306 0.78809714 -1.5931828 -1.9330449 -1.2116438 -0.46700838 1.4828321 2.5517468 -1.4461344 0.2891879 -0.1549815 1.7851555 -0.15131104
collar -0.64474416 -0.716669 0.93910384 -1.5253707 -0.070842266 0.2045076 1.0062723 -0.92530864 1.804919 1.5839242 -4.4423723 0.27912268 -0.34227395 1.3738141 0.2758754 -0.77227783 1.5732443 -1.1720657 0.87898976 0.57454413 -1.2179705 -0.2022596 -1.0868521 1.1836668 0.8701204 -0.10467546 -0.11137605 0.040350962 -0.874591 -0.059919093 -0.27162883 -0.40455487 1.8119465 0.16356461 0.3153296 -3.3740232 -1.7491355 1.0193484 -0.50833297 -0.67229104 -2.304446 0.03147546 -2.6202912 1.97919 1.9757016 -1.1643243 -1.419852 -0.62049997 -1.0345566 0.1529222
stripes -0.8236323 -0.23440933 3.3542264 -0.17978776 -2.2290924 -1.3855096 -0.26881093 0.06719091 0.2905529 2.3742144 -3.7950308 -0.004834878 -0.93903637 1.9662461 -0.19029117 0.104050756 2.0257807 0.37171996 0.44868726 -1.4415767 1.0569363 -0.07486653 -1.1814015 0.16101374 1.1809877 -0.3535629 -1.4669043 1.283178 -1.2822443 -0.98746246 0.38269714 0.20097968 3.0162995 1.8326644 -2.427928 -3.7327008 -0.4259075 -0.27010295 0.6145217 0.58827156 -1.5097017 1.3779296 -1.2998434 0.51906806 0.5185332 -1.8374805 -0.7481122 2.3402987 -3.2399068 1.4191635
appears -1.2691447 0.6558514 1.722583 0.16025199 0.42134956 -0.9494688 -0.78127223 -1.4568591 0.58356154 -1.0607771 1.2411714 -1.7801654 -1.160719 -2.3130944 -1.8127773 -1.4894422 2.1868737 0.57564765 -1.7177346 -0.14337188 1.5997138 -0.27935576 -1.2892414 -1.8046762 -1.223619 -3.2892513 -2.7694242 1.7307118 0.38379014 0.6708315 -2.72172 -3.068416 -0.40873456 0.50504494 1.5393683 2.5354147 0.3239094 1.4515246 -2.1153588 3.1355097 1.143513 0.40045276 -0.21537878 -0.18783472 1.0586452 -0.8603692 -0.45086634 -3.4112403 -3.1156836 -3.277035
around -0.53174746 -2.0920377 -2.0525217 0.986058 -1.3653399 -0.10407587 2.1284277 -4.030776 -0.9270828 2.579552 2.6133945 1.3672247 1.0710746 3.1595063 0.6212315 -0.5697898 -4.002514 -0.42053416 0.62328535 -2.231834 -1.698314 1.3495123 1.7185928 1.4445071 1.1874022 -1.6498213 1.8604994 1.3516687 -0.6241625 -0.25108278 2.2176826 3.7697415 0.48362848 -1.4549816 -3.7195663 0.8891544 -1.4227424 -1.1756628 4.1096587 -1.1196644 -0.36277613 -3.334435 -1.5345815 0.51459646 0.89484423 0.50573 1.9352546 -2.4291952 -2.3155828 -0.09789113
high -0.50032127 -4.6374717 0.5749477 2.6702714 -1.1584549 -1.7249907 2.1003008 1.6601008 1.3693752 0.74952424 0.22811085 -1.1057545 0.6726323 2.4731305 0.055071015 -3.472745 -2.252689 2.1912432 -0.3183725 0.34745324 -0.93923086 -1.472441 1.7587985 -0.764087 -0.18051441 -0.19450918 -1.4074864 0.58970386 1.6370044 1.5974182 -2.5632918 1.7090678 0.59697354 -0.11475547 -4.7822356 1.8348203 -1.4251616 -0.5638478 -0.78658116 3.8421073 -1.7780763 0.22092526 -0.75923806 -0.74162745 -1.0504338 1.3955504 -1.2457058 0.74415916 1.6855699 0.9391773
watch 1.2549913 2.3595605 -2.3705895 -0.86902225 0.3820329 1.5299821 0.10150464 0.271516 2.5376298 -2.441067 0.5887337 0.95199907 -0.41360456 0.34467736 0.37378103 -0.95989007 -1.5942314 -2.8859794 2.500767 -1.5986253 -0.6892899 1.2694554 -1.9290587 -0.96770674 1.2599255 1.5170374 -1.7064204 0.37605354 1.474522 -0.3617632 -0.6933026 1.4880859 3.1254838 -1.6292961 -2.0834956 1.2755212 -0.8785173 -2.0535507 -2.683767 0.36120066 -3.009562 1.8602402 0.82570696 2.5216758 1.3220063 2.8178782 -1.1665809 -0.9837051 -1.5705491 1.2456242
something -1.3445226 2.7600102 -1.6216344 -0.51189184 1.4479369 0.61577576 -2.719444 2.990218 0.81852794 -1.9388505 0.20674703 -0.8706233 0.42019722 0.44684064 -1.9723015 0.46609002 0.6666209 1.1397128 -1.3398525 0.50816816 -0.15698239 0.47483963 -3.538868 -1.3008226 -0.5152656 0.481017 0.94512475 0.15190262 -1.1021664 0.8020331 1.0059357 -0.032314725 0.077654935 0.2261967 -1.3888594 1.0633358 1.0052478 0.75034046 -1.21453 0.8323898 1.5668374 -1.1525066 0.68204606 5.312411 -1.8290868 -1.5735458 -3.1876776 0.628335 -1.6311404 -2.0857635
neck 0.41968498 -0.90495884 1.1531583 -1.1304623 -1.6301193 0.09468242 -0.41919127 -0.25072247 1.7390461 0.28922567 -4.4442 -0.004711058 2.335135 -2.0809286 1.8394862 -0.013598833 0.33344263 -0.053219166 1.5333816 1.8685732 -1.6546322 -0.23674875 -1.5741763 1.1391622 1.1845561 -2.487556 1.6095067 -1.0607967 -0.41469067 0.16674398 -0.17367144 2.5652661 2.6001172 -2.7967873 0.5155215 -2.3461618 -2.5096269 1.16966 -0.48918432 -2.404956 0.29654005 -0.569643 -0.46316338 2.4379144 3.24005 -0.78501034 -2.3020468 -2.226658 -0.7768001 -0.50856787
collared -0.8010712 2.0939362 -0.8365379 -1.0673766 0.98128784 -0.08795699 1.2028332 -2.0689192 0.894549 -0.45261312 -3.3498185 0.91137356 -0.015176859 1.5675415 -0.11528624 -0.2608813 1.0495274 -1.5809441 0.7277698 0.12220648 -2.1270595 -0.114388205 -0.5763635 1.5581924 -0.16170126 -0.28658956 0.99386317 0.5379509 -1.4189625 -1.2020094 -0.24274603 -1.604927 0.75015324 1.7516489 0.6404427 -2.4504232 -0.89048177 0.9791473 -2.4249907 0.81582975 -1.8056775 2.2892463 -0.17740127 1.1277658 0.07614812 0.8093836 -1.497108 0.3036524 -0.5114811 0.35588557
boy 1.9372365 2.103988 -2.2850614 -0.67699224 0.59557897 -0.5924588 2.1579447 1.4086114 -2.6917622 -0.44153556 -2.3412602 0.6933526 -0.45791996 1.6779709 0.74659526 -1.4967976 2.9243872 -1.489738 1.2864903 -0.7370161 -0.6730654 1.2110744 -0.2683092 2.3924983 -1.3303977 1.4533255 -1.6706346 2.5098577 -0.11148505 -0.5888402 -1.1000632 0.13106857 -0.50769675 1.2394218 2.0371597 -2.1291835 2.146088 -1.9389514 0.43798962 -0.7740811 -0.1346217 3.265513 -0.16799599 -0.5070443 0.2111252 -0.21688004 1.9049968 1.0525953 1.3467621 0.99837023
female 0.13735643 -1.2400551 -1.457493 1.2383753 1.3655752 -1.1232387 1.6654077 1.3721027 -0.14664279 0.5855147 -2.3108344 -3.1105924 0.68714 -0.2231264 1.6856791 -0.8446044 1.3344024 2.386944 0.1136776 0.8957535 -0.47493017 -2.4843695 0.46576604 -0.4054742 -1.1559094 -0.1875117 -0.96781784 -0.20135456 2.0421686 -1.7370209 -4.0583935 -2.225583 -1.6943909 1.4844553 3.4032905 -2.401325 2.0493 -0.3261564 0.41614053 -2.5030327 -1.4467825 2.5411775 0.87063247 -0.4635399 -2.3341327 -1.3462772 2.1967702 -1.4490753 2.3460763 -0.55177003
head -0.7702129 0.122499116 0.7947242 -0.6079148 -0.2458596 -1.6648855 -0.947089 -0.5897328 0.78362054 -0.52575964 0.65436614 0.46334523 3.9226627 -0.10381826 -0.03297046 0.0017170411 -1.321761 -1.5802892 0.27500692 1.4765304 1.5754254 0.5111062 -5.502646 0.17604634 1.2076709 -0.9486341 2.646784 -0.72052705 -0.30742645 0.8989765 -0.6046947 2.1897643 -2.1776998 -3.4632113 0.124227025 0.9712873 -1.9371818 1.0937301 0.93900573 -1.8981314 2.872156 -0.5878415 2.9082463 1.6049393 3.5705502 -0.33792466 1.0596185 -0.48937646 -1.2488323 0.32588187
ponytail 0.7256261 -0.038495455 1.2150667 -0.30896235 2.9701562 -3.6989088 1.1148227 1.7674819 0.61308146 -0.030654954 -1.390539 -2.0042465 2.2945836 -2.8743837 1.5386559 2.3142908 -0.9512302 0.7092438 0.09862236 1.1079351 -1.4704973 -0.36849967 0.12673688 0.2231383 -1.2798088 -1.83043 -0.5770927 -0.5817322 1.351392 -1.9080797 -0.6968464 0.6814821 -1.2522932 3.0991535 -0.30210853 1.608235 0.8020281 -2.077908 1.276005 -0.42279825 -2.6837926 -0.94748664 2.2650883 3.5069387 1.12897 0.49179077 1.1590109 -0.3111014 3.4096522 -1.780025
across 2.0468664 1.4412308 0.25186092 0.17884004 -1.7612753 1.6945909 -0.48813212 -1.0388716 -1.2850641 3.4574833 2.0597188 1.4313471 0.041466404 0.62344 3.0097587 -0.9264529 -1.5475065 1.36615 0.24916391 -1.1561534 -1.3789377 1.5004411 3.7974017 -0.88061315 -1.4701465 -1.3137159 0.84212756 0.68158054 -3.955442 1.8750418 0.13130377 1.9992573 4.0851493 -0.5962718 -1.0424969 -0.41637933 -1.5957092 -1.6349345 2.4745057 -2.8664155 -1.3412323 -3.9102385 -1.427181 -1.4364247 -0.57180256 -0.42097434 2.7022548 -0.83448863 -1.6088116 -0.8903608
leggings -0.5234844 -1.7611251 -0.19132094 2.5255775 0.45489538 -0.75455815 0.4289695 -1.5222172 2.3985116 2.107783 -0.9349573 -1.1723813 0.5605482 -2.0719981 1.6262867 -3.001843 1.0227735 1.9079417 -1.4688805 -0.7855457 2.111547 -1.2517565 1.988446 0.8891233 -1.2659067 -0.7665792 0.029890308 -3.256599 2.1622171 0.16828842 -1.269464 -0.17853475 0.9131947 0.5759325 -4.3955626 -0.7111023 1.1461816 -0.0045153485 -1.3687625 1.4052321 -1.2412587 0.37172687 -0.4359228 0.7532433 1.9582462 -0.016712924 0.446503 1.2528803 0.65888363 0.4044319
flip 3.715647 3.6568189 3.6543384 -2.292309 -2.3925812 -0.40532932 -5.777897 -0.723928 0.40864018 -1.8076304 -0.5759564 -3.5634615 1.9978235 3.073063 -2.1128786 0.35221827 1.4836174 2.0492194 -2.746997 -0.18215573 -1.5618566 -0.93277884 4.2267504 2.415055 0.8599054 0.18406768 -1.3125907 1.4895037 -0.6566659 0.7696956 -0.4237803 -1.0585723 0.05674375 1.4402766 -0.54981863 0.43410662 0.9696087 0.844889 -4.793504 2.572414 -0.30508038 1.0430605 -1.9259545 -0.3239495 -0.0027063526 1.7324741 2.3836615 3.4948125 -1.314101 -1.7219869
sleeveless 2.3342836 -1.936728 -0.09911139 1.155806 -2.6651587 -1.1440642 0.5435906 0.48515862 1.1469868 0.4493139 -2.5092008 -1.4164515 2.197854 0.05712368 1.4757051 -0.5060887 -1.3057834 1.2249726 -0.88076234 -1.2145224 0.054951247 -1.3813674 0.24666637 2.4667473 0.94989306 -0.28932428 0.46567807 -0.1371313 1.5815194 -0.5563992 -2.107026 -1.0446297 -0.92207664 0.22603028 -0.91966003 0.65944654 -0.6858208 -1.5952147 -1.713488 0.6741482 -0.038223907 0.40120232 0.7667487 0.2413223 -0.50900215 0.47528794 0.28975272 0.63739866 0.07178055 0.6983267
stripe 1.0897183 -0.5359382 3.0943296 0.050292782 -2.780754 0.3849812 -0.097794406 -0.2508916 -0.5310246 0.81024265 -4.244329 -0.17052764 -0.16109407 0.85091317 -1.818861 0.13490278 0.5419684 -0.68931055 0.20582736 -1.5213145 1.839739 0.365657 -1.7052844 -1.418944 2.4219007 -0.12231091 -1.2313404 1.148231 -0.7755019 0.5121117 0.84358907 -0.4267744 0.47070292 1.6635323 -2.3845243 -2.9698412 -1.1025841 0.46380788 2.4744978 0.19905452 -1.5131328 1.8469287 0.8259136 -0.36105797 0.81490123 -0.37173516 -0.47062936 1.3817278 -2.0420752 1.375719
polo 0.7970245 2.2447798 -0.40502548 -1.2993171 -0.742765 0.33380347 0.31228384 -1.0512397 -0.2902411 -0.64068204 -2.59683 1.1385046 -0.9205839 2.6173565 0.7878404 0.39471412 0.6882008 -0.52009445 1.5161462 1.1334035 -2.242706 -0.31840736 0.33082128 2.7374728 -0.39014414 1.4446431 0.8441876 1.6163197 -1.866566 -0.52138555 -0.056062482 -1.7587514 3.4087763 2.6417613 0.85419583 -1.8684015 -0.67859995 0.29698876 -1.949275 1.538476 -0.593191 3.1158075 0.15114763 0.7908514 -1.1419514 0.95214874 0.6329158 1.3585433 -0.8161849 1.6044402
standing -1.8420576 -1.1120533 2.0867891 -1.2547963 -1.8894441 0.39537087 -2.2858837 2.6294785 0.24607196 -1.5377351 0.6273903 0.8535431 1.5633894 0.38713524 -2.1233153 1.0502088 1.5629921 -1.8626932 1.3075063 -0.6092907 -1.5629125 -1.2091558 -1.9339403 -0.1733441 -1.079021 0.020042172 -1.2464589 0.1912611 1.1164384 -1.9265128 0.3655345 1.0902157 -3.5758686 1.2340572 0.050597824 -0.14654033 0.7954301 1.6880823 -0.06190248 -0.28077355 3.4148488 -2.5123775 1.4867707 -1.3905225 -1.2342073 0.9742505 -1.4964962 0.3749885 -0.039824836 -0.41489
beige -0.75732017 0.18441555 0.013415625 2.1901126 1.547087 0.74933416 0.60723406 -2.0146492 2.162336 0.121753536 -1.1455023 0.95408666 1.1670414 0.84604675 -0.09468405 -0.65010124 -0.3782821 0.42188442 -1.2117007 -0.17063075 -0.37979788 0.5415441 0.4165871 0.34707454 -0.611662 0.8166578 -0.43401495 1.4644114 -0.5683526 -0.6280203 -1.7729349 -0.46491003 0.77999735 0.113014504 -0.61303324 -0.68101794 0.71017444 -0.4382461 -2.198725 1.7378818 -0.8367422 -1.3857092 -0.6670277 -1.59265 -0.39758098 1.5105287 -2.714665 0.3539568 0.6928798 -0.7930288
tank 3.954175 -4.733963 -1.6579752 0.7074738 -3.2060976 -0.95532566 0.11926451 0.8547176 -1.9575021 0.9626511 -1.3567253 -1.7787569 3.0046904 -0.86513716 1.7687854 -0.20098174 -1.071889 1.0140172 0.13810623 0.011727547 1.2343885 -0.22874247 -1.5556353 1.7875636 0.8467693 -1.2711582 -1.1995659 1.1604179 -0.6658226 0.5394067 -2.0882673 0.49505994 -0.79357404 0.31233904 -1.5164099 -0.23032027 -1.5548714 -3.4160008 -2.2518082 4.2190857 1.545736 1.5551075 2.5543978 -0.8863528 -0.13045223 -0.42896226 0.95520085 0.4647032 -1.5477309 1.6893271
belt 0.85198003 -0.51568115 0.3108549 -1.4097893 -1.9445125 0.8034732 -0.49100655 -0.56365025 0.7912151 0.5286516 -2.5162103 -0.48589212 2.011696 1.6105196 -1.3048006 -1.2411215 -0.53410095 -1.386221 1.453599 2.2783177 -1.2003356 -1.8640496 -1.088843 0.627935 0.74092555 0.38904962 -0.21394932 -0.40017882 0.7233549 1.2499613 -0.7382004 -0.6993938 2.23022 0.10952924 -2.4081783 -0.9752805 -1.0054001 0.52889156 -0.8354677 0.54131436 -2.923588 -0.80073225 -0.8947414 1.7866379 1.4760553 0.7274154 -0.9909184 -1.8174075 0.2456496 0.1540653
away -0.6901052 1.2841449 1.401265 -1.7761589 2.0665486 0.6988357 0.25282013 0.7856881 -0.379311 0.581284 0.41791716 0.5256616 -0.025594145 0.54897803 -0.55232 -1.2024987 -4.3242087 1.1534642 -0.33068985 -0.8345918 -0.12839013 1.232282 0.60902554 -0.9388316 -1.7359148 1.7526797 1.3775952 -0.49987495 -0.26917773 -0.46135667 1.6510223 0.30439472 0.20824443 -3.3815389 2.1275826 -1.6434149 3.1023345 -0.51045966 0.87329316 0.20146678 1.3130141 1.1198221 4.178417 0.4947922 -1.873566 2.4550712 2.3212156 -0.30407292 -0.43123078 -0.25504908
sweatshirt -0.57386005 0.7804537 -1.7945255 -0.6994437 0.34989265 -3.7922034 -1.7059846 -1.9245477 1.5921966 -0.8780095 -0.16454127 -0.91527754 -2.0654795 0.91878057 0.24458782 -0.09785776 1.4487624 0.15518801 2.8034804 2.7705708 1.7134277 -0.57644117 -1.4976012 0.8262384 -1.9224374 -1.9068984 0.24788165 -0.08695643 0.050057597 -0.46709955 2.7296743 -2.9121168 1.7918093 -0.37168738 -0.770267 -2.726897 -0.38706034 -1.374233 0.95550513 0.83622926 -2.355654 2.0869105 2.0660129 -0.18668585 1.5049703 2.1404722 2.9483354 1.2098811 -2.9103115 0.84834224
pulled -0.38385093 -0.7054035 0.45053512 2.2376318 -0.8770705 -5.4354515 0.55334455 3.5237648 -0.37604848 -2.3750591 1.367105 -0.7833503 1.2785375 -1.1359735 1.8696005 2.9839191 -1.0463713 -1.5502994 -1.7573639 1.4484203 -0.6491859 -1.6347973 0.6406287 0.32433635 -3.0479853 -2.6155539 -0.9043344 -2.8100345 3.025686 -0.35603514 -2.4112701 0.7282334 -2.5518808 2.7961838 -0.08611678 -0.47322288 -3.109679 1.5159703 0.3328723 -2.8637853 -3.2564468 -1.8939621 2.6971204 0.67927366 -0.106985986 -0.56809056 2.4716206 0.6335969 1.7336996 -5.188423
wrist 1.5190271 1.5487564 -2.7477832 -0.4587293 -2.264107 0.5082431 -3.86629 -1.8403507 -0.18624423 -1.7106979 1.1032944 1.6634147 0.8308006 -0.6153831 -0.17671518 -0.58024716 -1.8407139 -1.5069462 3.8952067 -4.018269 2.333708 1.3199716 -2.5590086 -1.2229252 0.4829654 -0.37135497 -1.0003573 -1.4987028 0.9921324 0.5401914 -1.8835634 1.6078321 2.7091467 -3.188601 -2.5082793 1.8985763 -1.5118586 -0.50898075 -2.6538012 -1.8971069 1.2211214 -1.3116704 0.31751484 4.221579 1.6584536 -0.27745417 -4.0809927 -2.0705614 0.04352266 0.31742632
flops -2.1989968 2.9981508 0.072675206 2.0118883 -2.0323079 2.8354676 1.1455218 -1.2067053 -2.027921 -0.35456607 1.6990297 0.5817716 -2.7848022 -4.861469 0.8562661 1.7277825 -3.577319 0.19227047 1.5503985 -2.5678475 -0.7873054 1.3934461 -3.3206923 1.3177772 -1.1032261 1.7269561 -1.1404574 2.2572055 -1.1429341 -2.733502 -3.745463 -1.4051268 -0.85109687 -0.5982924 -1.1955571 -1.2284094 0.7469632 -4.3737707 0.054090712 3.0983648 -2.0049171 -0.28591046 -0.36706373 0.7159774 0.26709896 -1.9942374 0.3208456 -1.5628386 2.6525495 -1.4384766
suit -1.4573959 -0.5015281 -2.61802 -1.7745229 0.614603 -0.15234871 0.9782881 -1.9078827 -0.078821145 0.60159755 -1.9679284 0.47217798 2.7312515 2.3359926 -0.15627171 -2.9345229 -0.2757175 -2.0094242 1.1169745 1.0287962 -1.9353249 -2.367432 -1.476834 0.4781941 0.18093994 1.5736964 -0.5025162 -1.367073 1.03388 0.054953817 0.9026352 0.32909858 -2.2215734 1.0393573 -0.5902325 -1.4691387 -0.029006718 3.8277316 -1.2494001 0.848234 -0.24433413 -0.81930333 -0.26920283 0.42105752 1.0568508 0.24908495 -1.583766 -2.8406034 -1.3340415 -0.042843387
feet -0.93189037 0.41508448 1.9405032 2.501755 -2.3312974 3.1197288 -3.960094 0.2784153 1.4041476 1.2423738 -0.4160444 -0.35772353 3.3817759 -0.02565963 -2.1193345 -0.08015748 -0.81612194 -1.3506631 2.3492928 0.5997774 4.248226 3.6355546 -4.1149054 -0.40523222 -1.668197 1.1351917 -0.72737694 1.539167 1.9059703 1.1547967 0.22958592 5.7688923 1.5627557 -1.1409056 -0.58475447 2.4922736 -0.87581944 -0.5038662 -1.3064678 -1.758156 -0.025852956 -0.29298913 1.0600874 5.700126 1.740379 1.5163345 -0.7821153 -0.5504717 -0.39896932 1.0395409
small 0.18544316 1.4874278 -0.435782 2.0910068 0.92659146 -0.04646298 -1.2702885 0.75565624 0.39531893 0.11923809 0.72688216 -0.24538752 0.7887837 -2.0842297 0.16935664 0.6033816 -0.2796562 1.6407332 0.46336684 -0.39311665 1.2575057 -1.4896102 1.478166 -0.8712455 0.91501015 0.6441857 0.91274226 0.8392742 -1.6949922 -0.33404663 -1.2668506 0.058466464 1.593011 0.50238705 -0.87466836 0.7488341 -1.0562161 -0.063441046 1.0868292 0.7460054 1.1556247 -1.6756915 -0.5991704 -0.4580201 0.5933425 -0.58908355 -0.9715985 -0.045320287 0.5350738 -1.2886617
strap 0.5411041 1.5002548 1.3015127 0.92870855 -0.5259648 0.26879779 -2.3856354 0.93221307 0.8685246 0.8194314 -0.11594494 0.92992985 2.3713636 -1.7638966 -0.018812193 0.34762916 -0.90771425 1.1750009 1.7668375 0.66029376 1.784162 -0.14204258 0.7730761 -1.7093772 2.1065638 0.4048979 0.21757102 0.4824087 -2.4206712 0.37889022 -1.3222141 -1.8350443 4.1425705 -1.6018764 -0.7596503 0.74097425 0.77523285 1.3643767 2.4819841 -2.4915895 -2.792362 -3.192652 1.0465152 -0.7807495 1.5254158 -1.5763924 0.40780884 -0.922187 -2.1816947 1.0191488
tight 1.0977112 -4.289295 1.2553391 0.30613363 -2.0747902 -0.9735839 0.35943216 -0.10785599 1.3841707 -1.7288431 -4.0327926 -0.51177144 0.45431572 -0.1672504 -0.54256123 -1.645639 -0.03786028 1.1859773 -0.68312377 -0.15345916 -0.99090374 1.6609104 -0.008781034 1.0522823 -0.53668076 -0.48133153 0.3161022 -0.16936798 1.8507987 1.3294398 -0.28094366 -0.7604807 -0.19115156 -0.03495888 -0.87533844 -1.5395644 -1.7205954 -0.5447854 -0.58175504 0.028419653 -1.0922934 0.0011185597 0.3161549 0.6331985 0.9799972 3.0473213 -0.2857151 -0.443409 1.3059609 0.7319993
along -0.75299853 -0.45131165 0.75120676 0.3976215 0.13829748 2.5269597 0.20770456 -0.42865613 1.9791943 3.3985348 -0.84003097 0.90722066 -1.667468 2.0864146 -0.65618795 -1.5124499 0.6330373 0.524481 -1.6969278 1.4036286 0.82326186 -0.3374547 2.2335813 -0.053624492 -1.8339365 0.50907683 -2.0866618 3.0197406 -1.0300246 -0.6512716 1.4490633 0.17967625 1.1676612 -0.91550225 -0.99894977 -0.90049106 1.8609 -0.9503827 1.7556494 1.3091164 1.1979892 -2.4410315 0.03778945 -4.3577957 -0.6902047 0.43541706 0.36661398 2.5003014 0.248176 -1.5274763
body -0.48754716 1.5375663 3.2610605 2.2667246 0.038644 2.6725273 -2.7569988 -0.24906152 0.8398639 -0.7089262 -0.60366225 1.6495492 1.8990347 -3.6085622 -0.19802295 2.0559108 -0.7762388 0.458779 1.9181004 -1.2577006 0.7770768 0.6799679 -1.8786262 0.15757869 0.6731895 -0.023074586 3.025444 -0.30398557 -1.6096495 0.19666445 -1.0060077 -0.9192979 4.121326 -2.901788 -0.61778605 0.85128415 -0.5871408 1.6765274 1.8142298 -2.277855 -0.5589553 -2.3896432 0.2435132 -1.0555062 3.23023 -1.2135953 3.2511196 0.4895384 -1.7186657 1.8985281
they 1.7565243 -0.40558004 1.3030022 2.883358 1.9777122 -0.36563343 0.54537493 0.32749167 0.4701886 -1.8264195 0.8699062 -0.23680626 -2.6552184 -0.6057956 -1.7956908 0.26537257 -2.2876067 0.072128445 -0.7532542 -1.5072746 -1.7866676 -0.6838022 -1.6698155 -3.9598045 1.5744967 -3.5505555 -1.6498977 -2.707601 0.045076843 2.447454 -1.8994858 -1.77184 0.37170672 1.925417 0.98231727 -5.033673 4.541389 1.5032578 -1.8149601 3.2219903 -0.019310066 3.1979625 -1.9009135 0.8539017 -0.6636618 0.2608577 -0.4271471 0.19731441 -1.7586851 -0.7877359
slacks -0.57624966 0.28081226 -0.18443103 -1.2750298 1.5909786 1.2520349 1.4218229 -2.5268025 -0.0065276776 2.7270753 -0.044241223 0.78380316 1.9340527 -0.49813086 1.4130683 -3.3256755 0.32941678 -1.4123745 0.8646582 0.57349366 -0.45730913 -1.1165589 0.7057214 1.2851169 -1.2573667 0.12235284 0.38127115 -3.2268934 -0.62298536 0.07628054 -0.88746506 -0.38548586 0.5931821 1.6708442 -1.9094954 -0.86822534 -0.78288543 3.6226006 -2.655269 1.5986902 0.20352468 0.25709766 -0.42443666 0.9425734 1.6085956 -1.1879987 -0.78722364 0.7053107 -0.22275151 1.4576176
tie -1.1823194 -1.5149114 -2.1086686 -1.1743225 -0.29257277 -0.25672114 1.9899142 -1.7109576 -0.37914813 1.8786081 -3.198343 0.35053852 1.6639464 2.8373315 -0.49784476 -2.4287732 -0.7612039 -1.2159855 2.2910333 0.17677441 -1.6119853 -1.8099934 -2.0749106 0.69617236 2.831377 0.72864777 1.0492177 -0.9820091 0.60850835 0.85112137 0.64863443 -0.5630646 -1.3450204 1.7146103 -1.1807891 -1.7506051 -1.4956565 2.2487214 -1.2328444 0.7548722 -2.517008 -1.0089846 -0.84306586 0.8356789 0.119046986 0.20251003 -1.0885068 -2.6064844 -0.08709703 0.36141124
haired -0.99161446 1.2882677 -1.3132896 -1.8398218 0.246539 -0.6372002 1.7507324 0.024921166 -0.083491474 -0.34329295 -1.945928 -3.5536351 1.633274 -0.9948679 0.6946856 0.7437613 -0.49353817 -0.43388954 -1.0069298 1.2824234 -1.6328142 0.031087179 -0.07220397 0.88468236 -2.1477773 1.1914959 -1.1975678 -1.9456698 0.2850389 -1.5041816 0.34322414 -1.4759767 -0.41573918 -0.040826585 0.84475523 -1.4466864 0.2847702 1.4110807 0.57011116 0.49808356 1.8141378 2.6201234 1.3926294 -1.8692628 -1.3409678 -0.014831639 2.6167724 -0.9085898 1.2525545 -0.0003190529
under 1.1682818 -0.6908268 -2.4058506 -1.4090724 0.02626404 1.1570418 1.5664514 -2.6499577 1.3069303 2.2830749 -0.19177887 1.4302198 1.067147 1.0095005 1.6174831 -0.9557387 0.26853913 1.9201543 -0.737179 -1.1493567 -0.05956171 1.4428376 -0.44861755 -0.71493953 1.0932984 -0.4490103 1.1371015 -0.13147461 -0.232579 0.9150744 1.0048529 0.6127455 0.26965103 0.9087584 -0.6519742 0.1240755 -2.1230664 1.4212677 -0.10160014 -1.4647372 0.253426 -1.4894191 -2.1601965 -1.1989859 -0.2881171 -0.24840422 0.9311798 -0.47310987 0.8044227 -0.34818387
print 0.7321509 -0.43965536 1.4385533 1.4020371 -1.4419072 0.28794405 -0.16945246 -0.32611465 1.2372642 0.09855746 -3.5124567 -0.6188902 1.6915786 -1.6131381 0.96634907 0.9900247 1.0106032 0.65368974 -0.6095807 -1.9120717 1.1376413 -0.8085396 1.0129906 0.78374726 0.5836045 1.1870179 -1.7014822 0.015732862 1.4870151 1.4948734 -1.3426288 -0.9670368 1.5978125 1.3396592 -2.8598926 0.49234876 -0.35877708 -1.0939091 -1.37656 -1.2983019 -0.6420064 -1.2870448 -2.9804187 -0.7584392 0.7032708 0.35571587 0.6540199 0.1764504 0.022224069 0.10496604
some -1.2671329 0.46855372 -0.8283993 -1.2379098 -0.6208718 1.5334617 -0.84761864 0.017695991 0.47414863 -1.6774868 -0.11140842 1.0222837 0.043471005 -1.6701685 -1.57463 -1.0684015 2.6425676 -0.27473396 -0.54783064 -1.3118802 -0.17969614 0.47114924 -1.3542455 -0.31508714 -0.183177 -0.41527888 -1.694233 1.1283015 1.8773546 0.8116794 -0.82733816 0.192273 -0.37146428 -0.07468146 -2.1438491 -0.36287525 0.9319688 -0.76308256 0.6406974 1.4916986 1.9899316 -0.36859882 -3.1346612 0.843703 -1.6918343 0.6464551 0.25370944 0.4923111 -0.64587486 -0.9158305
picture 2.0683851 -0.13827623 1.3367095 0.27275443 -1.4010345 1.0631953 -1.2967606 3.3729365 -0.5913663 0.49421275 -5.2170978 0.5644317 0.35140672 -0.021432022 0.50340945 2.558875 3.216669 -3.3259976 0.93465126 -3.052963 2.49537 0.5183353 -2.5938718 0.48444533 0.7138395 0.5397089 -6.1399465 -0.257143 2.9604216 3.043405 0.12752731 0.98585397 -1.7869462 0.9849402 -0.07573123 -1.1699356 -0.21155775 0.9905789 0.9639656 -1.0444913 -0.63363194 1.1377302 0.3970219 -1.050557 -1.2135262 1.1517267 0.8110396 -1.4645226 -3.2330012 -1.8148507
capri 2.454234 -1.7305236 0.72288 -0.8689509 1.2919427 -0.017681038 -0.4165348 -0.271692 1.5957221 -1.6365389 -1.2458183 -0.45019415 0.8099285 0.627444 0.40047553 2.3724189 1.3704262 0.66898155 -1.8133361 -1.6111366 2.009757 0.6163255 0.020692827 2.719103 -4.467654 -1.4272859 1.3857176 -1.5461199 1.1186833 -0.30546877 -2.1370463 -2.4853854 2.7318196 2.1641426 -0.47146803 2.6575198 0.5314055 -0.7728596 -2.029072 1.2710819 -0.02995597 1.8604511 -3.1650977 2.1130779 1.9107902 2.166378 0.6294372 2.9373841 0.97962767 0.7392398
very -0.527513 -1.0395997 -0.9191117 0.84775335 -0.68472207 -1.2867736 0.7201295 1.3666915 -0.8315997 -1.5289172 -0.018367289 -2.4057431 0.4170034 -0.189894 0.675525 -1.5915157 -1.2623233 -0.5235248 -0.83185375 -0.4391324 -1.2611878 0.39736006 -0.16870342 0.66084534 -0.61716247 0.0041423 0.12605935 -0.02067849 3.1112545 -0.94617975 -1.9208596 -0.10190984 0.426296 -0.6816775 1.3050482 -0.4196627 -0.032304097 0.13577792 -1.0041329 0.3302429 -0.33426863 -0.16581896 -0.3517007 0.6235243 -0.86643356 0.05891703 1.0469222 -2.0313265 -0.5111806 0.12991355
shopping 1.3677123 2.6836424 -1.0873487 2.1454296 1.0317518 2.2160666 -1.9171096 0.6424888 -0.64956135 -1.3294702 1.2770202 -0.91785866 1.4403476 -2.673782 0.9690033 0.39525992 0.3157754 2.4360385 0.385086 -0.2843208 1.1070012 -2.5613184 0.13872474 -2.1008582 -0.55189234 1.4902904 1.4431142 0.9366202 -0.8347314 -0.014962211 0.40368146 -0.08883886 2.4323537 2.5975163 0.15903394 0.3758149 0.24399036 -0.73936945 1.6654245 1.3551179 0.9209398 -1.7372719 -1.0260094 -0.83216053 0.6141859 0.4596967 -0.7923466 0.92303866 0.6766091 -1.2032179
looks -0.13466501 1.0004072 4.348035 -2.8330598 0.7496941 -0.5867878 -2.0825202 0.41938728 2.166971 -3.7613075 -0.27757764 -0.5529729 -0.36207762 -0.45282817 -0.92719007 -0.004039187 1.5060638 -1.7090222 -0.03150212 1.2872045 2.6725688 -0.262708 -4.903451 -2.2833483 1.8295275 -1.6368765 1.5888786 -0.09360353 0.45346847 -0.8650114 -1.2787297 -2.4774559 -1.8685654 0.5407153 0.11435733 2.5531979 -1.2299627 2.844837 1.7059419 -0.26705357 3.4738536 -0.75667804 1.3822632 -1.2639402 0.4808927 -1.7072858 -3.140288 -1.2797407 -0.5851423 -0.63965327
book -0.8405758 3.4943078 -1.9295014 0.85779566 0.18131767 1.3299303 -2.483166 0.43987113 -1.5138035 -2.040218 1.8991399 0.42315316 0.6685451 -1.095353 0.7766877 0.06287957 0.7717838 0.91040653 1.0678635 1.0313185 0.9717772 -0.59657484 -1.6901073 -2.2565277 -1.905455 0.53354007 0.4809157 -0.8433832 -0.7531668 1.7135384 0.46215525 2.0938969 2.0455241 1.7191813 -0.7729077 -0.56728303 -0.75230634 -0.39794922 0.36111376 1.6274422 -1.3422182 -1.5572722 -0.33759308 0.5690963 0.8576053 1.2672936 -1.1101052 0.35904452 -0.53038645 -1.79421
behind 0.5125414 1.6321986 0.39883304 0.3389512 -0.7964115 -0.16948728 0.73674 2.4288046 -0.19146647 0.12532912 2.666601 0.7479471 -0.63069034 1.7286223 -0.5149215 0.22634682 -2.4446154 0.18516581 0.20190217 -0.34387112 -0.5378079 -0.097812444 -0.09435457 0.04721677 -0.3091698 1.8976792 2.3571365 -0.0040913783 -0.711496 -0.38543263 2.7923567 0.43254223 0.24069585 -1.363322 1.519061 -0.04697809 -0.090738736 0.55101335 0.16490673 -2.214184 2.7150993 -2.718475 2.9212713 0.24495268 -1.5341738 1.111485 2.1442478 0.04982397 0.5330765 -1.9803638
dressed -2.469164 -2.1940954 1.4246134 -2.7831109 1.3491129 -3.8573005 1.1399082 1.6101121 -0.38635343 -0.15241435 -0.98893416 -0.71086526 2.918118 -1.0769581 -0.17185593 0.55550283 1.9639428 -0.44112214 -0.016417582 0.7686224 -3.004962 -0.62835664 -1.3260971 -1.6983924 -0.20143801 -0.36962086 -0.80665416 0.621947 -1.1758574 -0.39299715 1.4628168 0.48862708 -0.032419182 2.765239 0.8671207 1.0018914 1.8482491 1.3557625 0.7358022 1.9242022 0.90238 -1.5103232 0.43206286 1.3360714 0.055827744 -0.518558 -0.8610025 -2.1910317 2.9292397 0.51716214
camera -0.5913711 1.4517614 2.1087322 -1.3064182 0.44283402 1.2282721 0.82008576 1.5794402 -1.2801981 -1.1491045 -0.4338728 0.84415984 0.9128719 -0.99650073 -0.9835884 -1.6322508 0.6668767 0.8076462 0.42197275 0.7266838 0.6044288 0.8538845 -1.4729822 -0.36337802 -1.7596734 -0.2715153 -0.09254297 0.54043025 -0.98115534 -1.3876079 0.22739023 -0.9016141 -1.5474758 -2.8167517 2.4790459 -1.6715631 2.230447 0.89617896 -0.78049296 -0.8379316 -0.014406096 -0.5791006 2.3855376 0.31353372 1.0645475 0.6396369 0.460938 0.073813446 0.11156908 -1.6701299
into 1.7006552 -1.4190313 -2.1461542 1.0559262 -1.2429632 0.89457375 2.117399 -1.7219347 2.6096122 0.92788565 2.9112759 -0.8727544 -0.9192584 4.5407596 -1.5739707 0.830949 -2.1578367 -0.75197005 -0.52748126 1.1267872 -0.23872988 -2.0546665 1.6776723 2.821503 -2.060046 -1.0108957 5.975107 0.3724762 0.35517246 -1.1294463 -0.84218705 -1.325529 -1.0139561 -0.80621207 1.3995559 -0.17834336 -1.7697994 1.0677004 1.0036942 -0.80636877 0.08531248 -0.055394053 -1.109468 2.079559 -2.2617266 1.8784592 1.1773833 -0.82955295 0.624198 -1.9615349
umbrella 1.4257838 0.97367334 -2.6686265 0.51064736 2.317831 1.9366033 -4.122187 1.1501094 1.7734609 -2.159534 -0.4238474 -1.1556125 -0.38443202 -0.6460764 0.05354238 -1.2927692 -0.30164126 1.0508893 -0.7893136 1.1703589 0.19206269 -2.110523 -1.2253016 0.45747036 -1.0122398 1.0344015 1.9148989 0.16886209 -0.59955376 -0.44915614 2.5038037 -1.6719531 0.7781757 1.784962 -3.269483 1.712546 1.7403603 -1.4126102 0.8111027 1.0974514 -0.13555603 -1.5887997 -0.354641 1.1927681 -0.53318465 -3.1924124 -0.8312957 -0.8243021 -0.5290638 0.5228191
both -1.7715261 0.8741794 0.0411413 1.719977 0.50955623 -0.60808504 -1.6542529 1.1877097 0.24178343 0.41209963 2.4328146 0.15421808 -1.1435164 -0.43466777 -2.343414 2.4193296 -0.98678553 -0.38502076 0.33016244 1.0554955 0.10101603 -1.6493977 1.1005573 -1.015326 2.6134336 -2.1347415 2.0593758 0.048062615 -2.5762768 1.1879364 -0.5865616 0.9087582 1.0399569 0.71847653 -0.32748473 -2.9698095 1.2519815 -0.13831861 0.5449045 1.5741311 2.2758622 -1.6043333 -0.37527496 2.5914304 -0.59308404 0.31260082 0.008160943 1.4039022 -0.9237567 2.165064
vest 0.6130081 -0.6345809 -1.0598018 -1.150537 0.48703322 -0.22929917 -0.3969846 -1.6104031 1.6696086 -0.5518097 -3.5419085 0.37481427 0.49843225 0.5568512 -0.017950706 -0.3861499 1.6938802 -0.8894539 0.3588679 1.0178506 -0.89951646 -1.6964855 -1.4557981 2.078849 0.55166095 0.87880564 -0.45201522 0.20326552 0.6474003 2.2073452 0.9790904 -1.17195 1.3770449 -0.5615409 -1.2027419 -1.0277594 -0.96050125 0.7915839 -1.7249259 1.4117981 -2.0117218 0.92187685 0.26589906 1.1751515 2.0469806 0.53666794 -0.30126166 -0.39752164 -0.7131063 0.54952645
have -2.2809956 -1.1439642 1.7963233 2.6838615 -2.463461 1.0523515 0.7426136 -2.701143 1.9872594 -2.7293456 1.7747965 -1.8315549 -2.7622259 0.715013 2.1208494 -0.11550534 3.3272347 0.07504312 1.8980004 0.36251652 1.0586902 1.199933 -3.361367 -2.0407887 -1.7160219 -2.412295 1.1019382 1.300546 2.084631 -0.56138915 1.0391135 4.149018 1.2751273 -1.0924734 1.5322394 1.4163594 0.63641363 -0.8073777 -2.934399 0.63741046 -0.6359253 2.5889804 -0.1679934 2.0205932 -0.5440759 -0.6963593 1.6549542 0.41255102 -1.8755842 -0.20145904
pony -0.22509883 0.26865852 0.073902965 0.18348683 3.6948967 -4.787869 1.14078 0.98743063 -0.7091627 -1.1190134 0.84887666 -2.3040628 2.9600995 -2.3898106 1.1970217 2.1524072 0.36961663 -1.5617415 0.7167316 0.96415466 0.49473667 -1.584937 0.110056706 2.2683995 -1.5733234 -0.8327397 0.14569995 -0.52408713 3.8507392 -0.27163172 1.0851892 -0.56779957 -2.987262 4.178944 0.758271 1.5938238 1.8628354 -1.2821639 2.5854971 0.53208035 -3.727577 -1.7115843 0.89510655 3.089549 -1.0177876 2.1350627 1.2322857 -2.3054297 3.0330698 -4.369813
heels -0.42807168 -0.81459665 -0.034149412 0.81569326 -1.6070857 -0.61215466 -1.7278721 1.0254925 1.9194229 -1.3578881 -1.8767023 -3.4544442 -0.39342222 0.2838695 -1.1288759 -3.2848358 -0.8320381 2.4561143 -0.15341726 -1.7113464 -0.48881826 -2.4383948 -0.43959233 1.0105994 0.71282125 0.2264251 -0.041021902 -1.5783044 3.4525895 -2.0521185 -1.9426988 0.87482303 -0.3968794 -1.3445331 -0.48454422 -0.46305192 -1.0229771 -0.5149588 -0.027857387 0.71877956 -1.7263415 -2.7826989 -3.2536159 2.2182565 1.8063779 0.5779619 -1.164396 -0.17864439 3.0435407 -1.7245749
flat 0.024122734 -1.1680886 0.44263026 1.4990987 -0.344563 0.24129173 -0.2348138 -0.86683124 2.4600687 0.17547165 -0.93304104 -0.6569513 0.8074489 -0.18589951 -0.94582385 0.47526646 -1.4288228 2.515762 -0.051120985 0.55538136 2.039201 -1.6721538 1.1251967 0.81541204 -1.1397353 0.50551224 -0.93884593 -0.8475017 -0.94496167 -0.43858927 -0.2342809 -0.38342208 1.9652735 0.78353107 -0.7539829 0.5056822 -0.2083416 -1.0529903 -1.0974029 0.6746768 -1.2593058 -1.9904692 -0.63913566 0.07362593 0.22537765 0.016696585 -1.7704655 1.963804 -0.22552368 -0.8416263
forward 0.6377122 0.79986167 0.17787863 -2.8233278 1.7338907 1.6202987 -0.79559743 1.113406 1.6298203 1.136598 -0.5801277 0.83451223 -2.0952518 2.2228734 -0.97329086 -0.9845047 -2.6721525 0.96983504 0.36144173 0.034173008 -0.9737779 -0.16562136 -0.7512885 -0.45270878 1.6980951 1.1126907 0.3426988 -1.652759 -3.412187 -2.0505831 1.1087409 0.3390404 -1.6720287 -2.1828604 0.66694206 -1.2597224 -0.9142717 2.0969152 1.4559245 -0.8316902 1.7773733 -3.2594604 4.8486753 -0.6542406 -1.118493 0.33503133 0.8758412 -1.0396641 -0.18256474 -0.62675303
knees -0.590716 0.008860478 6.1674604 1.4323027 -2.9677212 3.621333 -1.6306758 -0.4796431 1.7256362 -0.23571692 -1.311361 -1.0159537 1.8090519 0.68383753 0.9643347 -0.10834546 0.3335562 -0.9802641 -0.09466865 2.44945 1.7759733 0.71643263 -1.0820489 2.210408 -2.4481437 -1.6193764 1.4928763 0.9723348 -0.32779166 -1.7950721 -3.0132434 0.66412413 1.5500877 -1.5519426 -0.17515977 1.6876782 -0.06733715 -0.018844513 -1.0159733 0.49365053 0.6533749 0.97912997 -1.964522 5.3311625 4.519014 -2.8243635 -2.8079207 0.63359356 -1.5100192 -2.4232233
asian -1.3486502 -1.0895917 -0.6459336 -0.97805434 1.6429315 -0.88613445 -1.0127978 1.0753063 0.04092984 -0.62151456 -1.1753849 -3.2952056 -0.79483104 -0.63101435 0.6327454 -0.45894906 0.88109726 -1.4269047 0.4008594 0.03761573 -2.2538388 0.6451072 0.09039358 0.45080703 -2.1847384 1.093491 0.46198034 0.6307337 0.4445434 -1.5884683 -1.7335873 -1.404845 -1.3259352 1.2120636 1.1836916 0.9228351 0.17235523 0.6295048 1.3410434 0.7786404 1.0822222 1.9523529 1.9320678 -1.6534178 -1.5028323 -1.8018169 1.6745968 -1.9072198 0.63153696 0.09083202
tail 1.1703856 2.0179882 -0.46326056 0.62834567 1.0154129 -1.968667 2.3359938 0.3923399 0.3569691 -0.74174184 0.42590022 -2.7533026 1.2944857 -2.1730573 -1.0257703 1.0136037 -0.20146677 0.6706947 -0.6397302 -0.7118294 -0.86049545 -1.2166665 -0.67626363 1.6066719 -1.4528729 -2.0124404 0.87554514 -1.9056026 2.091952 -0.9102781 -1.247338 -0.12625723 -1.8661716 4.451429 0.96595246 0.16440131 0.87714934 -1.830616 1.8477861 0.29297182 -3.3043618 -1.0962887 -1.343356 2.966463 -0.6317495 2.4920037 1.852338 -1.2140487 2.9819667 -2.6500785
waist -0.7270075 -0.74040294 2.7776363 0.09620044 -2.1315665 1.7329113 -1.255887 0.4027903 2.1658392 -0.079081655 -3.1050243 0.16951714 1.7350919 -2.4127645 -0.018310659 -0.11924476 -1.0237478 0.48634723 1.2642057 2.7217014 0.3775305 -1.151529 -1.121879 1.4635354 1.8210492 -2.8717031 2.9610806 -0.7373376 -0.25304788 -0.806002 -1.0729759 3.321737 1.6631744 -3.0077987 1.2006614 -0.70717275 -1.6160748 0.9511693 0.6055952 -1.6691442 0.9052795 -2.113212 -0.74044466 3.8082192 3.7949557 -1.2278655 -3.1346006 -1.3958837 0.6128443 -0.40381712
hoodie -1.3403056 0.58409464 -1.6205021 -0.31019396 0.37538847 -2.645813 -1.5056707 -2.3925042 1.300659 -0.27769503 -0.1771759 -0.4672628 0.12132139 0.71175987 0.41471985 0.13327233 1.9231433 0.4451351 1.9087615 1.7482636 0.6078328 0.29701695 -1.5948461 0.28715077 -1.5698867 -0.56976986 -0.8421637 0.45218515 -0.05802331 -0.86111826 0.83244085 -1.276277 0.8825348 0.36643338 -0.39154446 -2.6887846 0.25444058 0.00576357 0.38592237 1.5965661 -0.8383738 2.1444337 0.61356455 -0.31805795 0.38074777 0.12222973 0.46273163 1.1951654 -1.4006656 0.7406663
design 0.09491555 1.5562986 1.117481 0.06729359 -0.5672555 0.5679335 -0.6153736 1.6032412 0.14036691 0.99805874 -2.250163 1.191919 -0.6032184 0.5097745 2.2547967 2.3361712 2.2033317 -1.5901893 -0.0015074875 -2.4017532 1.9560807 -0.5201551 -1.4116572 1.2010559 0.3795478 0.01769365 -3.9174855 -0.6181723 1.6252365 1.1087705 -0.26837212 0.177027 1.8004553 0.95048094 -1.6031183 -2.0349517 0.31184462 -1.2848334 -0.9981736 -1.2596312 -1.5202831 -0.1675098 -1.9865996 -1.3447753 -0.6229545 0.7080334 0.92278713 0.8044124 -3.028007 -0.791437
patterned 0.18283233 0.010093394 0.7234814 0.6436332 -0.75565475 -0.46512067 0.6677985 -1.602014 1.0265687 -0.31978628 -1.3861557 -1.6241033 0.92609984 -0.46966657 0.42413858 0.102939054 0.6353046 1.6122026 -1.2456969 -1.1624376 -0.36344203 -0.8836364 1.1711042 0.7636158 -0.31642514 -1.069799 -0.08940403 -0.068046965 0.42829505 -0.546692 -0.5286729 -0.72039163 0.6444232 1.6290325 -1.5760101 -0.33642444 0.30098572 -1.3045695 -1.7810214 0.2388448 -0.3476388 0.28477082 -1.5711181 -0.40438548 0.47641182 0.12609069 -0.6814314 0.52861214 -0.01782622 -0.0398069
cap 0.36679146 0.88569164 0.08975051 -3.7452493 3.4607751 -0.35545474 0.50829154 -2.798917 -0.28703633 -1.0046418 -2.4525802 -0.31330034 -0.9868772 1.3957298 1.0453142 -0.7434813 1.6282308 -0.6069973 -0.4235706 -0.18353511 -0.36302114 0.104748 -2.839918 3.8654346 0.77114314 0.46602413 -2.1285613 -0.29730064 1.751147 -1.101592 0.8369869 2.4119873 2.366274 -0.102854975 -0.39081484 0.7446871 0.24507073 0.37985456 -0.09631962 1.0217957 0.10917042 0.32307887 0.7402927 -1.690112 1.4534236 0.7083736 2.487212 -0.7282896 -1.1796687 0.29001808
underneath -1.3900996 0.21308236 -1.2117847 -2.0364904 -0.3952318 0.3214573 2.347855 -2.1231644 1.5944822 2.1839051 -1.4627501 1.4239534 1.1776885 1.6645658 1.6974121 -1.3326143 1.9687762 -0.064914495 -0.9623471 -1.5422838 -0.05240787 1.5732727 -2.1131392 -0.24888858 -0.23019166 -1.8422071 -0.9953053 -0.9489113 1.2030802 0.13190664 -0.19681442 0.44147304 -0.022247683 0.8249884 -0.381594 -1.139479 -0.6222182 0.13298163 -1.3422742 -0.48482585 -1.4040426 -0.42133996 -2.911013 0.8675944 -0.20944689 0.29826987 -0.5258508 -0.8438797 -1.0304762 -0.7471088
